{
    "network_type": "multilayer_perceptron",
    "n_layers": 5,
    "optimizer": "adam",
    "loss": "binary_crossentropy",
    "layers": [
        {
            "type": "input",
            "n_neurons": 2,
            "activation": "sigmoid",
            "input_dim": 30
        },
        {
            "type": "hidden",
            "n_neurons": 24,
            "activation": "sigmoid"
        },
        {
            "type": "hidden",
            "n_neurons": 42,
            "activation": "sigmoid"
        },
        {
            "type": "hidden",
            "n_neurons": 24,
            "activation": "sigmoid"
        },
        {
            "type": "output",
            "n_neurons": 2,
            "activation": "softmax"
        }
    ],
    "weights": [
        [
            [
                0.13239935229036592,
                -0.543318593034847
            ],
            [
                0.8731737163021506,
                -0.5909614642494481
            ],
            [
                0.04345037516462334,
                -0.6152544170175029
            ],
            [
                0.4243415446187903,
                -0.8181205027909834
            ],
            [
                0.2456991454485569,
                -0.5519062041584203
            ],
            [
                -0.06850653008674029,
                0.23778403519208158
            ],
            [
                0.5329273873108615,
                -0.15716429549079536
            ],
            [
                0.5850106860304957,
                -0.8631299669193616
            ],
            [
                -0.17640835282119452,
                -0.43938451427192976
            ],
            [
                0.07580323457477417,
                0.2485524095698022
            ],
            [
                0.5380505122918526,
                -0.5942437836215395
            ],
            [
                0.004268719019330107,
                0.13904161359642464
            ],
            [
                0.5306416873446844,
                -0.4430425721372215
            ],
            [
                0.38939369224028386,
                -0.8242046437397605
            ],
            [
                0.0636537671964079,
                0.2469053704092545
            ],
            [
                -0.34405721079509183,
                0.042985557994395115
            ],
            [
                -0.24386312028149568,
                0.018952338077325312
            ],
            [
                -0.1850661851658316,
                -0.13656317485474834
            ],
            [
                -0.22306658726533288,
                0.3869331987656354
            ],
            [
                -0.5123306626862681,
                0.28396555179667593
            ],
            [
                1.0239969735542884,
                -0.9401771380786764
            ],
            [
                0.5235434425288729,
                -0.48847988106080964
            ],
            [
                0.736020462932869,
                -0.5981102578696958
            ],
            [
                1.2600733646250313,
                -0.5260982511339563
            ],
            [
                0.6054629933278134,
                -0.5194501609640368
            ],
            [
                -0.04167639308405438,
                -0.5206448711431471
            ],
            [
                1.0529792753632852,
                -0.34472328979482336
            ],
            [
                0.5964831367615935,
                -0.18353278912374646
            ],
            [
                0.08173432302497907,
                -0.21863261909690557
            ],
            [
                0.0004957853096694726,
                -0.0039417598963078235
            ]
        ],
        [
            [
                0.26555977575957207,
                1.9320096695321431,
                -0.6359368530245447,
                -0.0034831448320921956,
                -0.639160859420442,
                -2.2112252306148603,
                0.9156637930099016,
                -1.986832993792236,
                -0.202117381828095,
                -1.2233171602276138,
                -1.269253307575746,
                -0.31855925418709735,
                1.5883433258718662,
                -0.7939331349050228,
                1.5256121632985868,
                -0.27977941636443976,
                1.2694596155449234,
                2.0744298897405433,
                -1.9881058761913457,
                1.6499910457566478,
                -1.403998461078188,
                0.07760625598369604,
                0.1260469717021011,
                -0.6036932005543931
            ],
            [
                0.8202113432809974,
                0.25393189842911307,
                0.681546047044286,
                2.247158144392322,
                0.8678986152461937,
                -0.5065206695124918,
                -0.16166433960779344,
                1.4045328892400746,
                -1.570755454516232,
                0.8962536763199077,
                1.368959815311226,
                1.5473015410171016,
                -1.921149998528745,
                1.1817506843505143,
                -1.9984864710920678,
                1.5795550086415466,
                -1.271916559102368,
                -1.9380675720615255,
                0.6108611173701523,
                -1.759213046443433,
                -0.12515349382785934,
                -1.750923283836151,
                -0.6741808635627111,
                2.0064654637095733
            ]
        ],
        [
            [
                0.1190218250765224,
                -0.48130404996843895,
                0.3660134155038314,
                -0.029455754201643106,
                -0.39843479257799136,
                0.5295141080738044,
                -0.21585860810759666,
                0.2767717045187122,
                0.18274443826000372,
                -0.2531227214058304,
                -0.5130825213041924,
                -0.08494642005898911,
                -0.2777100296706686,
                -0.0948930839230197,
                -0.18618178920159703,
                -0.30544736862009336,
                0.40642402572519776,
                -0.2061195341017492,
                0.17781477736985324,
                -0.12639999149532113,
                0.16060180082812922,
                -0.18788835049194896,
                -0.4347340609843921,
                -0.21617582518800652,
                0.28582283828987826,
                0.3321696426875484,
                -0.38500319543832523,
                -0.0018473426697663364,
                0.348369862876566,
                -0.00371447170924337,
                -0.06484547075028253,
                0.006569327837221546,
                0.007674781222063372,
                -0.35108387192303037,
                -0.3068165251483242,
                0.4585675844410398,
                -0.15761614995904222,
                0.2566031764622516,
                0.3423890993447694,
                0.24835783007031287,
                -0.3694550404225791,
                -0.14770388473953852
            ],
            [
                -0.28829034620566635,
                -0.2409422833355531,
                0.22171913327770357,
                0.17194605483949799,
                0.12258772005420983,
                -0.4132005182035063,
                -0.31068951077469437,
                0.1570421323776824,
                -0.18847436378805632,
                -0.45242735347701074,
                0.14024158364483508,
                -0.16162516105770275,
                0.30909803769726585,
                -0.43705871537847907,
                0.4641297518497393,
                0.3425974771203033,
                -0.06278235387469118,
                0.335099370881873,
                -0.2756258347876021,
                -0.1314791408304722,
                0.3277298063697123,
                0.1360780014748625,
                -0.07076622538713755,
                -0.2219105160576186,
                0.43419197159294104,
                -0.350597194784034,
                -0.1666916410273805,
                -0.6261250852699384,
                0.25734536137354985,
                0.307440726439314,
                0.14639110829275162,
                0.10111001638163805,
                -0.13628736038591152,
                0.11479921601201448,
                0.14120810791563995,
                0.0866588060230598,
                0.04266756557806728,
                -0.28246278878748093,
                0.1730342444346366,
                0.41253865871236667,
                0.4535677657688482,
                -0.6073655843340636
            ],
            [
                -0.038550701384017866,
                0.2656161789879147,
                -0.047359881185209646,
                0.6550641043250788,
                -0.1958235689604545,
                -0.14307808955872284,
                -0.12693772933281752,
                -0.4461043487944289,
                -0.2652702486164137,
                0.5407058867336975,
                0.21113125275522565,
                -0.3142155980236295,
                -0.5122099287400811,
                0.30944617426674836,
                -0.21413317358328407,
                0.3811280729154266,
                -0.20027731420278969,
                0.2472692588004187,
                0.3871273839250466,
                -0.05783847332867747,
                -0.25520379775376695,
                -0.17314942220601057,
                0.08650331202473299,
                -0.09823235793225234,
                -0.05003818880204442,
                0.1378037311442627,
                0.35770746538298587,
                0.16669495531864176,
                0.10361089628162655,
                -0.2726825448960245,
                -0.029410436644977875,
                0.4893121633945048,
                0.3736373697055249,
                0.46845258936413653,
                0.2064424313235362,
                0.37419266407711577,
                0.4132064606949663,
                0.29515405784106785,
                -0.5532470144536885,
                -0.29005481507307906,
                -0.00039810029232766595,
                0.07375873296883169
            ],
            [
                -0.025380576377526505,
                -0.4474761813354401,
                0.040685120017273424,
                0.39715313831049986,
                0.1798229501003836,
                -0.01749445807342071,
                -0.4803495681590624,
                -0.26478929315463645,
                0.31134100505193796,
                -0.029542258131295976,
                -0.04623752679170196,
                0.3265440414585405,
                -0.21805518401868307,
                0.24074813268058173,
                -0.2558482335266783,
                0.09578311998324876,
                0.5341059627387525,
                0.616083732036296,
                -0.5430288150980477,
                -0.5473506312587532,
                -0.5111561995878646,
                0.28094627305612924,
                -0.0504592937126612,
                -0.07571510790303711,
                -0.3870063214296524,
                0.13995128410435678,
                -0.00544985319604359,
                -0.1524337341652254,
                0.5077891342569528,
                -0.07935072398431486,
                -0.30408052886930326,
                -0.12074648956633843,
                -0.16109296070493054,
                0.11914796911420807,
                0.028236440157091775,
                0.5167321254389187,
                -0.009161367016324206,
                -0.19776311185486078,
                -0.3913465322241706,
                -0.7531944037300892,
                -0.16791258349413543,
                -0.057455307093871366
            ],
            [
                0.06274093598514457,
                -0.545961414250816,
                0.1527907743876263,
                0.19305280966304403,
                0.5273585040970812,
                -0.11759037448939991,
                0.10853670040347661,
                -0.17585748435789386,
                -0.2444529732204656,
                0.6376085617903475,
                -0.0655319112668346,
                -0.1755912912516726,
                -0.02900337804751081,
                0.4431020522735739,
                -0.2035980217726935,
                0.445839843895123,
                -0.2212893440531662,
                -0.12885151338468642,
                0.02006764347157111,
                -0.23327112519491924,
                -0.6596388563192265,
                0.24155810424352173,
                0.19185775809965316,
                -0.03767351231247671,
                -0.6515400619071954,
                -0.24098879885202218,
                -0.5362266005890391,
                0.21339594116312044,
                0.21638606539925617,
                -0.2315940536461929,
                -0.10923308677477364,
                -0.1624669275216572,
                -0.08400635711578702,
                0.33533040505085,
                0.5098108590766595,
                -0.2093818124584587,
                0.6006379930498286,
                -0.2503708102724994,
                0.05029185167609584,
                0.16448090802793788,
                0.1973570734828897,
                0.3897360355834763
            ],
            [
                -0.7071137828515484,
                -0.2371582863451659,
                -0.18488882561284897,
                0.7423515344473206,
                0.2788403015841907,
                0.03703227984486051,
                -0.1740377730799108,
                0.029239815795193247,
                0.5130005550956451,
                0.5108576163199409,
                -0.10252326539740586,
                -0.19209396311495225,
                -0.05882154865909177,
                0.6779823699605649,
                0.15474081809161602,
                0.1551899080972275,
                0.26662767498566187,
                0.5628858982172832,
                -0.6498813973683254,
                -0.11997422440408688,
                -0.17413601621337563,
                0.5073907106151759,
                -0.14462979189217173,
                0.21276809674863298,
                -0.05919939108173379,
                0.09402062734015681,
                -0.6505431941202453,
                0.5003823824804948,
                0.06003051462808212,
                -0.4283084436612872,
                -0.20571133620442,
                0.4681419614775373,
                0.1990724765203949,
                0.6254432332520724,
                0.13802983812209133,
                -0.11065504954537653,
                -0.07557739719750424,
                -0.39460721773666685,
                -0.11437414739890074,
                -0.6183737800763013,
                -0.4075584595901172,
                0.3449598825481513
            ],
            [
                -0.2930147335093448,
                0.306576784366837,
                0.2588249387734199,
                0.1167079110595267,
                -0.31248387850675746,
                -0.10597599066498024,
                0.49086477451863014,
                0.1449533717751078,
                -0.1745174060318253,
                -0.28673168612344135,
                0.46466678642808984,
                -0.045401887975890384,
                0.4932108837032033,
                -0.3932536235451475,
                -0.05330169674377296,
                0.12589348174009712,
                0.3572098700090323,
                0.1428155774506672,
                0.05623712918926655,
                0.2677358861870795,
                0.19705918284905463,
                0.1614132647480126,
                0.15662118087131735,
                -0.2469139719705897,
                0.00554708885415707,
                0.15010104062966548,
                0.22545388672051186,
                0.22423986897787201,
                -0.2454963731883368,
                0.42051429249035244,
                0.3083918675738726,
                -0.11309347028135515,
                0.1486165928049445,
                0.11934940203051193,
                -0.3541070525209043,
                0.09106854417353138,
                -0.10730793635189446,
                0.03685794253308379,
                0.3703899724419232,
                0.32560764239072015,
                0.5553885453579478,
                0.1725668736288359
            ],
            [
                -0.857176962371582,
                -0.978686056953618,
                0.46340348232357137,
                0.09418348305933218,
                0.7447656581613662,
                0.7885798594229261,
                -0.7149260240902142,
                -0.6705800288818781,
                0.8656016056472985,
                0.8769504932277644,
                -0.7684995721174683,
                0.6388053269579603,
                -0.17224692757966723,
                0.8723262742820206,
                -0.726685854137503,
                0.668264724733637,
                0.3279958869480683,
                0.12154576562675203,
                -0.5194334951907372,
                -0.7526936972193587,
                -0.6275850245895254,
                0.19307759078102282,
                -0.6576995436013855,
                0.28061950478105274,
                -0.8189439217800134,
                0.30305030857180787,
                -0.748547232726685,
                0.8346284039487678,
                0.6984665471529087,
                -0.5224469312296018,
                -0.2183220814965065,
                0.13715772097265524,
                0.9512472864257218,
                0.05122740056589433,
                0.5091699126626086,
                0.49055707200044135,
                0.6583216861327382,
                -0.1868405187695235,
                -0.6212114634426762,
                -0.10660323580490828,
                -0.1351399781421849,
                0.4028450751920546
            ],
            [
                0.3681453430775714,
                -0.3287705763292444,
                -0.5054597250963115,
                0.09992940060352976,
                -0.23921366011269127,
                -0.308284878830537,
                -0.18548579612271587,
                0.04402752980994191,
                0.13408792417314286,
                -0.22995199943404085,
                0.1704523791092688,
                0.2532886824655966,
                0.08444933207268822,
                0.2386196882698823,
                0.6467541911933725,
                -0.07911283340052912,
                -0.6513779221499082,
                -0.0706542033370156,
                0.40294751748910307,
                -0.2263073414391847,
                0.5833552475588567,
                -0.328601892140707,
                -0.14765101386044477,
                -0.27244510557513213,
                -0.1751708955108778,
                -0.5672696768424689,
                0.27223959027891803,
                -0.560292005994653,
                -0.6407739428292907,
                0.5067411146110947,
                0.46186105495483887,
                -0.0516175871279139,
                -0.5150976170092457,
                -0.26621326008199236,
                -0.05282552072331852,
                -0.04752075729581028,
                -0.6275699621119464,
                0.29156809813443807,
                -0.2882690916781008,
                0.014492143065725643,
                0.36471100702476356,
                -0.2682979793515464
            ],
            [
                -0.06347111709015059,
                -0.7339417306820475,
                0.401685770602022,
                0.6820639155677126,
                0.14001355021563677,
                -0.004652492054734329,
                -0.22876843737467648,
                -0.4633446206974875,
                0.7361366579005878,
                0.5623495626717994,
                0.015597496278327861,
                0.2714781471013057,
                -0.42253330610431317,
                0.01969981630276349,
                -0.6368922021571193,
                -0.0187497399779744,
                0.6932883765515727,
                0.6352857066407266,
                0.04278881062096232,
                -0.7095843811203942,
                -0.2038606799525624,
                0.1126784026895315,
                0.21884543173354631,
                0.19547574808793422,
                -0.5185698482029137,
                0.73198868852475,
                -0.5951907524150869,
                -0.17129339066547966,
                0.15910095279550346,
                -0.3261988851711953,
                -0.6352368738023466,
                0.5083571261605927,
                0.18745432300137665,
                -0.1439058712450487,
                0.6540671639748412,
                0.5731998617286352,
                0.31114353142369866,
                -0.026065941322536923,
                -0.23281866957649708,
                -0.1775944505566538,
                -0.7184465032832899,
                0.037050738983486466
            ],
            [
                -0.34381746130454366,
                -0.7520914012095993,
                -0.16869404753496148,
                -0.007132101030017825,
                0.46872066792926503,
                0.22306186983023588,
                -0.6233118592787056,
                -0.7182611777176907,
                0.6981851106749001,
                -0.019554166690202383,
                -0.1479982033077987,
                0.10267814589667176,
                -0.22005654939513647,
                0.7658217464806826,
                -0.2633188574334328,
                0.09476924627468158,
                0.20656311006342598,
                0.5528278510670878,
                -0.31075532702360603,
                -0.187861878970097,
                -0.5344315237488438,
                0.6859417216505704,
                -0.7761274308466454,
                0.4741461467411017,
                -0.6420819066213083,
                0.13055396541726766,
                0.02849517097392752,
                0.7194388916903421,
                0.3574567148855244,
                -0.51125343879885,
                0.028171478062499707,
                -0.09446120031162143,
                0.5062299494887639,
                0.14535879691591044,
                0.6157708712919935,
                0.15537849500956286,
                0.49769819699286416,
                -0.8056636971102293,
                -0.4072502128148075,
                -0.11159676762633522,
                0.0416922670268657,
                0.7454929161636881
            ],
            [
                0.2570679115009295,
                0.18371577713138001,
                -0.006490205758371817,
                0.4171158677285264,
                0.5938663734303006,
                0.050932724926001205,
                0.3081675255799169,
                -0.44865277656463437,
                -0.2368927148856351,
                -0.12279432332692827,
                -0.3614643647365392,
                0.6778076823865484,
                -0.22453129801182753,
                0.30165813122621216,
                -0.44141622445360623,
                -0.254769251641237,
                0.5385070693802211,
                0.030624239421302806,
                -0.32382720770968076,
                0.26265435557103156,
                0.041505562671789495,
                0.003468183380275802,
                0.28644192824719406,
                0.23141566031885924,
                0.08351357567846406,
                0.2687383388398124,
                -0.2626731300287608,
                0.5136047040146171,
                0.5911827107015911,
                -0.2990993064185782,
                -0.39027796048067176,
                0.2631053704479646,
                0.1477435408093563,
                0.38057829134903043,
                0.1983024928808419,
                0.3842068471135585,
                0.43591299781740567,
                -0.4859686174915799,
                0.1145276807937084,
                0.005479494424732729,
                -0.35205198379807984,
                0.3211591095953449
            ],
            [
                0.6099050817906809,
                0.5567630374357107,
                -0.4178055414203318,
                -0.7723171749648514,
                -0.7016020743604047,
                -0.36869564263318816,
                0.4418851331572543,
                0.44573822238845684,
                -0.595748441573155,
                -0.28388011838320193,
                0.6548556016477707,
                -0.6754703834331365,
                0.560591026023179,
                -0.6766988816040646,
                0.8097349956465145,
                -0.7786261880526925,
                -0.47137951183333443,
                -0.26780452454857634,
                0.7460452161873399,
                0.3686697184091989,
                0.7235436727140956,
                -0.8070381807806978,
                0.1921306141125193,
                -0.7317787273215103,
                0.39610859563834466,
                -0.4044670545944339,
                0.5197107708846249,
                -0.0012318266952478561,
                -0.6653573875839442,
                0.40095117211568965,
                0.3946441155535083,
                -0.15848687563108613,
                -0.08963064736056972,
                -0.648226460751197,
                -0.1560935719070024,
                -0.03040904515726238,
                -0.4716886645263874,
                0.04366539673426652,
                -0.08704373148676635,
                0.5751784153721278,
                0.7313316920498026,
                -0.35292383952312856
            ],
            [
                0.0656923900066456,
                0.2295195472746093,
                0.615308570412821,
                0.3740552132041879,
                0.5290384481211646,
                0.35275272513044825,
                -0.1781777418695588,
                -0.6434021696318574,
                -0.14872302308127064,
                0.47624515546978063,
                -0.6965467656946057,
                -0.03149473458383364,
                -0.6678035105320983,
                0.34248678321271286,
                0.01825115885207662,
                -0.02590901350571441,
                -0.23298550623559441,
                0.32251540712144466,
                0.026114514904021387,
                -0.1766684302243309,
                -0.5248952476902458,
                0.4533995687481549,
                -0.5201192365978425,
                0.6658656860998448,
                -0.6833729294864525,
                0.6517996580328764,
                -0.33719544941861035,
                0.19873731844400166,
                0.13904556985531125,
                -0.6612129889420294,
                -0.6502530136453762,
                -0.1367426777147513,
                0.6132910959811848,
                0.6766762587989996,
                0.03977698603582781,
                0.0739034485789841,
                0.29641945716304063,
                0.027059837017423854,
                -0.7402249128915944,
                -0.5487140458538186,
                -0.3749025961745303,
                -0.029128164118856555
            ],
            [
                0.37529973849163034,
                0.8468231217771062,
                -0.2780801358129393,
                -0.6799048143881053,
                -0.6914348652245658,
                -0.6552377388321152,
                0.05125810377219394,
                0.38115181808020554,
                -0.5009597093563981,
                -0.6215089381349842,
                0.07207957078785536,
                -0.6675406779757765,
                0.060226236323427454,
                -0.8638238730493489,
                0.37881306365511835,
                -0.24353959439140577,
                -0.8567277721351465,
                -0.565645894619195,
                0.8532140167411313,
                0.20038348880964443,
                0.1836559718205647,
                -0.12607297798380315,
                0.3686402858756176,
                -0.3397070216025164,
                0.6566177901843269,
                -0.825278251569692,
                0.8150751581382433,
                -0.39107519539156893,
                -0.7113362637540848,
                0.20692240183680463,
                0.6241744970071905,
                -0.5538958992355797,
                -0.3159314649879684,
                -0.4564601127626392,
                -0.8691085790208443,
                -0.9044195130462905,
                -0.31978613951150603,
                0.10620388449374657,
                0.7161166013669134,
                0.373420843637342,
                0.20393269644641657,
                -0.6852363588165759
            ],
            [
                -0.4683376728812627,
                -0.07951114309603986,
                0.20447647931676213,
                -0.26268976650066167,
                0.10885945829042072,
                0.10289190055227952,
                0.2108679396976608,
                0.17851905536114762,
                0.1243856538024888,
                0.3493057979054984,
                -0.23337156171655776,
                0.4786462034888698,
                -0.32270833548371214,
                0.4254416121697611,
                -0.19538942697207776,
                0.18752702025827,
                0.423330760032563,
                0.0858055170346097,
                -0.3861175018726655,
                -0.3402725988449729,
                -0.515169952676396,
                0.08088879891902992,
                -0.24640445974991237,
                0.5278188397970698,
                0.28683484481182336,
                -0.2106765430001405,
                0.07174411831112477,
                0.16900532633764548,
                -0.3599470890278135,
                -0.3479745738779326,
                0.0029646335239463945,
                0.48047796496861617,
                -0.09693201669803554,
                0.21831635651375472,
                0.1387622828068732,
                -0.20901938927338207,
                0.6228871827501588,
                -0.00842952185141448,
                -0.40203057483999716,
                -0.3170596271270152,
                -0.5868408286507492,
                0.5678989607094774
            ],
            [
                0.47886196139864007,
                0.22679300226181073,
                -0.2465711850807887,
                -0.2880532582743614,
                0.03820511435681296,
                -0.10182518915612761,
                0.21863499110341927,
                0.7970150693837724,
                -0.692708395374703,
                0.07521272639224387,
                0.5364188850151017,
                0.13065123365158987,
                -0.02172361815683466,
                -0.7472253653828768,
                0.02381424975837213,
                -0.28116205416429063,
                -0.3827504927850972,
                -0.6650681652883118,
                0.4822497182003461,
                0.44993544406551134,
                0.4607994812199893,
                -0.5662959761115615,
                -0.19347428463415065,
                -0.2425965631038266,
                0.28051760433346046,
                -0.4430255330717907,
                0.5235936723166642,
                -0.5516167702078816,
                -0.173333776785342,
                0.8542993174004831,
                0.2779426643839162,
                0.10404310643571406,
                -0.6291842406024805,
                -0.19365734717860808,
                -0.6215312400966398,
                -0.6149534802866997,
                -0.13684528004877855,
                0.2432311370434067,
                0.6101467472262188,
                0.570675793467146,
                0.08044899040946908,
                -0.32166886860137645
            ],
            [
                0.2595358964225472,
                0.7466345676730882,
                -0.12273101093618308,
                -0.4190416310417798,
                -0.4432204696101837,
                -0.3094445044620773,
                0.3497195983863365,
                0.09382532420281188,
                -0.1220136365374184,
                -0.5929681890248961,
                0.6068296597212186,
                -0.2781075377954044,
                0.005314544031782252,
                -0.7978348665072649,
                0.028314500216377936,
                -0.11301971502352234,
                -0.05905714754737096,
                -0.971297567917214,
                0.3741527302076297,
                0.7323632172606652,
                0.7217210410125728,
                -0.5041182060491767,
                0.39342831281745144,
                0.08311892902338502,
                0.5236047878864527,
                -0.47697337020993036,
                0.898520841034245,
                -0.12876768660808635,
                -0.7613074975548669,
                0.44112676350611907,
                0.369702401360456,
                -0.4715851231321685,
                -0.9786727545855207,
                -0.2588706191242876,
                -9.812263907390353e-06,
                -0.27338948459402784,
                -0.907504759726524,
                0.6165023202652702,
                0.5390751806581813,
                0.5823855549046715,
                0.13190010396976323,
                -0.6648050780095456
            ],
            [
                -0.8562282806580825,
                -0.8635761711806098,
                0.3778990529226879,
                -0.07373114195021287,
                0.3872447699976657,
                0.8175566726974556,
                -0.39734342859723193,
                -0.6175431317550049,
                0.20344376346802256,
                0.2963610268662265,
                -0.10739306740113218,
                0.9092387596683491,
                -0.5043478802930812,
                0.7385204638049873,
                -0.7599063099765676,
                0.8819983054820626,
                0.8423111558487061,
                0.19954971660329254,
                -0.16623269251114378,
                0.10301027638793618,
                0.012189731993513732,
                0.392743164254777,
                -0.764960976712306,
                0.052404283198295896,
                -0.16153740239188438,
                0.19565754491161386,
                -0.6140049608546868,
                0.8670860275182114,
                0.6529173541093456,
                -0.6988087332776369,
                -0.41220246839653807,
                0.8196606643223532,
                0.20540334049296544,
                -0.074893356641568,
                0.10204872049722341,
                0.08336312372977449,
                0.29924015765014916,
                -0.5073294721766344,
                -0.6367858548075032,
                -0.10809198774115295,
                -0.409926556679354,
                0.29202236263798353
            ],
            [
                0.8172976248273883,
                0.6896214897644365,
                -0.5571452260268573,
                -0.42251828173848377,
                -0.3907212687362978,
                -0.40321496296841186,
                0.3613886277928683,
                0.5570576022030395,
                -0.3608692016565126,
                -0.26284768376156675,
                0.6833776076965552,
                -0.053871368579256736,
                0.8281635329497177,
                -0.21552779084786827,
                0.8727840566649803,
                -0.4874170730542264,
                -0.5890335724914595,
                -0.7002500064972251,
                -0.044031115734676114,
                0.11196241003412337,
                0.16825770232509,
                -0.5147095569538676,
                0.5466666671526597,
                -0.4752195197741075,
                0.23420689983478668,
                -0.056625813475905624,
                -0.03236237678969465,
                -0.46807387924333876,
                0.020984079472749585,
                0.6089167667149604,
                0.24344188968174746,
                -0.424250467157293,
                0.02226640216204117,
                -0.9515701258979548,
                -0.6397503268767318,
                -0.21231181385843093,
                -0.27275161401406167,
                0.6620008619584359,
                0.3451593039732608,
                0.24605988594993572,
                0.606158838501958,
                -0.1543436283552375
            ],
            [
                -0.6602521583901535,
                0.1725480346183432,
                -0.2828854923960583,
                0.018359814510996417,
                0.07752771201136914,
                0.26934085838282984,
                0.01547694958450473,
                -0.13978819342615623,
                0.332770718324589,
                0.03555836771696822,
                -0.2885456170436679,
                0.11692077135289694,
                0.07929963207675224,
                0.3061304009052655,
                0.24117644384584294,
                -0.04418173625304253,
                0.08554301285223224,
                0.6246635869448673,
                -0.4698247549882022,
                0.28979799084177976,
                -0.5098219283498361,
                0.5189382583963033,
                -0.41651786001538843,
                0.6711194740222483,
                0.18268445484809903,
                0.08792397057399177,
                -0.3959902070631771,
                -0.1355473302989054,
                -0.05188347651594919,
                -0.14602012127680197,
                0.04803539974278012,
                0.19150509082315725,
                0.4275632947075297,
                -0.04477492246646438,
                0.3896049407711141,
                -0.15615822631017648,
                0.5826820606140318,
                -0.45178808204003784,
                -0.14782822934282372,
                0.0666517711000392,
                -0.539124526308374,
                0.1898941772769051
            ],
            [
                -0.13031575384200092,
                0.6164932383958966,
                -0.8269110146663322,
                -0.5492036942111845,
                -0.42049712663948996,
                -0.3342195109334049,
                0.39016633196684836,
                0.13013842094509476,
                -0.4522510216434474,
                -0.0896562589975497,
                0.14650206478853453,
                -0.4561669336653322,
                0.1552148209242142,
                -0.14646321145901942,
                0.4949960801637964,
                -0.6625960399850868,
                -0.769030956781676,
                -0.4638406093617059,
                0.13289970959960215,
                0.06611761544260424,
                0.6384532061616486,
                -0.11299280074953306,
                0.6284624387419404,
                -0.09054067269671211,
                0.6093261818784851,
                -0.6111981708830119,
                0.23935022631726624,
                -0.223543564382104,
                -0.6004649739888657,
                -0.12968075065027845,
                0.21365947337574034,
                -0.6781651121336015,
                -0.31990527443929273,
                0.14049278370715923,
                -0.07142783893291234,
                0.1608163908981785,
                -0.13483754451887398,
                0.3791868488157159,
                0.3393162020317932,
                -0.2876283555459858,
                -0.22102667025986963,
                -0.514891963856537
            ],
            [
                0.4051585135385086,
                0.41692275695665126,
                0.009026025713743287,
                -0.38142440910594955,
                -0.2455750820482491,
                0.20195389906149028,
                -0.10053666023195018,
                0.5518326646768972,
                0.3784084575435701,
                -0.263830294175275,
                -0.22079350117615287,
                -0.3876878350656741,
                -0.09856304873721888,
                0.25029582770853187,
                -0.008100449369941089,
                -0.2501722172907182,
                -0.2353787169516537,
                0.02804224389449458,
                -0.2175784214813371,
                0.18817080771084524,
                -0.362940016278091,
                0.4175629998567635,
                0.5519745584585681,
                -0.4080640397013435,
                -0.017429737344554577,
                0.4995597165075277,
                -0.30640375802511904,
                -0.012572326287696535,
                -0.1859375519680083,
                0.0376427542023326,
                -0.08052707113117366,
                -0.12107871341517665,
                0.03540320936375482,
                0.10938246691098288,
                -0.3615147694512307,
                -0.4079562290164747,
                -0.5813874022666354,
                0.4351693864658297,
                0.12688143726167922,
                0.05417001331417501,
                0.46449090233697804,
                0.2416194599389865
            ],
            [
                -0.19090686383160624,
                -0.11723428493023426,
                0.3794611433869432,
                0.47075553994606767,
                0.3751288034644472,
                -0.05465600878172567,
                -0.5416034053358881,
                -0.15122403089837022,
                0.20394619439002387,
                0.4333562004901943,
                -0.3971420419024449,
                -0.04093534691637373,
                0.03419082284902616,
                0.1562508990656703,
                -0.515285921612311,
                0.6164759591260638,
                0.08967965149375307,
                0.4187762272965481,
                -0.6461652672028041,
                -0.3043153233196708,
                0.11956402852669838,
                -0.13186344943363698,
                0.053935383463593146,
                0.6521842446923102,
                -0.474329680525348,
                0.34205493454007796,
                -0.06875243807308877,
                0.18017544296483037,
                0.5071710449786422,
                -0.4840830662201302,
                -0.1858694751219403,
                0.24143013213673867,
                0.5120039746094317,
                0.6916586913301793,
                0.3911935629781925,
                -0.04869534928705104,
                -0.10558399485018971,
                -0.21345853365227205,
                -0.02542299849469634,
                -0.7120826314562666,
                -0.2854548284875715,
                0.4833451222672856
            ]
        ],
        [
            [
                0.5291650393760552,
                0.16106167451467923,
                0.3735528736982055,
                -0.1680525487015276,
                0.45924165186986976,
                -0.15548665514396942,
                0.026003568542019167,
                0.36951709804636085,
                -0.08785535635287088,
                -0.6111826140811378,
                0.3557522121895673,
                0.08768507178349688,
                -0.08082484152963387,
                0.056965335579466043,
                -0.5788601807892582,
                0.18086524568276213,
                -0.3194736120034413,
                -0.5713523881791971,
                -0.47079435910876033,
                -0.021334933897569717,
                -0.4777834368843112,
                -0.13091713864786297,
                -0.18092013981744737,
                0.10198079172810656
            ],
            [
                0.1753177757354234,
                0.6749005561825062,
                0.4703159589297213,
                -0.07582962041870307,
                0.2597068905503129,
                0.7054735318216028,
                0.41414660704390654,
                0.3994246018104803,
                -0.26364302790565897,
                -0.36450136196681315,
                0.5577017023355596,
                -0.19911256899653645,
                -0.37732502173348004,
                0.5886269928545236,
                -0.5363488056190823,
                0.4696912316136255,
                -0.09654931394700295,
                -0.27445310721609095,
                -0.48810907657567987,
                0.5002915852303137,
                -0.7010477745384126,
                0.5194127018923506,
                -0.31071940825014244,
                -0.04896834231642654
            ],
            [
                -0.07131978783394878,
                -0.28018761370042516,
                -0.11679841469433881,
                0.07369635790854588,
                -0.4673939650498811,
                0.04402381302966741,
                -0.3979667592157998,
                -0.20190791502845237,
                -0.03786101956698132,
                0.4472378225421028,
                -0.3557628978652943,
                0.3844230187337134,
                0.16594562085308553,
                0.0997413646635014,
                0.47015379551803965,
                -0.39524952130466623,
                0.2037529404129746,
                -0.07411930791916777,
                0.16945358802225985,
                -0.25345663166950133,
                0.22675597778532128,
                0.1480245683302332,
                0.27076458166947875,
                -0.19144817414143928
            ],
            [
                -0.41298080202202714,
                -0.023746617285658186,
                -0.14879325197389448,
                0.5150748756349448,
                -0.5845335707608068,
                -0.5058928082503745,
                -0.07652255266590063,
                0.0018429399028689914,
                -0.02779362792256741,
                0.015426252006465139,
                0.13061066082167397,
                -0.04607119385325736,
                0.500430336826905,
                -0.43545191233474223,
                0.29633176264255257,
                -0.3310261557596327,
                0.21363711524358164,
                0.3427589214805147,
                0.04191304949812148,
                -0.47972048597372163,
                0.4919017623382367,
                -0.036443458360435284,
                -0.03570475087968536,
                0.015805792326328765
            ],
            [
                -0.46858483537965695,
                -0.4124408249622351,
                -0.2939638486030012,
                0.36597737513089723,
                -0.046420921891157436,
                -0.6419249080485282,
                -0.5548002216693139,
                -0.5508592122007558,
                0.6207800765905299,
                0.3742520131437718,
                -0.07141303197268097,
                0.12136584605329911,
                0.7426473216994417,
                -0.21702604614696022,
                0.2882967296762705,
                -0.5538569048231988,
                0.1653665150829993,
                0.5659399253257233,
                0.0014004806095808174,
                -0.14619868779318898,
                0.6397355143841723,
                -0.2946739441991373,
                0.09588292836539349,
                0.5033788047801336
            ],
            [
                0.04738197222430901,
                -0.3397664979142074,
                -0.6335893132256334,
                0.520258683596968,
                -0.4005684310973778,
                -0.352773575126577,
                -0.4130169561097723,
                -0.04970093248738555,
                0.5592337181720988,
                0.4906195368288665,
                -0.5428988355317499,
                -0.020420129425145133,
                0.08988759740329358,
                -0.08862720363049066,
                0.08190524331850854,
                -0.4276826234275132,
                -0.06296576597790428,
                0.2837430332229169,
                0.6408467019222562,
                0.11756404147959133,
                0.36855632901870256,
                -0.0038199512066881373,
                0.23369080388851218,
                0.4421731001970763
            ],
            [
                0.38229101840090907,
                0.08727123155758514,
                0.05737187587531086,
                -0.35328909355764737,
                0.43775048159441454,
                0.3687718934944262,
                0.0863240745898743,
                0.3274064632894396,
                -0.35992226410844036,
                -0.4701667226232206,
                0.37860659621983433,
                -0.32453426114846207,
                -0.43945261905407895,
                0.034951294774354734,
                0.0889718812283007,
                0.3196741030679161,
                -0.23196222354850748,
                -0.41270826902573826,
                -0.2217791321302424,
                0.09359401996063178,
                0.04497844489692478,
                0.40208870322948237,
                -0.05106703192631767,
                -0.28978224776638506
            ],
            [
                0.4297623666860109,
                0.24845288436928395,
                0.5280601322365872,
                -0.3001942455845448,
                0.1531649622170481,
                0.5512790804273312,
                0.013143906566597585,
                0.2641780185949445,
                -0.6060901589875595,
                -0.025247138201913766,
                0.6462950995587543,
                -0.24124242134061222,
                -0.5231349613141514,
                0.6779441631882819,
                -0.3279447377785379,
                0.6469830608415927,
                -0.23838499236606855,
                -0.6617976284620134,
                0.04925993330099345,
                0.4354843715548733,
                -0.2373363394825502,
                0.26535328814474524,
                -0.20317102788114927,
                -0.41807922658596874
            ],
            [
                0.05225832179323215,
                -0.45634327546233117,
                -0.22820151363372534,
                0.020416228458355848,
                -0.3185339197895435,
                -0.23806217755486953,
                -0.6156962795504548,
                -0.015876966996848565,
                0.49418283007266695,
                -0.09661196956795454,
                -0.281095927776867,
                0.49277264491099293,
                0.2567430385479183,
                -0.4705060005263629,
                0.6429968066676723,
                -0.0713125454709421,
                0.027743461544396233,
                0.6422523098318185,
                0.19329654753551473,
                -0.2628224217344665,
                0.25991011150410337,
                -0.5943953644264857,
                0.3338218597099615,
                0.3476182843561565
            ],
            [
                -0.3318943368566362,
                -0.004436180078475054,
                -0.004871067758580847,
                0.5225361293694717,
                -0.3295142375941974,
                -0.3714021484377322,
                -0.2219763294535433,
                -0.28124800041355685,
                0.361477978188763,
                -0.037631513916253044,
                0.14439824946541832,
                0.3968298940908962,
                0.35694503491851404,
                -0.5350949972107797,
                -0.08869969446327981,
                -0.47875548570917015,
                0.34184375033722775,
                0.3728635871916548,
                0.2621407866376268,
                -0.5247011248801653,
                -0.06392895193731102,
                0.06219021460122012,
                0.0065033687221886585,
                0.2767127805445097
            ],
            [
                0.09469055090724347,
                0.5095959371487259,
                0.03390437044257723,
                -0.19555947646957722,
                0.1666068294168499,
                0.5215579847495778,
                0.26486887682566285,
                0.2117729915295351,
                -0.560018659609738,
                -0.3569655461881917,
                0.27565166557459686,
                -0.03198453019064855,
                0.1590312366520917,
                0.2463674178020571,
                -0.2884666773785625,
                0.012668976431320311,
                -0.09652315251436806,
                0.053706851999253846,
                -0.5338356149956659,
                0.32673146758593696,
                -0.2099410613333596,
                0.43477525843956544,
                -0.48158953378095987,
                -0.5768206134961128
            ],
            [
                -0.19787790438220476,
                -0.11277281122270687,
                -0.22942316280350167,
                -0.06852307957408021,
                -0.39814890912647566,
                -0.4953344655440407,
                -0.12505889212957652,
                -0.008642605094742725,
                0.034786890543962966,
                0.3815237828601683,
                -0.23996926454079895,
                0.5263783954698211,
                0.13001870517991304,
                -0.1267972199973617,
                0.02920046129996811,
                0.04153493900214208,
                0.46026071369225297,
                -0.1482732291674262,
                0.4080496348330377,
                -0.5328487343584558,
                0.36062136557693175,
                -0.38227924649063433,
                0.39169535420528195,
                0.37763741492076286
            ],
            [
                0.3825293900669528,
                0.3655688377641953,
                -0.028851287337814203,
                -0.07732231238656477,
                0.5346298976270469,
                0.4129213933510299,
                0.35397580249848537,
                -0.06307183647504494,
                -0.0560583494290114,
                -0.5063191336403189,
                0.12358659748173875,
                -0.2562214347835562,
                -0.13627526656928643,
                -0.15944921458377506,
                -0.32751993603271223,
                0.4213756399201251,
                0.08183829786227599,
                0.15109205396387929,
                0.022352983079760542,
                0.4315143182402639,
                -0.420710068197214,
                0.11048299754546588,
                -0.5177096095860737,
                0.12216189027836435
            ],
            [
                -0.20341094453195893,
                -0.7217414835552173,
                -0.16160036183479223,
                0.6215653949837027,
                -0.5734113698194488,
                -0.67710783779809,
                -0.20929224592123472,
                -0.49441966279737126,
                0.3440933415407456,
                0.4821015332170504,
                -0.2888969751817711,
                0.5650263226016586,
                0.3104244789953549,
                -0.7721330110391211,
                0.5850949893998312,
                -0.5050829586296228,
                0.7290401248665468,
                0.8154670666425892,
                0.47133074642470535,
                -0.40670514649485984,
                0.7000685351560223,
                -0.5948831982137631,
                0.43953626213878894,
                0.6430448740611839
            ],
            [
                0.05176347777081607,
                0.33684886211170023,
                0.3831485222155825,
                -0.6485863876462579,
                0.03649953522815885,
                0.252347607892075,
                0.16301515243151674,
                0.31529382184604166,
                -0.07547782452638685,
                -0.521164810281016,
                0.575907446067139,
                -0.5580534304936373,
                -0.6639037095898291,
                0.5322562975743634,
                -0.0516879164905073,
                0.33960577141084275,
                -0.0268506067255055,
                -0.1483606744230857,
                -0.6246316226466564,
                0.6675915272629294,
                -0.3296611134635594,
                -0.04418029357067568,
                -0.4074950631363236,
                -0.6417121476648199
            ],
            [
                0.1285298555263556,
                -0.3619695472667554,
                0.09101089845246403,
                0.537137487969006,
                -0.3303098159506459,
                -0.2729815861702093,
                0.0010886380297327487,
                -0.4402928211937356,
                0.18052059376408686,
                0.4644188713678576,
                -0.4833207553480952,
                0.39617740552669684,
                0.13395546200336442,
                -0.4381298288130176,
                0.33386335588817084,
                -0.10742473745719722,
                -0.07957513537245524,
                -0.04142875688106586,
                0.2727107153784246,
                -0.29386797173021906,
                0.1958316926895557,
                -0.06765071880727558,
                0.44683286089785873,
                0.514135952446492
            ],
            [
                0.032743500759591614,
                -0.48497374136423355,
                -0.5720429813035743,
                0.5168315231337306,
                -0.2808269233666451,
                -0.3199736192844757,
                -0.3424084053819479,
                -0.5552790193195669,
                0.5186360528145743,
                0.23742147399550234,
                -0.622639606354045,
                0.35734205835185545,
                0.21949864486040724,
                -0.38282551162917006,
                0.14685385525981973,
                -0.2166570663046465,
                -0.06706213854960369,
                0.611231940080041,
                0.42906668760712663,
                -0.16073082056184243,
                0.035653784352500106,
                -0.5387467164800226,
                0.16667320929196913,
                0.1857032014999012
            ],
            [
                -0.6093113276138993,
                -0.21075417390481738,
                -0.1378509629799756,
                0.29197447168700985,
                -0.5285944855186624,
                -0.44223235678772743,
                0.05957774013813849,
                -0.3396476147461393,
                0.4921445500947527,
                0.38429638905404956,
                -0.11608402417491036,
                0.48615564621278257,
                0.05988403563313066,
                -0.4910552146742787,
                0.5901856238930759,
                -0.5251716697751676,
                0.19366663639487386,
                0.11651982847580018,
                0.4178744298521183,
                -0.5471387347579257,
                0.3292494411583329,
                -0.6115988114612863,
                0.5030373635050708,
                0.20967930123206402
            ],
            [
                0.21229076278037537,
                0.36477278064609875,
                0.13792363973248728,
                -0.36694394666473146,
                0.01867611436290512,
                0.08268740354163749,
                0.5164887471717702,
                0.33695715210917937,
                -0.30153807149123074,
                -0.6584642440401215,
                -0.010571525730054477,
                -0.4363584403036184,
                -0.487432529262954,
                0.12551937197795535,
                0.0676057783519935,
                0.5141598533235584,
                -0.3419370350935334,
                -0.0754001601855325,
                -0.6323909767754962,
                0.2696455392314162,
                0.0505866042078714,
                0.4498593915054787,
                -0.5266358832674826,
                -0.5690232702638564
            ],
            [
                0.03508559757652996,
                0.1710104786527738,
                -0.07319044775962424,
                -0.39769305081423206,
                0.2173862456860698,
                0.4528541448837855,
                0.17385075665037342,
                0.5262264695040948,
                -0.31970589710143826,
                0.08077151398315556,
                0.039284309163329645,
                -0.5817911493269848,
                -0.3345640068416503,
                0.1890241943996074,
                -0.5047705782949781,
                0.4104716564503526,
                -0.4457861414787825,
                -0.4866557669373146,
                -0.1271861325673741,
                0.22592691830471276,
                -0.18144961321747824,
                -0.051356468893080695,
                -0.33143027174058426,
                -0.6167167035246723
            ],
            [
                0.4454464619146316,
                -0.009209053830356827,
                0.6825897865076062,
                -0.04325540618684127,
                0.45986333956241016,
                -0.07713648444703448,
                0.015244231121294128,
                0.48435652853613154,
                -0.401767944612018,
                -0.600993716493307,
                0.15231084370579034,
                0.005323787119628014,
                -0.27882621577140626,
                0.4172409259264417,
                -0.021202333712109084,
                0.5425540334571456,
                -0.23547102698206812,
                -0.13342344460158284,
                0.009202881996823132,
                0.6002763099820531,
                -0.6541509143074025,
                0.05960305111036312,
                0.05258128119778277,
                -0.11471100416896834
            ],
            [
                -0.05182197757857611,
                -0.37108787739896615,
                -0.11264797047938188,
                0.2809989208963312,
                -0.41575933297433937,
                0.04665328370839368,
                -0.11991685397541275,
                -0.5175022690757511,
                0.1815344300680496,
                0.5615467427284353,
                -0.3271381917881958,
                0.49292827702611547,
                0.0576703619102888,
                -0.37829374706996927,
                0.49824636857789883,
                -0.1821226025163221,
                0.356178801311714,
                -0.024830004908524918,
                0.12436848055256677,
                -0.5268629872746867,
                0.38929966746061834,
                -0.03104789904979507,
                0.42919271251593777,
                -0.0787347923013574
            ],
            [
                0.46610566841255624,
                0.4766359004203483,
                0.1509910632813312,
                -0.32531303399189854,
                0.5807237204378551,
                0.42167330177638634,
                -0.14425217599938175,
                0.4474549324434601,
                -0.12259050667566385,
                -0.05152004443106188,
                -0.02453558312949993,
                -0.2699448512590574,
                -0.44914505376936553,
                0.400793827628564,
                -0.37193387063026234,
                -0.017913933376816488,
                0.06917989141706457,
                -0.2533017324426994,
                0.2018562333655018,
                0.10090118029816728,
                0.01534708849863206,
                0.11396269280883366,
                -0.13744511989096556,
                -0.45902191967056327
            ],
            [
                -0.5227553834072319,
                0.15590368987604963,
                -0.13387267857675705,
                0.15479847002965635,
                0.15797999868961235,
                -0.5155048311445374,
                -0.13931303565824413,
                -0.3305912713739575,
                0.2068364696515952,
                0.3094379394349034,
                0.04224387068426127,
                0.009799081394250404,
                0.053431278108721766,
                -0.33520803059233434,
                -0.12173951689616416,
                0.059395075099542415,
                0.471477472471913,
                0.549625877364365,
                -0.03921362320264844,
                -0.4178444600433299,
                0.3992905242243352,
                -0.3669776274482236,
                0.33222089462339927,
                0.47968787837542703
            ],
            [
                0.1807368091205104,
                0.5567401720279401,
                -0.00679250833281612,
                -0.20186142808220925,
                0.2734522274586844,
                0.5997418418814826,
                0.5775911732481608,
                0.3524747610190751,
                -0.6302430204339792,
                -0.22740943748543857,
                0.30294740617351906,
                -0.6295631115561717,
                -0.5884815481959264,
                0.661583522094364,
                -0.6755867994177283,
                0.02844210285501005,
                -0.01356210759726815,
                -0.2683169833796794,
                -0.4044409146058121,
                0.08277518219421996,
                -0.36909441589747594,
                0.5432436686685527,
                -0.6372473903135218,
                -0.011967820854747268
            ],
            [
                -0.41502041206659257,
                -0.37688935868018897,
                -0.5729930467695279,
                0.20694340184061502,
                -0.1872927243702779,
                -0.29362265096174006,
                -0.0843084602246766,
                -0.35739021992523423,
                0.42211061915072523,
                0.42961268556627036,
                -0.3025371249869223,
                -0.043203182613419745,
                0.5672364273146203,
                -0.09409450032762615,
                0.6041567498487603,
                -0.388684117416804,
                0.48389746034976894,
                0.4753667864884644,
                0.34658151061572157,
                -0.6306958763290004,
                0.2407882938200935,
                0.03663104434418411,
                0.32281503370523684,
                0.22691509121831493
            ],
            [
                0.47685146747979623,
                0.24394738726698909,
                0.1307900048855688,
                -0.36254828019415775,
                0.6962157299235892,
                0.10482725938792282,
                0.6221080051028083,
                0.4893076555407387,
                -0.4350511007881269,
                -0.15778903239283337,
                0.4282313444315531,
                -0.32272193710377867,
                -0.1356382116550551,
                0.40119706024631396,
                0.016464111501410063,
                0.5317201415152886,
                -0.44814611011174116,
                -0.3442361704827757,
                -0.06641346610167922,
                0.4246257876738417,
                -0.6634788863842324,
                0.363201961905865,
                -0.524065403430542,
                -0.5437596034545518
            ],
            [
                0.06609188244425065,
                -0.15268810215052853,
                0.1427578978092402,
                0.40022383696036895,
                -0.11466125451006297,
                -0.5882092018123783,
                -0.37595896572677456,
                -0.2391184954445601,
                0.2974332839819548,
                -0.10952874361104588,
                -0.29680610655315,
                0.10985593188380081,
                0.5207191807387161,
                -0.31558957278987143,
                0.1320046780488925,
                -0.48633436076702885,
                0.5668416621949773,
                0.21250257032420364,
                0.5016238977643731,
                0.11198546561047966,
                0.5395401204329021,
                0.045938137392928555,
                0.010919284873443302,
                0.13787419750613442
            ],
            [
                -0.25101495631208315,
                -0.4721539811068474,
                -0.059396009516418484,
                0.4035423486769636,
                -0.5517178545769104,
                -0.29103846254482546,
                -0.20628779408587924,
                -0.46599363792931825,
                0.10009041308435693,
                0.2717824804200797,
                -0.41370677210630014,
                0.4454145190163639,
                0.2001311620592282,
                -0.4502785973345681,
                0.04250243919063637,
                -0.5800311599045263,
                0.44277592577109937,
                0.364933753137761,
                0.21191088445646972,
                -0.3777702872703657,
                0.34109663601975193,
                -0.4456724561870144,
                -0.03766531876250373,
                0.25144265147054334
            ],
            [
                0.32891885242893837,
                0.3147746192196388,
                0.6407455815899258,
                -0.7021273211563867,
                0.39615843053120003,
                0.2812800934248096,
                0.6859609690341832,
                0.5857193663708673,
                -0.4695264979086637,
                -0.6472769850701687,
                0.6110884202308087,
                -0.5935896752406588,
                -0.6741075903151317,
                0.6337381955303885,
                -0.6805515352349608,
                0.6007885681413342,
                -0.3373488172921017,
                -0.6069330178243597,
                -0.14343482820812167,
                0.5287848423412057,
                -0.6246254410182909,
                0.5339573697136176,
                -0.3714513750435702,
                -0.5897243809376265
            ],
            [
                -0.05899414999602457,
                -0.12468869786512034,
                0.059568015776984166,
                -0.44100079084472954,
                0.12120410732456473,
                0.35595546326728944,
                -0.03532568265315649,
                0.2961057982505208,
                0.05006217948037272,
                -0.43164064927775564,
                -0.06202062779974825,
                -0.07899587522137616,
                0.0519552164989791,
                0.24064710193352434,
                0.04111301302575976,
                0.2806892020999109,
                -0.12293027018915041,
                -0.5163177804873795,
                -0.33111587472909154,
                0.3075484098439516,
                -0.5068782528861949,
                0.1455690598460793,
                -0.19848376423862615,
                0.07196793457547715
            ],
            [
                -0.524995663319821,
                -0.0974433910961967,
                -0.1109887359858658,
                0.4072763085583144,
                -0.2056251747232873,
                0.054503849091710736,
                -0.44923274686845255,
                -0.3770932245264251,
                0.21648050774745767,
                0.27216254662841927,
                0.13646064474137884,
                0.4072588890875201,
                0.1847650307643785,
                -0.27714509083980304,
                0.1993231669155597,
                -0.4721533367433722,
                0.03231966274063286,
                -0.13962904958942496,
                -0.0057946010645259114,
                -0.3653484248522179,
                0.172683555015318,
                0.01391402110551223,
                0.14270647392320399,
                -0.0352050333100943
            ],
            [
                -0.5234821836221172,
                -0.28524086618852623,
                -0.09712967774596823,
                0.18759413496103483,
                -0.39893292770221894,
                -0.025163136578377696,
                -0.18130502935625967,
                0.12418406485524768,
                0.39938559266930573,
                0.5228173795206865,
                0.1421118714342705,
                0.028106921614063803,
                0.5306383017851655,
                -0.525842191851436,
                0.5683475600385248,
                -0.22579134679390084,
                0.021086411223433132,
                0.45729759444820045,
                0.27485600550796624,
                -0.0016713585030921126,
                0.22157154541633262,
                -0.62026097429048,
                0.471059886437864,
                0.33875408596062456
            ],
            [
                -0.01048978297958079,
                -0.44668066767476045,
                -0.3400357834863876,
                0.24546121970734994,
                0.11782541938642811,
                -0.3743883124810509,
                -0.38868056003718643,
                -0.5015676229471032,
                0.14009240646492924,
                0.14091426153992162,
                -0.4353731583010594,
                0.49108451861307423,
                0.4257768991181795,
                -0.10588785427446903,
                0.10492561629357447,
                -0.33676196051515567,
                0.08821998987942543,
                -0.17020490172329408,
                0.4230398422167104,
                0.01578628167486213,
                0.43326775077216856,
                -0.2592788964517192,
                0.47480757689936015,
                -0.053651256956135325
            ],
            [
                -0.40707583926021174,
                -0.08757332689975184,
                -0.15901046158001356,
                0.03198000693438762,
                -0.37804214610077,
                -0.136843939479661,
                -0.390610489461116,
                -0.6130768002559877,
                0.1260804090597006,
                0.381362483990793,
                -0.23226323002790544,
                -0.03238555390344859,
                0.18846752007413586,
                0.06903183582472963,
                0.5995283373153526,
                -0.27537337395581707,
                0.09341921346862696,
                0.45627001281480756,
                0.06591864755544044,
                -0.45975290402741426,
                0.4619738427444007,
                -0.21295502128703037,
                0.24010139618869936,
                0.15589721620905192
            ],
            [
                -0.4887004441029273,
                -0.22671821724230304,
                -0.31048301073278284,
                -0.14389189646886671,
                -0.21978821093744585,
                -0.36135621469755824,
                -0.4163187903813023,
                -0.46372054064437634,
                0.1553125157290372,
                0.22635334020715678,
                -0.3849991485312886,
                0.35282175479586675,
                0.4639148253791798,
                0.21775417036265482,
                -0.033289719788567894,
                -0.06859821487073596,
                -0.261857042376393,
                0.2823402018336813,
                0.17445398228602377,
                -0.31110154683045615,
                0.2735389919937209,
                -0.19595384721917594,
                0.14517859037581402,
                0.39958006117853245
            ],
            [
                -0.07061987748220021,
                -0.5639879519746934,
                -0.4688909150284016,
                0.4250327178364873,
                -0.1293495994592958,
                0.035954696136026684,
                -0.006555719878191559,
                -0.014986035609877983,
                0.04081401522881453,
                0.5062844170372762,
                -0.4232773222764901,
                -0.024554006866853283,
                0.6945104885884964,
                -0.36235432622796765,
                -0.02913735488769165,
                -0.18628837073077512,
                0.5933980689767877,
                0.5496729544862423,
                0.27422964600876837,
                -0.5429277054447567,
                -0.11691174694363994,
                -0.1247240353386132,
                0.5740259135470848,
                0.3867248047985022
            ],
            [
                0.1311034665077297,
                -0.08092340498502879,
                0.4024592123250343,
                -0.07059732444691093,
                0.4301455195443371,
                0.4644588142083739,
                0.4565105444990831,
                -0.1501710468614697,
                -0.15236018892817618,
                -0.005502095220293514,
                0.16565589801476152,
                -0.46858015548185933,
                -0.333518984988587,
                0.19635944737671449,
                0.009428494863756564,
                0.17774201045682933,
                0.05609505726102896,
                -0.303177600249976,
                -0.007258657822978197,
                0.32137519824493693,
                -0.5010349259800043,
                -0.18407239772699732,
                -0.10453504021149636,
                0.1735684892802659
            ],
            [
                0.2320483070429327,
                0.42431877251747957,
                -0.016079634574506244,
                -0.6555326885996832,
                0.2113312028637367,
                0.4187043115905435,
                0.0025651177404444037,
                0.5230977123689955,
                -0.043632865276502265,
                -0.4119177880510656,
                -0.009340918182741775,
                -0.233820124756665,
                -0.48042914635028516,
                0.31660138851156705,
                0.08500415097595942,
                0.10925137316741679,
                -0.5202600295045849,
                -0.25120037138084655,
                -0.41342215697666124,
                0.3544413083982856,
                -0.5349115745417787,
                0.5183881678441059,
                -0.2961624803117891,
                -0.3687382839368179
            ],
            [
                0.41685268340388143,
                0.5125313040310125,
                0.4049308934277665,
                -0.006861576880190626,
                0.42093702010700423,
                0.4680600646648709,
                0.40212975751955343,
                0.20492213212802032,
                -0.35719539220727603,
                -0.19904778882597926,
                -0.14077923254705585,
                -0.28910607516330444,
                -0.511085185661417,
                0.31385492534409165,
                -0.5464529084130919,
                0.49144979154570456,
                -0.22764863772555638,
                -0.4025313310161844,
                -0.21755878496948758,
                0.3331997347060782,
                0.030544227086546263,
                0.22531000427564798,
                -0.01510957630534372,
                -0.07009419570949393
            ],
            [
                0.09663095593438456,
                0.5635787343101455,
                -0.17156157355628177,
                -0.3287703041851386,
                0.3308181479176671,
                -0.08754951717321932,
                0.5027576484698087,
                0.4228243668916371,
                -0.11238394665310275,
                -0.2072390911786256,
                0.09769944829003538,
                -0.05727125085084589,
                -0.008026425132226362,
                0.12369879639307178,
                -0.4894410556043186,
                0.19777305761793573,
                -0.5053372457682002,
                -0.22295797047902022,
                -0.5238057942076426,
                0.29363701894969946,
                0.15376754307925886,
                0.37968280464908116,
                0.028861028178086286,
                -0.46157644013002935
            ],
            [
                -0.56924050361394,
                -0.5701167500026175,
                -0.5533392441158627,
                0.23026560892432074,
                -0.6807883768335926,
                -0.11679191764175872,
                -0.49298556977619895,
                -0.5380028095684631,
                0.5865333841735321,
                0.6952924992058415,
                -0.2857073844456195,
                0.21813728598607207,
                0.07172464040641714,
                -0.6957168959752227,
                0.0986913793387922,
                -0.42956001141099265,
                0.005532173337004998,
                0.1428822971299019,
                0.05872657587532657,
                -0.17205378216471598,
                0.20163352051425765,
                -0.4054611829605808,
                0.054038355591623725,
                0.6582056780058183
            ]
        ],
        [
            [
                -0.7461766951905059,
                0.5444577871788373
            ],
            [
                -0.6680032897869841,
                0.9110658010745738
            ],
            [
                -0.8432987525322577,
                0.19407564991336157
            ],
            [
                0.9398433654493092,
                -0.365290424607741
            ],
            [
                -0.9325236855779833,
                0.5990948923613132
            ],
            [
                -0.9567590299980817,
                0.779738995489179
            ],
            [
                -0.8764828659990258,
                0.1517278994060212
            ],
            [
                -0.8810764866921992,
                0.430482476413828
            ],
            [
                0.6935955555920451,
                -0.8729807949878445
            ],
            [
                1.0063625017054123,
                -0.9466274988455192
            ],
            [
                -0.5782408930514507,
                0.42104151762852926
            ],
            [
                0.2823111225948003,
                -0.8859205085610247
            ],
            [
                0.7562149623482705,
                -1.105056594840073
            ],
            [
                -1.0573667655597516,
                1.0699953366640622
            ],
            [
                0.7945558672573116,
                -0.5742548661648125
            ],
            [
                -1.0185463855841859,
                1.055586796613264
            ],
            [
                0.19101225699356492,
                -0.9178553278820909
            ],
            [
                1.0091816271517322,
                -1.04710283462459
            ],
            [
                0.6213188445840622,
                -0.9053121974220658
            ],
            [
                -1.0528456146854812,
                0.958514702496884
            ],
            [
                0.8550374047159282,
                -1.0380802546502526
            ],
            [
                -0.27953587199136204,
                0.7259062551600913
            ],
            [
                0.502405309630542,
                -0.7507650407931709
            ],
            [
                0.44808588601708566,
                -0.8219275298199112
            ]
        ]
    ],
    "biases": [
        [
            [
                0.00465804345288938,
                0.05785255064583085
            ]
        ],
        [
            [
                -0.05866029013488595,
                -0.06913861481421235,
                -0.3357700824027041,
                -0.44702355151534595,
                -0.3463211191974141,
                -0.1505594417781229,
                0.18995044440920358,
                -0.08433683896758475,
                0.3746147630190006,
                -0.18835962126947142,
                -0.2308957793821496,
                -0.3545426613671934,
                0.21920526789808187,
                -0.2797980160655477,
                0.23238356516555245,
                -0.313899144845926,
                0.21308708887840835,
                0.11793752481638153,
                -0.06734875360441028,
                0.15694328791278664,
                -0.3519995417337648,
                0.33059430322688566,
                0.2796990866187507,
                -0.43658354399557275
            ]
        ],
        [
            [
                -0.02230890110111434,
                -0.08164831774079369,
                -0.0929262719986947,
                0.042321926076365576,
                0.02679667890823065,
                0.11608257643228896,
                0.09809343855607712,
                0.017754399397352127,
                0.03885357652172714,
                0.010445655162714746,
                -0.08451561664710035,
                0.02009751728087087,
                0.04276814698838134,
                -0.01009008218497941,
                0.0024051407042790323,
                -0.015220422804810375,
                -0.019687171620850315,
                -0.04192292612447551,
                0.10782488464098333,
                0.05753872205644411,
                -0.06230497925454509,
                0.009824481662616187,
                -0.012640335432082088,
                0.07127351484996501,
                -0.014631107712503696,
                0.10636682934219191,
                0.05256742640932862,
                -0.039473283756071655,
                -0.06832533514258393,
                0.08665380001673428,
                -0.12724831146471136,
                0.0009502909352763107,
                -0.06330422700309793,
                -0.05089165165569254,
                0.08604277773241381,
                0.028609436571665484,
                -0.06302075515235263,
                -0.09462414609437704,
                -0.04158776138662428,
                -0.12347968726638746,
                -0.03175352550071701,
                0.005205431762617533
            ]
        ],
        [
            [
                0.13576105711396239,
                0.1738272155421806,
                0.14148523899332632,
                -0.1692402446923289,
                0.16844403575084507,
                0.07595357873713499,
                0.15820061474783265,
                0.07561632892463761,
                -0.20278576481105393,
                -0.13004648783195583,
                0.18833759114644524,
                -0.10179167202623832,
                -0.0711964597008442,
                0.14118847607750779,
                -0.13650264920123834,
                0.12978072249839373,
                -0.20907285104875764,
                -0.1304635401790089,
                -0.10599636542880599,
                0.10373681511508741,
                -0.13184765289792,
                0.09300226358721775,
                -0.13573262316322515,
                -0.1222712298623874
            ]
        ],
        [
            [
                -0.12003230856007405,
                0.12003230856062956
            ]
        ]
    ]
}