{
    "network_type": "multilayer_perceptron",
    "n_layers": 7,
    "optimizer": "adam",
    "loss": "binary_crossentropy",
    "layers": [
        {
            "type": "input",
            "n_neurons": 2,
            "activation": "sigmoid",
            "input_dim": 30
        },
        {
            "type": "hidden",
            "n_neurons": 24,
            "activation": "sigmoid"
        },
        {
            "type": "hidden",
            "n_neurons": 32,
            "activation": "tanh"
        },
        {
            "type": "hidden",
            "n_neurons": 42,
            "activation": "sigmoid"
        },
        {
            "type": "hidden",
            "n_neurons": 32,
            "activation": "tanh"
        },
        {
            "type": "hidden",
            "n_neurons": 24,
            "activation": "sigmoid"
        },
        {
            "type": "output",
            "n_neurons": 2,
            "activation": "softmax"
        }
    ],
    "weights": [
        [
            [
                0.24295805327614986,
                -0.10758193704447479
            ],
            [
                -0.01660730123539554,
                0.8017284974129637
            ],
            [
                -0.04084752491201233,
                0.2859777720289714
            ],
            [
                0.6918933365554601,
                0.08940392894208472
            ],
            [
                -0.19888469038315915,
                0.027280471496901482
            ],
            [
                0.07108940198907127,
                0.07664445283128563
            ],
            [
                0.37823563533333515,
                0.532401608711554
            ],
            [
                0.17667486711910693,
                0.7757591668830311
            ],
            [
                0.13856501186187928,
                -0.19971445811471414
            ],
            [
                -0.2522988810051979,
                -0.2175651055517326
            ],
            [
                0.5503313749163488,
                0.176997169614043
            ],
            [
                -0.13699915270438054,
                -0.025139310027352015
            ],
            [
                0.5035878647143328,
                0.5031900421416442
            ],
            [
                0.12096112829118481,
                0.47855473917110314
            ],
            [
                0.1941590547439751,
                0.2679851950637755
            ],
            [
                -0.35093488237105486,
                -0.37269686974397603
            ],
            [
                0.1554694902761211,
                -0.34453153642613454
            ],
            [
                -0.2510164234200942,
                0.015506312144828411
            ],
            [
                -0.12975694398721005,
                -0.2525212266026569
            ],
            [
                -0.010420194597269275,
                -0.34025634892236933
            ],
            [
                0.36540269924023244,
                0.542667986633579
            ],
            [
                0.6590234602894448,
                0.06950581303159034
            ],
            [
                0.10321184915404497,
                0.6797585100887218
            ],
            [
                0.4195005046625481,
                0.7640466412048577
            ],
            [
                0.04785442829994442,
                0.5244975483999392
            ],
            [
                0.08913888266583049,
                0.21461140458088332
            ],
            [
                0.5829258882467805,
                0.3479889152177161
            ],
            [
                0.1252938968835991,
                0.46103673630866293
            ],
            [
                0.10740356369235866,
                0.30327926766818675
            ],
            [
                0.12878244714442066,
                0.04844019153408856
            ]
        ],
        [
            [
                1.1910142238737849,
                -0.683577837985665,
                1.470084392184397,
                -0.7910387682379791,
                -0.4326882018281318,
                -0.5622655311413026,
                1.0487091724593844,
                -1.3325449056250902,
                0.16727050410324798,
                -0.0480584246490912,
                -1.1565703040346862,
                -0.3781388655132743,
                0.7156193769404166,
                -0.7728807031817584,
                -1.6584850700538798,
                0.002311720705025598,
                -1.5547261893855508,
                0.3174948875420958,
                -0.9480237765987288,
                1.4534980213356987,
                0.724495403068303,
                -0.31364206344341505,
                0.27624056404555564,
                -0.24784509404550176
            ],
            [
                1.5866748857893014,
                -0.013888847067543746,
                0.4372045376767202,
                -1.095355335058379,
                -0.5254230392568517,
                -1.8624307793699315,
                -0.045623919682997977,
                -0.5107592629404903,
                1.2649352410132892,
                1.709672355630909,
                1.0676262616670078,
                -1.4763905024686703,
                -1.225283543703128,
                1.334889178637042,
                0.49504392359357785,
                -1.731451954037048,
                1.2866140427170973,
                1.1811052425250825,
                -0.056716240318482034,
                0.38363717299084465,
                1.4844575607072712,
                0.3390460152322497,
                -0.3149069094508347,
                0.958589811802079
            ]
        ],
        [
            [
                0.4029405564502496,
                0.21827247303571826,
                -0.1975715222001697,
                0.603418203186683,
                -0.49275107239288424,
                0.5930597445078579,
                -0.2633714579306322,
                -0.4967636379443477,
                -0.49755538276900035,
                0.30930151851809423,
                -0.3286162236627462,
                -0.19802685585068294,
                -0.2319000058795967,
                0.05736695962690879,
                -0.29120036755286666,
                -0.36452205433588897,
                -0.02817804033497411,
                -0.10266240097384934,
                0.19719952733289764,
                0.47094471171043395,
                0.23795524685934644,
                0.40339807041580256,
                0.27976505537312607,
                -0.11659013362168164,
                -0.10457769728106144,
                0.055727325008746324,
                0.5141769446450972,
                -0.2900772086200729,
                0.21639806558469696,
                0.18507683908319988,
                -0.23732627611084892,
                -0.4856571407714655
            ],
            [
                -0.059673898453679146,
                0.4971274428849539,
                -0.3494048103993008,
                -0.36014557432490607,
                -0.16620152326675763,
                -0.12374160409678873,
                0.3725090768062814,
                -0.5591626876069012,
                0.23900123365204326,
                -0.3776765177880917,
                -0.5254174047633976,
                -0.07159135922881427,
                0.023624085287709384,
                0.11053219697920838,
                0.21174990607761335,
                0.3434396937505014,
                0.03694853782151811,
                -0.12883473584265256,
                0.3723059111614561,
                -0.16221680268436803,
                -0.05486683980206573,
                -0.40468485435322554,
                -0.16367266214925336,
                -0.3523055340369438,
                -0.32308396436771847,
                -0.41440500358199045,
                -0.4994331512544034,
                0.1501613681920938,
                0.21885150580328958,
                0.3687291372967161,
                0.20496846089723011,
                -0.2076426840578967
            ],
            [
                -0.41514473331479385,
                -0.4905629369903244,
                0.402054425263944,
                0.06274438735693752,
                -0.14810820369825767,
                -0.1551011125754162,
                0.3687556663125516,
                0.06286487529299996,
                0.28588685956000515,
                -0.130003802994194,
                -0.36443408405777555,
                -0.31145201604454276,
                -0.1311641419100397,
                0.12563712198200103,
                -0.38755720613226274,
                0.15395025093264017,
                0.5218804764858518,
                -0.28630535605801044,
                0.2106743477533041,
                -0.026698024448085344,
                -0.44865283730316174,
                0.1555006505378192,
                -0.20187498893224926,
                -0.12683440314955427,
                -0.44610679176711343,
                -0.601110529886542,
                -0.09515430455979475,
                -0.09712499975778545,
                0.0024710541573062894,
                0.5505112019845695,
                0.012926942892197944,
                0.06352690094637935
            ],
            [
                -0.08934814729950571,
                -0.2197039058670864,
                -0.22015246572905145,
                -0.6425597948501384,
                -0.7436126882057695,
                -0.6080642716442456,
                0.08266444924894224,
                -0.573393245394817,
                -0.06203105457649852,
                0.18201921131881532,
                -0.6228223839223108,
                0.5574669367142254,
                0.0799759961017411,
                0.4447586824836727,
                0.2230404744410173,
                0.4109199819248454,
                -0.10640262970979861,
                0.4976432431624136,
                -0.13959366838369344,
                -0.3153150538527608,
                0.5029726778364311,
                -0.6797668453642104,
                -0.11256565497996039,
                0.09561558068013651,
                0.6440286506492128,
                0.6076099215736679,
                -0.5408632081381413,
                -0.09059880598517354,
                0.4033240048921708,
                -0.18076394216807962,
                -0.054577269328114415,
                0.15841769011658388
            ],
            [
                0.09915934304436957,
                -0.36403884395127445,
                0.22619378120204262,
                -0.3637836815144235,
                0.1813137330637827,
                0.139155049184006,
                -0.2565888245934095,
                -0.24434612138640513,
                0.30243314414515454,
                -0.008314864507380813,
                -0.42253146115123413,
                0.1222460558236223,
                0.35707737673002193,
                0.26179528238673716,
                -0.4097443398037507,
                0.5338571322350459,
                0.6255703723147429,
                0.40012747645463886,
                -0.5723583981440676,
                -0.5058407956056181,
                0.5469297289133728,
                0.3322431527838907,
                0.3731770333411826,
                -0.3689271034509676,
                0.12428409351829273,
                -0.2618751759529614,
                -0.4393501598445459,
                -0.6269726770269679,
                -0.3213286063493374,
                -0.3910260686585189,
                0.037380896156924276,
                -0.5475427931712594
            ],
            [
                -0.32277459726173774,
                0.022416711361590753,
                -0.7126570734639703,
                -0.6318076804819067,
                -0.5980247301297295,
                -0.6503629344772581,
                -0.7012835161008462,
                -0.45480200589446146,
                0.2640463019661797,
                0.4842500567878029,
                -0.40942035750210004,
                0.6225373494128569,
                -0.1111259560351953,
                0.7417157176230122,
                0.2605180970244043,
                0.035046583971254354,
                0.7070198655610378,
                0.4989998080543306,
                -0.33247770112015973,
                -0.5913982359571492,
                -0.03772327522137503,
                -0.4099302109371925,
                0.6483386021941467,
                0.141137696258978,
                0.6231990960540271,
                0.534851949365477,
                -0.6020936600188518,
                -0.5273381122726427,
                0.4697104548561788,
                -0.6720883817502572,
                0.21975622122278488,
                -0.21317922810453896
            ],
            [
                -0.2756757531758349,
                0.2081614089211893,
                0.05516322396069308,
                0.44046032754170805,
                -0.6439987747789464,
                -0.3237840557361228,
                -0.4206625769339582,
                0.1077886030842713,
                -0.3981922388847088,
                -0.27719410500150676,
                0.07067443161303864,
                -0.1846963322276117,
                0.08426647487847887,
                -0.5077524776389795,
                0.15820282903541583,
                -0.42096590488462626,
                -0.17965473069197116,
                -0.4928308967823292,
                -0.1471453889458749,
                0.511392182538004,
                0.0024160894149839176,
                0.03964495824561318,
                -0.0274088214014027,
                -0.3448331557371922,
                -0.14960021827081993,
                0.21054115841246376,
                -0.3115478096030178,
                0.21998031256194653,
                -0.12186593748422403,
                0.14016761871105438,
                -0.10206517822190972,
                -0.25188343672951813
            ],
            [
                0.19616253774926198,
                0.4358088872420366,
                -0.322294582049779,
                -0.22057062107057748,
                -0.43810774028102284,
                0.007429550924009315,
                -0.1913773631242747,
                -0.02723819266373684,
                0.565577902769952,
                0.4660586357215558,
                0.22772829167516617,
                -0.17268938820524884,
                -0.6467830997865425,
                0.5352624942056232,
                0.33437737565771686,
                0.015785326666177244,
                0.035005253913361976,
                0.1742278843068635,
                0.27979400044655944,
                -0.4432580747952285,
                -0.057183681332446896,
                0.1799135922921577,
                0.05760660937453304,
                0.24449917769358379,
                0.4829959353039789,
                0.6155632402735088,
                0.06645450266964997,
                0.20354928624603963,
                0.35807307498186164,
                -0.6111240636872691,
                -0.04467145395644245,
                -0.5429347461013525
            ],
            [
                0.17055121766615441,
                -0.2116428050430311,
                -0.03537511387237167,
                -0.07814252943726345,
                -0.4819345075532762,
                -0.13143540561969835,
                -0.30594091377393895,
                -0.1031710610218612,
                -0.17064850973950196,
                0.12227585733889178,
                0.31786774187505307,
                -0.12018037737922704,
                -0.03188515258941187,
                -0.44653031144252847,
                -0.2951019351718017,
                -0.021832213475244184,
                0.002891141362335816,
                -0.5308955589653738,
                0.26365258258795027,
                -0.12312183827094979,
                0.3141015993966111,
                0.4140269853824422,
                0.1941049001393162,
                0.3408829120498441,
                -0.03598692635750255,
                -0.17245939758706277,
                0.519109991897758,
                -0.015795174128101892,
                -0.557284909405777,
                0.10858415633149748,
                0.38177095888382273,
                -0.19036443343049056
            ],
            [
                -0.011525341150412332,
                -0.3470142738343764,
                0.5164608274264809,
                -0.26105871889955495,
                -0.35670471489215166,
                -0.12017280715975134,
                0.3819641867864141,
                -0.4444785222801749,
                -0.3485084965115378,
                -0.5132612020802312,
                -0.2909264536830629,
                -0.5911454721885789,
                0.24471787361896988,
                -0.02411180382847821,
                0.3736837409545238,
                -0.13674672209665392,
                -0.4619296318895699,
                -0.13215827051241605,
                -0.28204478008873024,
                0.2455017892962205,
                -0.2834016683868664,
                0.02550362670214495,
                -0.1301874544730799,
                0.2907243432681888,
                -0.5688680912620864,
                0.28237722172876145,
                0.33875367041556886,
                -0.22149493964324002,
                -0.1632377283132075,
                0.08477837120312254,
                -0.4133999485749213,
                0.45786277112285073
            ],
            [
                0.011164214415911219,
                -0.23842802582986655,
                0.3832862807048251,
                0.23506420953098076,
                -0.6992059359556952,
                0.15190989843403013,
                -0.3391571839831538,
                -0.0074470476116230465,
                -0.3208020731515687,
                -0.3173889705344141,
                0.09635637583420403,
                -0.1798214076497411,
                -0.3125085868402799,
                -0.38625331938901364,
                0.20771348563701975,
                0.30387219335771176,
                -0.12053988281050237,
                0.3672123651349561,
                -0.24569252084702836,
                0.33179669943391227,
                0.4121029787501862,
                -0.20796137079790503,
                0.537896267736648,
                0.1465977407690483,
                -0.039859147989600135,
                0.44944414971031393,
                0.09561371707421361,
                -0.04376628622117933,
                -0.5388161511322963,
                0.13410429558014583,
                -0.5243193290402534,
                -0.41719684544538804
            ],
            [
                -0.3344719597870126,
                -0.09973558656194878,
                -0.10634896428174523,
                -0.10170070610437217,
                0.1122555191077638,
                0.2416956036450089,
                -0.5979946618906917,
                -0.29361262370013536,
                -0.33919254139531424,
                0.5230686748398914,
                0.03807276209370057,
                -0.14676548628432978,
                -0.285142156206426,
                0.5690222940827114,
                0.6241518372039783,
                -0.11272356383829986,
                0.5237234434378488,
                0.36630832391604706,
                -0.19656414273037331,
                0.10316253055314585,
                0.05505172843089661,
                -0.4890619242711205,
                0.15116108417317256,
                -0.02182835488410264,
                -0.006014086340546625,
                0.2565668187128948,
                -0.2288009612491943,
                -0.47655447269344503,
                -0.21245979234912207,
                -0.22208331801370498,
                0.5468990419803803,
                -0.3882426059460044
            ],
            [
                -0.0212660863663558,
                0.450467677875964,
                -0.0804396028048444,
                -0.3956984951186878,
                0.2095674318074075,
                -0.08143486429087453,
                -0.10122632876700585,
                -0.28117021408728815,
                0.4797498673098395,
                0.15401676429404715,
                0.11365018867759173,
                -0.1594887676568182,
                -0.5514577107556742,
                0.07616577163038327,
                -0.08229959511012608,
                -0.3598638600029511,
                0.15499888727652747,
                -0.03477918413547223,
                0.28822335899840884,
                0.08237993900995325,
                0.0724040429455044,
                0.33811856446836636,
                0.3159915649998779,
                0.3343916629206355,
                -0.04054089028399419,
                0.3227860976955466,
                0.1438108696183342,
                -0.06531634891478236,
                0.32976469670882796,
                -0.4596022671676304,
                -0.2280378829706546,
                0.2620784014519162
            ],
            [
                0.22726812426316748,
                0.3021623336591381,
                -0.3347787746226597,
                -0.2254350452567257,
                -0.3530311229002827,
                0.04249319843735382,
                0.41549660448035797,
                -0.22119562144517524,
                0.28233445932204004,
                0.32139799337374547,
                0.06514261224034101,
                -0.08681169004876563,
                0.24709401182841748,
                -0.01862533315590099,
                -0.4937775631469634,
                0.28016213352213765,
                0.4669565469184789,
                -0.3811066438191683,
                -0.14358146680596526,
                -0.3108153864630638,
                -0.010842987987523608,
                -0.32431353876912766,
                0.16721836747863403,
                0.20434764884470483,
                -0.002437337420163059,
                0.0003789671880201347,
                0.10108376194120666,
                -0.3825443262289984,
                -0.19051543088553036,
                0.09317085853650019,
                -0.12812596152213046,
                0.34558255088525386
            ],
            [
                -0.3931799341956178,
                0.07944233318781994,
                -0.3460823881335395,
                -0.14240228235850738,
                0.182061829994664,
                -0.4495089132286191,
                0.03428852169035773,
                0.34606372292292226,
                0.5271171239927693,
                0.3110106396690377,
                -0.3902146888667814,
                -0.3345471343246256,
                -0.1097445532341073,
                0.5192024791132673,
                0.4731836083883988,
                0.29101500119061036,
                0.11711727240417276,
                -0.2281718431939466,
                -0.502110426022626,
                -0.2988869242062783,
                -0.38734263108833006,
                -0.00144387849584887,
                0.16768651582299685,
                -0.13679046887145216,
                0.24183907271607663,
                0.2971826270710232,
                0.005315689725066638,
                -0.15731042558836233,
                -0.5085610879731183,
                -0.25925414503793065,
                0.35056205977675275,
                -0.02285874469070483
            ],
            [
                -0.5872571158194297,
                0.25181959342239113,
                -0.532560728425881,
                -0.49294292256841277,
                -0.24465415943982627,
                -0.5590970350351285,
                0.2279192935727879,
                0.18058292282879645,
                0.3240958466924239,
                0.0775607452648401,
                0.16831308308776496,
                0.6170283709368451,
                0.18751939288639893,
                0.04940973796503301,
                0.020572590939432887,
                -0.3038838924168232,
                -0.13516552330503928,
                0.35577486558172944,
                -0.36098997354547674,
                -0.17525499750203802,
                0.1685538877866338,
                -0.7007262837096297,
                0.23864702508628113,
                -0.19901492101057097,
                -0.221193948588188,
                -0.2334543720402116,
                0.23120501273460461,
                -0.5973027019785218,
                0.47694523551124585,
                -0.44509920183527174,
                0.25537048313294386,
                0.15748148932840697
            ],
            [
                -0.12945364970391826,
                0.24106270591598622,
                -0.37635692171867385,
                0.4512983742009171,
                -0.21650533227928154,
                -0.23870540184267414,
                0.3923165040249438,
                0.08475484397653753,
                -0.097270558931572,
                -0.42171983894543147,
                0.3201939808448129,
                0.4379168966947716,
                0.06890182804135836,
                -0.09291181731907494,
                0.03275249615901814,
                0.3884869837112076,
                -0.1796718467337334,
                0.4166387401213519,
                0.2415185354082486,
                -0.07704741733070698,
                0.2639403576319252,
                0.1910396581886201,
                0.2787815692861248,
                0.19031051587386763,
                -0.12108206040320907,
                0.2819626555406527,
                0.48861904484821567,
                -0.32787726047984056,
                0.4042241500107384,
                0.3282646651962824,
                0.28538435982647903,
                -0.549178564694139
            ],
            [
                -0.164310377422432,
                0.0863363998759958,
                -0.3320177894691866,
                0.38116945519956197,
                0.14066157341055463,
                0.3148706085945916,
                -0.4215094605740665,
                -0.4869162961419287,
                0.03890363067149504,
                0.04050404857950231,
                0.38765416393627344,
                0.23284666596649484,
                0.4050850813885733,
                0.1745049721478455,
                0.12033174347121718,
                -0.11515961452644217,
                0.4056642234562339,
                0.16299919710149668,
                -0.09786663516921419,
                -0.01658234876864577,
                0.02748522085646175,
                -0.09956772957515339,
                -0.19464985305178875,
                0.13269235177139388,
                0.014870310123468197,
                -0.27739965381776355,
                0.23334104786548976,
                -0.4354298600524804,
                -0.03751192321145999,
                -0.2500525345519259,
                0.0674158240415923,
                -0.11992470225305077
            ],
            [
                0.25878691652903973,
                0.21868743970849389,
                -0.007788746909829972,
                0.06144566107678178,
                0.20353340058588607,
                -0.4708495459706367,
                0.2870654373084844,
                -0.4578437491029608,
                -0.07660113395973508,
                0.011200551801054653,
                -0.16847683151794873,
                0.422241836864078,
                -0.1809523624669748,
                -0.2518164401600456,
                -0.4115722824370224,
                0.5156795798072493,
                0.5783091708240441,
                0.30317741504391515,
                -0.34172681022995105,
                -0.42629406066828535,
                0.3042539779820241,
                -0.09793338008653903,
                -0.2033554068399659,
                -0.46881202063470095,
                0.4132623467210186,
                0.14248576215437664,
                -0.1567921924493406,
                0.0947966349462793,
                0.1440367009830774,
                -0.5001046380733862,
                0.002889685077286202,
                -0.2605983464314809
            ],
            [
                -0.06192048822232888,
                -0.21775319832703396,
                -0.012488020849697067,
                -0.09201276839476884,
                -0.3625414941697878,
                0.48742633930389473,
                0.21801635656870613,
                0.02724451078037868,
                -0.15588064285957803,
                -0.6038125457381966,
                -0.07598229373068348,
                -0.5345341699515823,
                0.43103409792398445,
                -0.4185462220726577,
                0.2373414657667152,
                0.4408314195603383,
                -0.2771419914999126,
                -0.5031394506454603,
                -0.4871602157907278,
                -0.2435646849789124,
                0.09005763871218937,
                -0.20829991643309534,
                -0.2637874306346475,
                0.21075114081599358,
                0.050245790253880165,
                -0.24986086286820391,
                0.2702757032747081,
                -0.24744808690778827,
                0.20977043745835844,
                -0.2469041175974802,
                -0.1510291545209842,
                -0.1294076924024657
            ],
            [
                -0.15376684751224606,
                -0.41623425873203795,
                -0.44409841288937185,
                0.28093411693506404,
                -0.6010202257743578,
                0.12600170654271872,
                -0.3668648540420331,
                -0.42742103395118314,
                -0.2801506139678741,
                0.29384967349434765,
                0.3603602780198159,
                0.23713799347992223,
                0.17384695248245313,
                -0.502639495198814,
                -0.011695327577123731,
                -0.25693523768138976,
                -0.49503534002354704,
                -0.1475314352301631,
                -0.44490365407542315,
                0.4623664600424634,
                0.21101757983245362,
                0.4656323537820572,
                -0.4488165474646943,
                -0.4211114513753695,
                -0.2617500621121114,
                -0.3956119860776794,
                0.04299362220833412,
                -0.3278263728843574,
                -0.19752250022122886,
                0.42572642298806684,
                0.25567327117238015,
                -0.4931640748438696
            ],
            [
                0.32091345785768,
                -0.08813753367630106,
                0.40728955860046584,
                0.1743436853849121,
                -0.34277840432254647,
                -0.12786833101582012,
                0.280747415290833,
                0.2744558669461926,
                -0.47883964822197045,
                0.36572427486112985,
                -0.14379031761341604,
                -0.15271360959585437,
                0.22569738365081088,
                0.20507403045579922,
                0.1296335461676197,
                -0.027319006426558375,
                0.17917236343830137,
                0.040808401840138585,
                -0.015140929411720043,
                -0.10932636580230806,
                -0.19476408782411037,
                -0.39302173961541065,
                -0.2770896775128235,
                0.1659209412951891,
                0.25670792522406244,
                -0.15585507403440402,
                -0.285972585433837,
                -0.37743924747583474,
                0.191898629889145,
                0.42075594600607885,
                -0.26636715398399075,
                -0.4444333664199963
            ],
            [
                0.2540241043253572,
                0.3366607660143471,
                -0.03591086375408639,
                -0.16289701864834083,
                -0.4205192929331765,
                -0.05578312317868057,
                0.2311131009762316,
                -0.15654659190123862,
                0.4260176950988926,
                -0.0312800521965676,
                0.21220635847755684,
                0.3647532163741442,
                -0.4783379345860585,
                0.31872037968852746,
                -0.2901369140681669,
                0.07871382261143503,
                -0.2660748787286573,
                0.1640065679250572,
                0.21062797262109803,
                0.31506081257929924,
                -0.3145538921314876,
                0.27222442797368795,
                0.5120609006990272,
                -0.5379658739025529,
                -0.2337646565110252,
                -0.3575757555773692,
                -0.22918556553685523,
                -0.2175224180922609,
                0.16153121729979666,
                -0.06820798152758292,
                0.17943796555436878,
                -0.1749052333863749
            ],
            [
                0.2914190444300119,
                -0.31757082873881287,
                -0.15996309911535173,
                0.15309523725584437,
                -0.3546546562209479,
                0.4928391842866907,
                0.28455070552674666,
                0.3658734750542785,
                0.1828092713724543,
                0.30529063997226735,
                0.3455597727267823,
                0.06072868971474428,
                -0.2858558417327449,
                -0.4566427353006381,
                -0.37235109370535596,
                0.2201724926883398,
                -0.42253594393328203,
                0.37945622090948306,
                -0.08616554959580652,
                -0.3032275270871603,
                0.04899800555640161,
                0.22011585010278525,
                -0.48484417138207647,
                0.45195366816825594,
                0.3955187758139872,
                0.41944475248387564,
                -0.23520480499976187,
                0.04032945600886546,
                -0.14858874914061754,
                0.1907736644883369,
                0.1683176317257415,
                -0.2233068225850798
            ]
        ],
        [
            [
                -0.25785884541815485,
                0.20235315193329828,
                -0.3735303824269605,
                -0.2558470941953278,
                -0.3778801199491552,
                0.07892600245748281,
                0.1053172868332074,
                0.13870212191574244,
                0.002333790674675135,
                0.27400147466159963,
                0.2430123704955406,
                -0.005179208671806866,
                -0.2716979752389046,
                0.25658620906621904,
                -0.31479042677293584,
                0.38265632971817637,
                0.28090241624167334,
                0.1695213202765355,
                0.006694653757520239,
                0.25238600110199566,
                0.3731157712733405,
                -0.30783553347311526,
                0.05919804675223327,
                0.3925078839921721,
                0.1991678384765546,
                -0.4018077509533339,
                -0.13472329666386965,
                0.32797133784014254,
                0.3237055047050774,
                -0.14026091147038874,
                0.18963821960843405,
                -0.31590624362945513,
                0.19158000937089192,
                0.3708211203687008,
                -0.10179733395142077,
                -0.13606719279511797,
                -0.3660189053156017,
                -0.25371785724580675,
                -0.10686789074355432,
                -0.27428930310916305,
                0.31069459600855187,
                0.40241501513466177
            ],
            [
                0.12967541187337336,
                -0.061949915039963666,
                -0.1637692820599771,
                0.08909797451141364,
                -0.2687777180708398,
                0.11394751908859449,
                -0.22023645600603062,
                0.5054483413836697,
                -0.1346509922427546,
                -0.19098481049302882,
                -0.2372460592995695,
                -0.33568922324191675,
                0.36031948293348237,
                -0.11549469332427305,
                -0.4746653180571735,
                -0.3096906071091222,
                0.11707424977014308,
                -0.02881707840155718,
                0.011088515429926636,
                -0.10335267385312077,
                0.3809546626489794,
                0.31061338032013225,
                0.011094537343541303,
                -0.3917912719407602,
                -0.22277952910595994,
                0.4047500333136244,
                0.43512316104934706,
                -0.08876408432104614,
                0.11799395288826563,
                0.04477165636734615,
                -0.02597620901707211,
                -0.13079585562862484,
                0.06946740314050655,
                0.12211273468913798,
                0.11199173591858493,
                -0.2180099944987938,
                0.22671544748830325,
                0.3593247429851398,
                -0.11071841478533644,
                0.18759645137688882,
                0.4042389950764145,
                -0.10658786006301227
            ],
            [
                -0.19236356100003518,
                0.07442572471372162,
                -0.4753046601658678,
                0.21148208639992733,
                0.029700406599377515,
                -0.262909635892579,
                0.13545975627428058,
                0.16122019320448908,
                0.03513786407097947,
                -0.2861922951772229,
                0.3949974468306175,
                0.3745009033283655,
                0.14514373083308846,
                -0.2080099919262766,
                -0.11009446872728307,
                0.05399503159263506,
                0.07594580217310014,
                0.03263670764889799,
                0.07864848006638794,
                -0.27523250255445125,
                0.24846461151596355,
                -0.4964231893962578,
                -0.4097736093006771,
                0.36835739038070464,
                0.08217244825333152,
                -0.2135539346109259,
                -0.21907320671449068,
                -0.22379282421219585,
                0.18827637558769492,
                0.0010073503365901028,
                -0.118425030243336,
                -0.3104981233284663,
                -0.010737285199653638,
                -0.16429147546350462,
                -0.07606265003779605,
                0.09313098557030133,
                -0.30064495870095315,
                0.12018023324944628,
                0.16988513811635766,
                -0.20242108674855913,
                -0.42375502598923986,
                -0.2087491678734264
            ],
            [
                -0.10171879534091363,
                -0.2121994086484124,
                -0.5028340774746148,
                -0.5746941409944666,
                0.37253978739429744,
                0.15234466005438105,
                -0.17081435185786803,
                0.34887959954480763,
                0.5091322505519396,
                0.20942426775698877,
                -0.1670019724952542,
                0.5514803466265069,
                -0.2942972809295769,
                -0.2023063121332031,
                -0.10977220354391737,
                -0.070347057160183,
                0.34491904249604854,
                0.4214401334102564,
                -0.19961528783003293,
                0.23272088721363074,
                0.08626112583638963,
                -0.5318054227293014,
                0.2221978772784343,
                0.09149693026068101,
                -0.23232031537669523,
                0.123544882603618,
                -0.07430632160086535,
                0.35467987393627265,
                0.5710468083344298,
                0.17170511852140902,
                0.5577288843457814,
                -0.01602366617147593,
                -0.45254370264168964,
                0.2937276163331426,
                0.13654074671665853,
                -0.2701360270112376,
                -0.6288521446410325,
                0.3087505012618276,
                0.036102156310720133,
                -0.0953937516894968,
                -0.1804076795005067,
                -0.4972371446318963
            ],
            [
                0.06397370808807575,
                -0.03226225735423957,
                0.14466750207502416,
                -0.05602648564764682,
                0.0516913119550831,
                0.13049899292791503,
                -0.03643709910986989,
                0.07117300891602807,
                0.296466128227307,
                0.02267039368289009,
                -0.2548598232898875,
                -0.16344780417897548,
                -0.19909499589954102,
                0.0464393278714525,
                -0.14901990017197886,
                -0.23785240931591192,
                -0.41951320822086635,
                -0.2134360030022784,
                -0.33730974047778445,
                0.1863667069238588,
                0.3086976187636688,
                -0.4177283619593588,
                -0.5312661188744624,
                -0.4248576758466382,
                -0.38089712359855227,
                -0.4019666124659673,
                -0.030915739627829657,
                0.017790720111912448,
                0.4075718032955744,
                -0.16222872766210922,
                0.3080782483184917,
                -0.03842994793887631,
                -0.04798221099224039,
                0.448850477075263,
                -0.015218640320626418,
                0.006678141040430172,
                0.09341776841556777,
                -0.288561955267345,
                0.191159792249861,
                0.2109631048763214,
                0.014554708626665218,
                0.13038163812285147
            ],
            [
                -0.30650394963501026,
                -0.08975475363811074,
                0.11105114184701338,
                0.2524920346621292,
                0.3764917916048632,
                -0.24112883978558372,
                -0.17992943269392989,
                -0.023678068484943523,
                0.19821735244243793,
                0.12877796139816905,
                0.43089166952109825,
                -0.1364587031060061,
                -0.177688149969258,
                0.13673040216671328,
                -0.20017492864029068,
                0.16857570514628997,
                0.17653884920246407,
                -0.21617228506132266,
                0.23009124785222493,
                0.2326483911217796,
                -0.43045928727045435,
                0.06343449084950596,
                -0.2626503794736994,
                -0.3342555960488268,
                0.38504246104808376,
                0.3144362982849658,
                -0.3527137032912996,
                -0.10842161127348422,
                0.20974540840573586,
                -0.18382190511702984,
                -0.06321393891734303,
                -6.310611882385428e-05,
                -0.22773176136333856,
                0.08485535619254586,
                0.2153250904585217,
                -0.48305015775907484,
                -0.015831335628905437,
                -0.14804219936320206,
                0.2506152965329443,
                -0.42073097786803876,
                -0.13548355324614608,
                -0.3562780424292327
            ],
            [
                -0.2868215846528197,
                0.18230775435712335,
                0.18292681189978272,
                -0.24300428508020225,
                -0.348883199146196,
                -0.37809829376652176,
                -0.2679170055436702,
                -0.24148139430630078,
                0.307087851840576,
                -0.11109833181817817,
                0.08392769137858395,
                0.20416248730912084,
                -0.004273317743593031,
                0.1359519237368992,
                -0.33078219956068844,
                0.1894601673911128,
                -0.23273221815169487,
                0.32657591085442267,
                -0.3551443365226648,
                0.1439886956332727,
                -0.00013560647433799412,
                -0.4184695677335465,
                -0.1520251486677044,
                -0.33431043293934715,
                -0.03098969984889914,
                -0.26811869668362165,
                -0.162604004273101,
                -0.38796006607740086,
                0.3562864353310943,
                0.3312381253409179,
                0.17271402253809914,
                -0.3677577851654739,
                0.16067252169670268,
                -0.18603889595150616,
                0.21043843021321595,
                0.37056521464158015,
                0.29757830822012055,
                -0.25190183765019664,
                0.23256028606056597,
                -0.17132432693543903,
                0.3989731390893209,
                0.16663839325282026
            ],
            [
                -0.12328095633996153,
                -0.33434099714770094,
                0.08589869097885153,
                0.1418793257887104,
                -0.13905522290589875,
                -0.3342621688486899,
                0.29574454306022774,
                0.4649558424749348,
                -0.12509863702446536,
                -0.3719493199883106,
                -0.11613976137914094,
                0.4344684407500038,
                0.06774443767534243,
                0.26615670902912975,
                -0.41492263891410264,
                -0.1942862522380693,
                0.349938031628039,
                0.41037536206178704,
                0.24254091410655584,
                -0.1748618106399195,
                -0.05919744694585491,
                0.08438619753708138,
                -0.25774903421534545,
                0.4006048350384114,
                0.19386333021211413,
                -0.18578444991047538,
                0.32869075857716584,
                0.2955964887686607,
                -0.18412643497037007,
                0.3191978004826297,
                -0.2749952377789744,
                0.21465415498053217,
                -0.2795233873020965,
                -0.12469832859815527,
                0.15245995771398613,
                0.22207890938335903,
                -0.391361620459795,
                -0.05006539719254513,
                0.36096276377122755,
                -0.18180485808125982,
                0.033623478204180865,
                0.34361838348316104
            ],
            [
                -0.18713793002214926,
                0.271204530972908,
                -0.2820896032121169,
                0.29052519962140283,
                -0.2848906278697492,
                -0.11790733586203238,
                0.031163884148444402,
                -0.009893574927079684,
                0.03131258994168524,
                0.13679746369410078,
                -0.3393151106330563,
                -0.15707756009472917,
                -0.21589382728663342,
                -0.42519710085882634,
                0.05909171171445972,
                -0.10736906563874016,
                -0.12079961006991417,
                -0.3285446680734357,
                0.06253385661515541,
                -0.2697060460373542,
                0.39952103153771495,
                -0.13148044272959242,
                0.12760785603261743,
                -0.25631757470029737,
                -0.5020013870660336,
                0.4296642627271673,
                0.16146003851186005,
                -0.07466781383500369,
                -0.3445295865518154,
                0.10043073574594541,
                -0.40279822038116186,
                0.3244639291405646,
                0.15116439977347054,
                0.3196458983575889,
                0.24054050541620609,
                0.3728885886435031,
                0.34272356914537755,
                -0.4019115007378746,
                -0.21016657129258634,
                -0.24331602002068395,
                0.4922037331396591,
                0.17391683050598308
            ],
            [
                -0.20044239872639832,
                0.4884857873130974,
                0.20901070011074643,
                -0.1978672008783884,
                0.2545940157624968,
                0.42454858736977175,
                0.2966219289783995,
                -0.5837396104233762,
                -0.3379635506720765,
                -0.06609702491672403,
                0.10137776296208954,
                0.01587084050808922,
                0.043276751486564416,
                0.2974726474485894,
                -0.10691742882247386,
                0.03894274851653964,
                -0.010861365298936334,
                0.15446584986423073,
                0.40901661306973436,
                0.4631968514170978,
                -0.31937521447198913,
                0.149118290882858,
                0.2077832327383461,
                0.3483590674412229,
                -0.28280181350518224,
                -0.2749211483892466,
                -0.43423628665503544,
                0.3205317790041818,
                -0.027266922230769076,
                -0.49389900998864816,
                -0.011423954607619366,
                0.3494999345537814,
                -0.028341246590404486,
                -0.2461165283029757,
                -0.0014506625935471805,
                -0.24953913418496615,
                -0.062093166650085636,
                -0.15268192921353735,
                -0.45858424443792367,
                -0.1271963121373048,
                -0.18359789939349846,
                0.37871433611509603
            ],
            [
                -0.3753952651104196,
                -0.08081852804272543,
                -0.2639604703468832,
                -0.09828751569594114,
                0.2207472780741541,
                -0.36522326417937623,
                -0.2025261580879504,
                0.07832556674588367,
                -0.28414128559149854,
                -0.284704505513861,
                -0.4585131032233404,
                -0.17515916781949428,
                0.29386514894671606,
                -0.2992101855353439,
                0.1665637511838639,
                -0.09167929888251032,
                0.27041634937493964,
                -0.09198645804469606,
                -0.2040117387599395,
                -0.09743925392689175,
                0.33223949215221144,
                0.156755755552399,
                0.29589165108198545,
                -0.0987051283158296,
                0.25420022191415537,
                -0.21643453487348496,
                0.12853149212884932,
                0.11412346744140817,
                0.1950157696464165,
                -0.2795143885994352,
                0.07395858753180366,
                0.3304388893153963,
                -0.08079923508692724,
                0.1819460105827951,
                -0.4336398034989599,
                0.24221531035662344,
                -0.20990228778332545,
                -0.14661369469398663,
                0.3235738547039267,
                0.3045487683230876,
                -0.0815203801174742,
                -0.056810394752394903
            ],
            [
                -0.30869846686441477,
                0.4126501365533336,
                -0.08568393088594999,
                -0.15151578636447913,
                0.09797785627603041,
                0.200429384954684,
                0.3854623252363039,
                0.4682659779731194,
                -0.4547532338624015,
                0.1867429955941235,
                0.10559436057664048,
                -0.2639527140483812,
                -0.14683667444725446,
                -0.4095332543561109,
                0.5047655877660463,
                0.28771554623296314,
                0.3405885506103398,
                0.04529721873005866,
                0.5060259241937763,
                -0.029646830904361137,
                0.2576919217237247,
                0.39345744190562826,
                0.15953127066192305,
                -0.16108489706263027,
                -0.44233999784161204,
                0.4821929443673294,
                -0.4432725697987967,
                0.17659579795764024,
                -0.2304690888569886,
                0.07369497267865704,
                -0.46145713452114656,
                -0.15511808435314497,
                -0.13484336433789898,
                -0.1443530281205489,
                -0.5317880519386811,
                0.3926252394053721,
                0.569695495889314,
                -0.11002528320257386,
                -0.4280672903439944,
                0.04562213571131123,
                0.025738805898872827,
                0.04040160204655679
            ],
            [
                -0.27138488920771464,
                0.2985560964901539,
                -0.3323387494722717,
                -0.09738866308543041,
                -0.3441309833542641,
                -0.1678328855600672,
                -0.07149689114221752,
                -0.4829585231911237,
                -0.30239766685355035,
                0.4313410840382134,
                0.21193144309674575,
                -0.23541083885987532,
                -0.24988170228503484,
                0.06587211606027296,
                0.26386069874994905,
                -0.24106520625114614,
                -0.05108957968899107,
                -0.16083345001561042,
                0.17234516063948052,
                -0.3909396589537956,
                -0.11191912285748473,
                -0.26504995496475553,
                0.09681847547261745,
                0.12651888283502527,
                -0.3039406813311828,
                -0.36877029599059724,
                -0.06602791955429012,
                -0.45586000109190844,
                -0.42742882408157884,
                0.03472517823989752,
                0.3120990791244073,
                0.11228679515091669,
                0.12988575269776717,
                -0.150001832982088,
                0.16814877727421051,
                -0.3512117191124953,
                0.060721861852505186,
                -0.20979208518735015,
                0.25844042170736037,
                -0.14985244570624476,
                0.22615369103303623,
                -0.34747512834408617
            ],
            [
                -0.5291549419675795,
                0.12751951063899955,
                0.6087256987692865,
                0.5624502375567197,
                -0.6051118080173697,
                0.30155896747206484,
                0.32440712491648976,
                -0.1071070844785081,
                -0.5825738560665189,
                0.24572634236285001,
                -0.43247115548054776,
                0.04697760908354564,
                0.265427251686772,
                0.02927080183435339,
                0.03664944069893844,
                0.2485393135893924,
                0.1569943883057215,
                -0.3222718689952771,
                0.6149444267113812,
                0.21841447278622136,
                0.47130723005415504,
                0.49542788142049676,
                0.19433250368867094,
                0.07821374615881113,
                -0.512930860029904,
                0.49043270800659394,
                -0.3730878935994166,
                0.07748636265694102,
                -0.33724635122108465,
                0.10761409009754352,
                -0.30336066294599623,
                -0.15921228182259534,
                0.5109926853413801,
                -0.5121244458010615,
                -0.32693951379437813,
                0.4626047084649318,
                -0.05555906778456226,
                -0.2426367379206376,
                -0.3080130530714751,
                0.507518342671415,
                0.06490488668186098,
                0.05853953682336712
            ],
            [
                -0.012534460132110545,
                0.3661334329615578,
                -0.11726006603522823,
                -0.1564466789874709,
                -0.10614360927750767,
                0.16387938617895192,
                0.21176632226966702,
                -0.5343309886885069,
                -0.39327592503304104,
                0.4504517603948108,
                -0.1272289747349696,
                2.797167118150828e-07,
                0.40460233337114815,
                -0.3766776750171807,
                0.237371525882063,
                0.0774620031595356,
                -0.2013848741413093,
                -0.254871071524672,
                0.39559547260327615,
                0.24300455825969025,
                -0.1186640121640513,
                0.3018181067740503,
                0.12190701215527637,
                0.01798354071087057,
                0.017675964403697595,
                -0.28805334203825805,
                -0.07462003000076535,
                0.2602706797305843,
                0.318304629450851,
                -0.20907822546764548,
                -0.0718942254571478,
                -0.34268109295057536,
                0.006517308444024361,
                0.04873613574936533,
                -0.45947434813503657,
                0.4781480357897457,
                0.4979387150711101,
                -0.10188339267208799,
                -0.40394121060200766,
                -0.3503273431564098,
                0.1614354779755739,
                0.07823675516522152
            ],
            [
                0.2663587735917254,
                0.3310891099726094,
                -0.17704266467525684,
                0.04690045080161553,
                -0.30233336561860513,
                -0.17008861657287128,
                0.011325509695530946,
                -0.32086954788145855,
                0.05121833891929294,
                0.45404824712613556,
                -0.017512702956766792,
                0.27095951434329985,
                0.3660667676757233,
                -0.06883057967416607,
                0.4976518478644684,
                0.06380506894960562,
                -0.26494132156099465,
                -0.29683826148070286,
                0.011593339025489586,
                -0.08945470557807736,
                -0.22984264479507005,
                0.3241966372070524,
                0.13313259348066095,
                0.33899874031511107,
                0.33811320348652857,
                0.2054250857001124,
                -0.04456656407272288,
                -0.15811811760766067,
                0.28405344824768,
                0.0035280193160009093,
                -0.15783262838690565,
                0.27892199608605583,
                0.4597750089245984,
                0.21640169697391876,
                -0.15060637663970658,
                0.424090768351587,
                0.33563816986853173,
                -0.30507950475666107,
                0.08012695767533015,
                -0.07976175497027324,
                -0.20584818418867903,
                -0.2263215973473161
            ],
            [
                -0.16571899925073222,
                0.036142860726072874,
                -0.3394688597544995,
                -0.3306930558757968,
                -0.00483090238740369,
                0.24503367699787956,
                0.10086174082921427,
                0.1614190307917265,
                -0.06325398342222759,
                0.27704848809966287,
                -0.3062292882462605,
                -0.05671287052917553,
                0.31676107145424254,
                0.04639598925025474,
                -0.04959002566924226,
                0.47695553885625636,
                0.0010604275622949771,
                -0.20874763767672994,
                -0.37854320644766837,
                -0.30242086150991304,
                -0.22122013052518102,
                0.36536436171657205,
                -0.18492696245862095,
                -0.25588194187468366,
                0.30044568912950764,
                -0.22707448957968424,
                -0.03561947651595092,
                0.06117806147996415,
                0.25428437137828325,
                0.04832200485513915,
                -0.34743752208463313,
                -0.2796499835592385,
                0.44548950575860247,
                0.13841623032462483,
                0.0002760397949721356,
                -0.06043333728619933,
                0.11905801555637999,
                0.4757048573178111,
                -0.33668454867689274,
                -0.061317552556523644,
                -0.14996992544087398,
                0.26408050006163564
            ],
            [
                -0.4339046888172082,
                0.4853457326090363,
                0.020823163550897045,
                -0.06984327843108935,
                -0.5064432702391524,
                0.467960223620199,
                0.3944184212016103,
                -0.240776618127021,
                -0.08971781578964878,
                0.36646803315562293,
                -0.022890275205282088,
                -0.16361625091651827,
                0.2538299796317129,
                0.049862973519904034,
                0.0617304213470864,
                0.018982448471489916,
                0.28829625213061666,
                -0.513093457720728,
                0.37942026967209436,
                0.19006231558923084,
                0.12086097367254278,
                -0.15507084364092452,
                0.16004500419896664,
                -0.14715038289809276,
                -0.12819008860366785,
                0.5778709028563042,
                -0.4861643618564815,
                -0.48111156206557504,
                0.23875775919761963,
                0.1432559942953626,
                -0.47284255503502565,
                -0.09118852411095243,
                0.21100967648720237,
                0.12502938009117134,
                -0.20776414121417083,
                -0.015047234683330786,
                0.06126280546087378,
                -0.3676505197547398,
                -0.09831782162007609,
                0.19718348996507756,
                0.3876499198767086,
                0.507810144289433
            ],
            [
                -0.14362239809865981,
                0.18038058976333213,
                0.32253070884122764,
                -0.06110877303566482,
                0.2980376058170602,
                -0.27651378402201404,
                -0.20778298817228855,
                0.13145561079877074,
                0.31429239968938044,
                -0.4814397155329947,
                0.07830381457846858,
                -0.238160440362718,
                -0.2576333467020931,
                -0.00015812188702541511,
                -0.03734685286875538,
                -0.02505496953570472,
                0.10828350728489831,
                -0.31871684882396334,
                0.13032257726586646,
                -0.31189562705346446,
                0.16827558279022545,
                -0.17213102290814244,
                -0.5123702636242429,
                0.3321675844203647,
                -0.02675217465493597,
                -0.14357231457644068,
                -0.24825199981514365,
                -0.026632025278535393,
                0.24241675539464644,
                0.31172960229951335,
                0.4419288570676005,
                0.2418259396784682,
                0.17909700903429107,
                -0.16224384765945743,
                -0.06951281271903684,
                -0.18061090770498475,
                -0.23479125602975381,
                -0.06460775935641987,
                0.04756578840819795,
                0.21667892000127154,
                -0.3274563096554407,
                0.11514452031485488
            ],
            [
                -0.07080473686553805,
                -0.07114751317768583,
                -0.3634961575168927,
                -0.4395738647165507,
                -0.09296785921554175,
                0.32038215909264023,
                0.10525499261864474,
                0.723484949372985,
                0.021331736928911358,
                -0.39620700222427463,
                0.2433957263694242,
                0.3233872581672757,
                0.12272919433605003,
                0.013388132885153123,
                -0.3619114181959703,
                0.30565411873272946,
                0.30643777935126715,
                0.128977129926282,
                -0.0009809254818321687,
                -0.34799149049771366,
                -0.05003916504590669,
                0.10149897502942042,
                0.0942891890965109,
                -0.1603496904226612,
                0.25795965540697274,
                0.04557058322652545,
                -0.40453630205384017,
                -0.214089483191918,
                -0.353964426871403,
                0.11001975713867307,
                0.17047357158624601,
                0.22516416340260417,
                -0.09913011441649144,
                0.2130505032897739,
                -0.35969924617851984,
                -0.4031198503622725,
                0.06230111055520286,
                -0.05814065774657427,
                -0.031208623597126995,
                -0.24838635627158237,
                0.13236077658739392,
                0.38464211741109633
            ],
            [
                -0.036961806082616226,
                0.3015388824078125,
                0.05633865400433467,
                -0.33847039465606227,
                0.228726794872664,
                0.36907508203501405,
                -0.05104699669123226,
                0.3594837939687382,
                -0.3316512225575807,
                0.360483832267897,
                0.05108707530077016,
                -0.45714852645654974,
                -0.16601637367931885,
                -0.09978487337439546,
                -0.06049586812276414,
                -0.06713194603902588,
                -0.13683598348987344,
                0.14671227415065694,
                0.3825072427570043,
                -0.2806413589576477,
                0.4047218769097743,
                0.36191825629326546,
                0.4915207616671238,
                0.31603808930405736,
                -0.1931801280374195,
                0.18075559914858952,
                -0.13751370614738198,
                -0.4763558437723357,
                0.34396374110595684,
                -0.0368014635804854,
                -0.19257671753868827,
                0.3760855414960227,
                -0.15060708895542146,
                -0.3267281237754629,
                -0.2763493258936731,
                0.27963704699198105,
                -0.33164504344542856,
                0.2199228189399195,
                -0.21429213492926436,
                -0.10895842179204154,
                -0.2941960882991519,
                0.07668753114874689
            ],
            [
                -0.15100361077459404,
                0.037651572787842716,
                -0.4143851270930015,
                -0.006726339308060928,
                0.19690463168631003,
                0.12120360069832593,
                0.1618738147546945,
                -0.12603902972754868,
                0.25290866278302926,
                0.07453350985441892,
                0.05150106331912789,
                0.12287607776245282,
                -0.4281737289131692,
                0.5064431348644992,
                -0.33939125799109343,
                -0.43638361814923476,
                0.12374416506333095,
                -0.1628160692243455,
                -0.12187004000903547,
                0.21513115274788497,
                0.29694835235246314,
                -0.3231760733260395,
                0.5575687708567414,
                -0.15383386248529948,
                0.029014852151898203,
                -0.37071248398899137,
                0.48454931118244826,
                0.08777170079313203,
                0.15798518512451531,
                0.24791785823183946,
                -0.06721768471966721,
                0.10943352078416457,
                -0.08257080191983265,
                -0.34370308125181537,
                0.046614725865276645,
                -0.08404666470668637,
                -0.21147521742570324,
                0.056175236984556856,
                -0.34634780532436815,
                0.2887400124844028,
                -0.13351309211214354,
                0.23034890225569574
            ],
            [
                -0.06519113964879762,
                -0.35479569547748724,
                -0.3262702198694574,
                0.296712692781651,
                -0.3265108894445291,
                -0.3649469240882982,
                -0.037094314220178386,
                -0.28310646567165865,
                0.3031042955377051,
                -0.3718201591894066,
                -0.4293078552172131,
                0.03823965637381636,
                -0.033581333578391645,
                -0.28800295517089003,
                -0.3849428194566022,
                0.2661601574437482,
                -0.4121347861823239,
                -0.3871513735036142,
                -0.33254075568029345,
                0.24167194542810458,
                0.4125841478775654,
                0.40294384880839684,
                0.4359705884483377,
                -0.006369803190357599,
                -0.286997810360825,
                0.40791294680325896,
                0.04933419821917702,
                0.006583540623517796,
                0.25683424597962234,
                -0.33833236657443616,
                -0.08751319878783374,
                0.0093733727314907,
                0.17302583597416787,
                -0.23780078104638994,
                0.32632314164231485,
                0.4306316893581789,
                0.12513875412938558,
                0.3529001243766423,
                -0.34862294055992343,
                -0.39833011578323374,
                0.3416961721291965,
                -0.08908050184711022
            ],
            [
                0.12784984799119778,
                -0.12888163988693976,
                0.03230286113417502,
                -0.1633085520870551,
                -0.3217754365161868,
                0.2670828848748112,
                -0.2300452808928584,
                -0.5549401285984426,
                0.014885165661997324,
                0.35061446533645646,
                0.22199477601466316,
                0.3091836313734922,
                0.23071400311965162,
                -0.09188148441035253,
                0.17675335303411313,
                -0.08637505557509755,
                -0.007727136622033748,
                0.01206941211881487,
                -0.03942287055741708,
                -0.11804864394256506,
                -0.25045944583404084,
                0.248405097322241,
                -0.10730818302722274,
                0.16998501807852134,
                -0.19131155071866396,
                -0.34616241448737933,
                0.2761666797084607,
                0.10143327026052364,
                0.08417126360485913,
                -0.040795305161741534,
                0.21769672726192985,
                -0.45908563784383505,
                0.3793751379518345,
                0.038809244975406325,
                0.010463774419350301,
                -0.3603982815584516,
                -0.19325041987474184,
                -0.36222953975575967,
                0.2993326418281897,
                0.11697234223014762,
                0.353280376505296,
                0.23313229531673066
            ],
            [
                -0.20154074299209165,
                0.4051645159709735,
                -0.3297487231283568,
                0.3458535357331807,
                -0.15367496143931755,
                0.5380237540921653,
                0.07060943390593742,
                -0.271537474195136,
                -0.49818287685567153,
                -0.19543656506675158,
                -0.09423507561602686,
                -0.2052236833993567,
                0.4001450305633298,
                -0.2791027943380541,
                0.08607959525060889,
                -0.2496073505007779,
                0.3572483150352681,
                -0.21691274195293192,
                0.4672362751778221,
                0.5307412729116076,
                0.1315878442063455,
                0.3684325229094743,
                -0.5221967604981418,
                0.029260004326118024,
                -0.2945533246760201,
                -0.10553987217912209,
                -0.19280402309465153,
                -0.10545611185156148,
                -0.08758563899384268,
                -0.27797170640624713,
                -0.1210216363791168,
                0.07038156997271176,
                0.03361023564638233,
                -0.37383683877124696,
                -0.4919907279748296,
                0.4941056678239674,
                0.1991854984312264,
                0.08895699979621272,
                -0.47747381219491003,
                -0.28293451716463086,
                -0.2298147221480397,
                -0.1388054726225444
            ],
            [
                0.40386187552495983,
                -0.2490636122197423,
                0.259344985985189,
                0.3391838569468009,
                0.14134395113215673,
                -0.010370076889877705,
                0.037063771692471305,
                -0.006538330531687766,
                0.05580610908581278,
                -0.4213584618327424,
                0.053484003399693114,
                -0.39599540155729285,
                -0.1489851424702327,
                -0.25624368622209837,
                -0.14630160070202944,
                0.32919354738077233,
                -0.39523646280201863,
                0.23078497016044602,
                0.15543875695637477,
                0.3917273073118191,
                -0.2631790324498593,
                -0.20920220010090215,
                -0.21139466383876881,
                0.09261939743489009,
                -0.006413366662965191,
                0.13990607163976984,
                -0.4467611185494867,
                0.29494485854106406,
                -0.31338126145673706,
                -0.32320680307880195,
                0.15747389399544431,
                0.4050330906179164,
                0.1641119156111168,
                0.36123043123238163,
                -0.05700518290094278,
                -0.03496916097535833,
                0.236273051994404,
                -0.19522803702166472,
                -0.0548439404204848,
                -0.023944560674374532,
                0.0019236531439972226,
                0.45369682314588045
            ],
            [
                0.26874930864394303,
                -0.4651958764765986,
                -0.081022612651036,
                0.1810268318047822,
                0.4163366417227732,
                0.02422693021404812,
                0.2714534333603754,
                -0.0775249040033147,
                0.5957475039221177,
                -0.1603325086148944,
                0.05249274270961237,
                0.08947906828324279,
                -0.574302949920902,
                0.633600954467705,
                -0.031723212767972846,
                0.02363932088568912,
                0.089174090132441,
                0.189911613606485,
                -0.29402128988470444,
                -0.2978069261310455,
                -0.05014747323019021,
                -0.3345634885852913,
                0.40846373219012533,
                0.6269716758080669,
                0.2809763670298983,
                -0.5891034432425967,
                -0.19638070292269996,
                -0.18218179788387337,
                0.295239472244741,
                0.17729774489454353,
                0.029309728861205975,
                0.06622005231701136,
                -0.18486035667472286,
                0.236036956124179,
                0.4101521714889717,
                0.12028596801683882,
                -0.23277536868521162,
                -0.061916241191910276,
                0.6541354156205514,
                -0.5992755852269349,
                -0.4815861324218341,
                -0.578447463441622
            ],
            [
                -0.057041365572160635,
                0.026526925047984467,
                0.33820385534919695,
                -0.2265013666696786,
                0.36360963155369486,
                0.1284821238507846,
                -0.2694093329351469,
                -0.16430053196072492,
                -0.34543622684481634,
                0.3863177797543295,
                0.44539912131864556,
                0.11145760315527291,
                -0.10248725772574425,
                0.41028798676000283,
                -0.021966814361192563,
                -0.05570032067626456,
                0.045678375949273195,
                0.3481170631293244,
                -0.4340632436703432,
                0.11255452296994797,
                -0.34707969684094886,
                0.29364140559273594,
                -0.34738518674152163,
                0.26364703302353637,
                0.40377714847990454,
                -0.43723496661435585,
                0.49091980573847294,
                -0.3523632925590586,
                -0.09130387225977794,
                0.03781684728583558,
                0.33052907204629717,
                0.3949062474822206,
                0.06414276844536704,
                -0.25570535299930686,
                0.28275166391788276,
                -0.3331458743933756,
                -0.16324223445745187,
                0.3663389000480366,
                -0.06087919495339764,
                0.1266088711201532,
                0.32850201058473844,
                0.30191235097920627
            ],
            [
                -0.459178037173861,
                0.13328309444151532,
                0.24958558465162584,
                -0.06502254995742524,
                -0.170948936109639,
                0.44924423490027166,
                0.11785082718211189,
                -0.6010769777523527,
                -0.18538686899774268,
                0.4388696964692592,
                -0.22758287052922505,
                0.1497015288893184,
                -0.1100408726528231,
                -0.29159754865118986,
                0.22197959137009307,
                -0.11289062606209814,
                -0.06545743995909381,
                -0.3196050051117915,
                0.11234048829615977,
                0.32252065338149016,
                0.37011310021304505,
                0.07631183643675933,
                0.05023365361909991,
                0.27156030916835006,
                0.25376626927716994,
                0.21949807629117396,
                0.05987605822446755,
                0.18455416444133127,
                0.03197798695073804,
                -0.15630658809080716,
                -0.18650578746207946,
                -0.4052916447823582,
                0.36447932179414316,
                -0.34105370902651805,
                0.14827706694565915,
                -0.0588148718892529,
                -0.19813019188622485,
                -0.15253976934419083,
                -0.45990089105176957,
                0.3802463207478931,
                0.16286355295298913,
                -0.22499409212930072
            ],
            [
                0.3885960105954207,
                -0.08619070541423698,
                0.051220421976631327,
                0.12302308929653223,
                0.2037443453273061,
                -0.3267453643972756,
                -0.1621374541184836,
                0.25985536994822306,
                0.5908187796789752,
                -0.15965382490989682,
                0.45953124750903473,
                0.4418424176650966,
                -0.3411591367461892,
                0.35924534687569304,
                0.13642918157805975,
                -0.10134134626755559,
                -0.3278223514023187,
                0.44542149448737994,
                -0.10202189499089678,
                -0.5870150173496829,
                -0.43971012838865353,
                -0.5080410144300416,
                0.1990579231842414,
                0.030288332737447472,
                -0.1006609675699358,
                -0.6260272660453444,
                -0.039929659687864306,
                0.32217260184258845,
                0.05798884356601531,
                -0.20438290496634354,
                0.05614480406559299,
                -0.05545565467698585,
                -0.5808407602336348,
                0.30631617390623944,
                0.49848861038063236,
                -0.12413540498827315,
                0.1489330147002035,
                0.013264371950664492,
                0.60336579155643,
                -0.07619953501715347,
                -0.3644953313711589,
                0.050345349084278804
            ],
            [
                -0.019345774015641668,
                0.0357951750369401,
                0.16693005220563376,
                -0.2405287586112046,
                -0.46753257209157323,
                -0.0610270316551267,
                0.3215418088838092,
                0.07221431558406405,
                -0.3164838088210756,
                0.17526967002444943,
                0.07816719989344541,
                0.30827963775607947,
                0.08485959501198405,
                -0.04583265248358114,
                -0.31565792453643715,
                0.061704176760455066,
                0.022403213900879883,
                -0.12426675662810299,
                0.42961215951360476,
                0.1711219987554059,
                0.2629907993528238,
                0.08713006297938407,
                -0.0758053691870221,
                0.27100553720199066,
                -0.17987312802878386,
                -0.2624902144152232,
                -0.13557425999411726,
                -0.4914436541161249,
                0.19209343021626873,
                -0.2723240869210618,
                -0.18039478054431796,
                0.23252000215381763,
                0.22109826948836284,
                -0.5329049104213996,
                -0.3328641386796459,
                0.35355064049998725,
                -0.14628757244391558,
                0.24105988362688202,
                -0.3709110875195298,
                0.4824511733422466,
                -0.3042761918754376,
                -0.06918500542966295
            ],
            [
                0.07342213469018444,
                -0.26546967317129233,
                0.2632318571745069,
                0.1558176561995236,
                -0.0059713606434532735,
                -0.15613036107647965,
                0.2232006563911098,
                0.5182114610964786,
                0.2670093078076985,
                -0.13620095110516955,
                0.18568607828550945,
                0.024729218019590663,
                0.2834317924115842,
                0.3075742015861435,
                -0.11288861407901064,
                -0.07868708640630084,
                0.29884276443700225,
                0.23585805942242044,
                -0.11536606702233261,
                0.17197033267246745,
                0.20727517627289563,
                -0.11445346598029343,
                -0.19198582529188407,
                0.14582960105365209,
                0.1759304972706647,
                -0.021349456963238082,
                -0.046995881464541735,
                -0.3242506505534232,
                -0.16584589285013798,
                0.411875084941927,
                0.292311475737433,
                0.059920926067214664,
                -0.28983091763671964,
                0.14371005461273148,
                -0.10735892650545013,
                -0.2278551331489552,
                0.2568480544711237,
                0.25874864469649317,
                0.36037496440081385,
                0.10764187482867112,
                -0.058827825368820315,
                -0.4161128079948708
            ]
        ],
        [
            [
                -0.23888618715173066,
                0.03170990853983392,
                0.06721924083428003,
                -0.1536094741370221,
                0.13600339861268584,
                -0.28055004415095997,
                0.3245936459024744,
                -0.21249082109705245,
                0.12544889958647848,
                0.4384044815186993,
                0.21203862828378636,
                0.20682179407913007,
                -0.17709018409083835,
                0.040097083217729576,
                -0.20449442561298406,
                -0.11670942847757322,
                0.34937531207471434,
                -0.24318980147416175,
                -0.07598235859977721,
                0.05604656469306202,
                -0.31682472139481205,
                0.12250564718920091,
                -0.008621410855358648,
                0.3465040302245797,
                -0.1944354003613177,
                -0.02841003368798263,
                0.29905944032560866,
                0.006966986881115225,
                -0.11769203584724001,
                -0.17496049817211073,
                -0.3257475072292801,
                -0.16728022069283552
            ],
            [
                -0.09848339453253009,
                0.3434978663622623,
                0.19896110643683668,
                -0.2920576199259927,
                0.09144640695356408,
                0.3971650854664178,
                -0.3730262370595433,
                -0.23349077098899618,
                -0.23745344268996224,
                0.134923366643602,
                -0.23395276885483549,
                -0.52696552881128,
                -0.06002625650293662,
                -0.16821912845635284,
                -0.4644285870499297,
                -0.1484514691518005,
                -0.266885262563321,
                -0.45414942714851164,
                -0.16087032977295712,
                0.0472196879256288,
                0.21795667032772845,
                -0.433754862867019,
                0.38246706314822754,
                -0.2826784575469968,
                0.40281020617241803,
                0.13895979711956427,
                -0.47828113353687074,
                -0.22680789807366633,
                -0.14106564093078242,
                0.05794730349351648,
                0.47649969638503314,
                0.1939242171413116
            ],
            [
                -0.15501330872865085,
                -0.13356634282126367,
                -0.004957242667033761,
                0.09239634315878792,
                0.31168559758045655,
                0.12134470865921812,
                -0.5138706663286278,
                -0.038880737902910044,
                -0.09391525344003447,
                -0.4409237611773147,
                -0.12988374166468536,
                -0.3857259281380429,
                -0.08016793915576897,
                0.4265851995890184,
                -0.3943857879588101,
                0.001618390527062451,
                -0.28804276521677474,
                -0.48759915659447534,
                0.40321970013785374,
                -0.3292838903887891,
                -0.10867017716249426,
                -0.022477236533005585,
                -0.040211534527188175,
                -0.4522570740743344,
                -0.02020223100140439,
                0.35213759690195784,
                -0.09371298783722791,
                -0.3360421861108373,
                0.45840337944549114,
                0.009326019942906836,
                0.46350323441133745,
                -0.03149773487132184
            ],
            [
                0.2586139993826499,
                -0.16131040215409417,
                -0.3607258405084477,
                -0.15506148807665066,
                0.43727391073194527,
                0.1909150339230309,
                -0.2651139612325639,
                -0.39341855917661683,
                0.1319323647936325,
                0.0613923873570838,
                -0.17679841532664872,
                -0.4740763410840889,
                -0.1829264930493385,
                -0.20362383289204083,
                0.1641004327998708,
                -0.2129127638055498,
                -0.345717248904467,
                -0.45770569830904545,
                0.13019511846443219,
                0.013686499112735834,
                0.011184482212033307,
                -0.23364220331421817,
                -0.02431181304298661,
                -0.1335872667438841,
                0.14797818871788274,
                0.38451886790870277,
                0.10420959602678925,
                -0.3504519917749186,
                0.5270105049649065,
                -0.13220851731578234,
                0.3450393507876423,
                -0.1898299879646881
            ],
            [
                -0.11899093776553513,
                -0.2799654795153383,
                0.39934857699431975,
                -0.19947135471920618,
                -0.3851237584320239,
                0.23727621322716572,
                0.37840187359057115,
                0.42072215200499236,
                -0.15091527847650638,
                -0.18587868062708987,
                0.1349908450586227,
                0.19737643984944309,
                -0.0027770010308715756,
                -0.4277036080904734,
                0.2437755663100411,
                -0.16768086700445065,
                0.1401946160249503,
                0.11749671212155754,
                -0.40538309905583386,
                -0.24898669934325252,
                -0.24103044212160854,
                0.4585032846848583,
                -0.24204892605358905,
                -0.19966801940404977,
                0.1183268949570967,
                -0.2682209096801242,
                0.2510524521161173,
                -0.08161544299428629,
                0.12531740867278737,
                0.24352418579375545,
                0.035566267093560464,
                -0.4723707643931124
            ],
            [
                0.4414686111955394,
                0.4081287122629404,
                -0.47602389587983684,
                0.010138003331965111,
                0.25797701890057484,
                -0.05232397054079459,
                -0.09587128890639719,
                0.01190065480053217,
                -0.22566642881763505,
                -0.09114890012582048,
                0.05813120008730715,
                -0.3762749311051016,
                -0.48167285428497886,
                0.2906747138415755,
                -0.4308163817576065,
                -0.19150700451724736,
                0.23089706501576432,
                -0.33531268885849635,
                0.3190995573596407,
                -0.02226511753356892,
                0.41149120663062283,
                0.06851422420643533,
                0.4038696352921444,
                -0.00251180620743466,
                0.19991441884213287,
                0.19639450392911276,
                -0.4436688910403217,
                -0.29070551635130004,
                0.24985473792697005,
                -0.1656813762340824,
                0.38479804778343846,
                0.09940412518935866
            ],
            [
                0.19348057120027848,
                0.05755905400302511,
                0.18590504935116037,
                -0.22776666293040676,
                -0.019654435285919484,
                -0.10954294471231306,
                -0.11781007169098379,
                -0.43962086534498834,
                -0.31371679370800565,
                0.21545240908576963,
                -0.3623350346816296,
                0.1323973268970627,
                0.04495396441227807,
                0.49994798641164145,
                -0.26822610305985234,
                0.2581653334641685,
                0.06815113700231329,
                -0.16038247340013623,
                -0.09847593156881895,
                -0.22697416449184968,
                0.46926515618082887,
                -0.3291090664587291,
                -0.04396466952781994,
                -0.19885147454504098,
                0.28335487070459203,
                0.289921657224968,
                -0.47763763499030315,
                -0.022204159720418323,
                0.47621534495222384,
                0.08724142714507135,
                -0.11208133017459032,
                0.15227355589555044
            ],
            [
                0.29196070084848363,
                0.27093946648892464,
                0.29678557568241143,
                -0.0007061980526342291,
                0.3274059403691287,
                0.23957761583202344,
                -0.09802562717527898,
                0.08788883148873236,
                -0.1711492732720319,
                0.09127069026728081,
                -0.06687874673359107,
                0.15504653639835453,
                -0.08980779129156892,
                -0.0661824310037344,
                0.14285711127402723,
                -0.24518759104319215,
                -0.32284184304876995,
                -0.275225873251769,
                0.35354493486828736,
                -0.400488206681225,
                -0.019921126795827533,
                0.115775386185828,
                0.3341920095535001,
                0.094950030622871,
                -0.06431907093576705,
                -0.021104730915034137,
                -0.3594286360347073,
                0.28351520197807334,
                -0.32824006494872054,
                -0.20818738664155365,
                0.2292792399569736,
                -0.32135802888279247
            ],
            [
                -0.492013561052964,
                -0.5112188954033887,
                -0.0179501778671349,
                -0.08916168224603208,
                -0.2502736221657194,
                -0.45590498478128183,
                0.245138301297545,
                0.43468931877591827,
                0.4161301625136616,
                0.101159238484999,
                0.3756573309526883,
                0.3666548702712737,
                0.43841019612452387,
                -0.09178346673096081,
                0.09743757272421474,
                -0.18032241113837774,
                -0.031582523434481445,
                0.4931667586966616,
                -0.2478769284754579,
                0.21710644085472786,
                -0.36431511931215277,
                0.4462104649343501,
                -0.21428367965002504,
                0.32552843196249887,
                0.23191354699773695,
                -0.4155902505087978,
                0.10019209936296314,
                0.024889829691562754,
                -0.20419534947047627,
                -0.1776970503607968,
                -0.07703769369166819,
                -0.178577519835462
            ],
            [
                -0.2467694018786564,
                0.09921606011015648,
                0.07761696019964742,
                -0.17124545818883175,
                0.03301389558835415,
                0.23653588571500198,
                -0.09562675124483203,
                -0.3961947340453642,
                0.12772113859966763,
                0.07197132172162528,
                -0.11456361067811904,
                -0.4035612421478067,
                -0.35932290787570126,
                -0.3142637217247399,
                0.23769212492652436,
                -0.010238609897506655,
                0.17228587804411935,
                -0.3424267538354006,
                0.025660905890237295,
                -0.27899536730205826,
                0.30601495306780113,
                -0.022108922197268868,
                0.35968784464702475,
                -0.22159611970935597,
                0.1878595480674942,
                -0.010657148105455134,
                -0.12755931831710127,
                -0.023937008152553976,
                0.05694717600392578,
                0.19735964200090486,
                -0.1307688419056499,
                0.3688202337130474
            ],
            [
                0.2648181894760737,
                0.16578471531508038,
                -0.27958657389280306,
                0.22573609286529414,
                -0.47373070843043275,
                0.08595592659057986,
                0.30014367107342205,
                -0.012793607411598658,
                0.38282619054683664,
                -0.13985489930308573,
                0.23566008913075873,
                0.3297506558909766,
                0.07163378306485856,
                0.0820309282810356,
                0.33340131294576003,
                -0.03759674292298299,
                0.05282889127351376,
                0.018733641478076612,
                -0.30327480503523463,
                0.22970519961988267,
                0.03890443756301798,
                0.34855221379661205,
                -0.13063148735153118,
                0.17973348931937275,
                -0.3009200309624229,
                -0.0410958273230227,
                -0.15903305376545235,
                0.35472020391204406,
                0.17244396801984832,
                0.19988070726755236,
                -0.038169663877269645,
                -0.43309475535516273
            ],
            [
                -0.2134303328077528,
                0.1685524088865565,
                0.0011928982077020135,
                -0.11090811101256967,
                -0.19105133689171291,
                -0.23834197928723475,
                0.09324040087041398,
                0.36833362656936136,
                -0.19832429571372914,
                0.11573548514821756,
                0.07617084560472158,
                0.3412533198413701,
                0.4166881071235913,
                -0.05331732339072389,
                0.009952143665353715,
