{
    "network_type": "multilayer_perceptron",
    "n_layers": 7,
    "optimizer": "adam",
    "loss": "binary_crossentropy",
    "layers": [
        {
            "type": "input",
            "n_neurons": 2,
            "activation": "sigmoid",
            "input_dim": 30
        },
        {
            "type": "hidden",
            "n_neurons": 24,
            "activation": "sigmoid"
        },
        {
            "type": "hidden",
            "n_neurons": 32,
            "activation": "tanh"
        },
        {
            "type": "hidden",
            "n_neurons": 42,
            "activation": "sigmoid"
        },
        {
            "type": "hidden",
            "n_neurons": 32,
            "activation": "tanh"
        },
        {
            "type": "hidden",
            "n_neurons": 24,
            "activation": "sigmoid"
        },
        {
            "type": "output",
            "n_neurons": 2,
            "activation": "softmax"
        }
    ],
    "weights": [
        [
            [
                -0.15580758083414667,
                -0.37159305780546287
            ],
            [
                0.12628413063747543,
                0.0629128766587229
            ],
            [
                0.1366452554130886,
                -0.42252559491799596
            ],
            [
                0.6143831023080978,
                -0.1398067433176099
            ],
            [
                0.20558864650902195,
                0.14833701333998525
            ],
            [
                -0.06349414565906712,
                0.013611143182562572
            ],
            [
                0.4975934706457477,
                -0.2020775267452606
            ],
            [
                0.7137344380824349,
                -0.48418639654079804
            ],
            [
                0.015772249348726678,
                -0.21933987386690632
            ],
            [
                -0.3950625246139937,
                -0.19505421968860984
            ],
            [
                0.6068402575848759,
                -0.19886992013259722
            ],
            [
                -0.30445313883946395,
                0.1866903442036472
            ],
            [
                0.4225888976044137,
                -0.34075534327073703
            ],
            [
                0.25730232091847055,
                -0.136012925322807
            ],
            [
                -0.23852304668200533,
                -0.24717369054011915
            ],
            [
                -0.09307398747941187,
                0.17303603493367925
            ],
            [
                -0.31067697782674286,
                0.09521067186556108
            ],
            [
                -0.31143169286541816,
                0.03278347577741293
            ],
            [
                0.13569548726622022,
                -0.13742169796789552
            ],
            [
                -0.07514276045117345,
                0.24100131865443322
            ],
            [
                0.24134405231913958,
                -0.6185661099042143
            ],
            [
                0.6753024272578745,
                -0.723035207552345
            ],
            [
                -0.03739865486790558,
                -0.6128950244359167
            ],
            [
                0.35730564737697423,
                -0.6974506888364723
            ],
            [
                0.5942777967890956,
                0.1525800203740417
            ],
            [
                -0.2292487169279838,
                -0.3513447252274971
            ],
            [
                0.3173146405143183,
                -0.3406636128989579
            ],
            [
                0.6609076288106315,
                0.1988946614614747
            ],
            [
                0.02502410237969735,
                0.11248364601031716
            ],
            [
                0.1918518784822683,
                -0.08291556261082968
            ]
        ],
        [
            [
                -0.4901515998703734,
                1.8133817720156018,
                -1.267710910886682,
                0.4268245288995816,
                1.0446409570137973,
                0.9779031616718605,
                0.009226341560070048,
                -1.6382438994762456,
                -0.6337993937401538,
                0.9086518530950908,
                -1.6033091027767983,
                0.2597796391376932,
                -1.1545479838407344,
                1.16992729373236,
                -1.5708643515605138,
                -0.5179089055032301,
                -1.0654656550806882,
                0.6235395829878613,
                1.7098490530129813,
                1.4135235603706204,
                -1.4963940554860071,
                0.8547900497798399,
                1.760557965181085,
                -1.2679223790328467
            ],
            [
                -1.8116505872941289,
                1.1922932800737236,
                -0.3256874916155056,
                1.2949274630008365,
                -0.43444734421612136,
                1.2649826818484684,
                0.39969547372873604,
                0.4381121016939657,
                -1.2672024024831954,
                -0.24591472254529442,
                -0.06901977958307692,
                0.4073644180705605,
                1.6528866559710613,
                -1.7545290757503564,
                -0.5592163702833625,
                1.7523004530210045,
                0.29776730571548893,
                1.7432885323031264,
                -1.241796592500545,
                -1.4280323046767258,
                1.6875629819464477,
                -0.26859965502462624,
                -0.12103136092001383,
                -0.03126332079253535
            ]
        ],
        [
            [
                -0.5462083306272568,
                0.21476765502862524,
                0.21642621976910248,
                -0.18222791681888398,
                0.23377973381321857,
                -0.02889855294792821,
                -0.2817038848144279,
                0.18286865200211933,
                -0.283989957150856,
                0.07496273272627489,
                -0.0885406194261681,
                -0.37848700130783264,
                0.28312860215406216,
                -0.4393871901614977,
                0.03789328042673947,
                -0.05366419647886298,
                -0.12537408171730208,
                -0.2575652758622426,
                0.20760549908484513,
                -0.22435306437762878,
                0.028148345738736806,
                0.2753672450103072,
                0.0975829436471424,
                0.3870443041534258,
                0.11939553726333511,
                -0.2946785808063494,
                -0.08000331460128743,
                0.5301152022872426,
                0.10527644400313926,
                0.07704272132860615,
                0.21203357070281453,
                -0.047381938351389624
            ],
            [
                -0.2543738589188203,
                -0.37495737135802887,
                -0.19545099729338294,
                0.2771741516434844,
                0.12077637278613206,
                -0.06337770172328573,
                0.29825195393211984,
                0.32477535519967093,
                -0.021935542759430143,
                0.36955063998476456,
                0.13868756271628993,
                0.17805160660169017,
                -0.10527906122834316,
                0.16607031789750656,
                -0.03048486024794742,
                0.1266521909636918,
                -0.21362473587463301,
                0.019606822820387913,
                -0.30849513375095444,
                0.22104200659172094,
                -0.2466698138666723,
                -0.16039802675211398,
                -0.052078918532070036,
                0.3309420660915663,
                -0.23584803277125949,
                0.19687665026852996,
                -0.18485916376321893,
                0.2878544872394619,
                -0.3379444554759165,
                0.08564014238785315,
                0.01774546256574855,
                0.4145710678990787
            ],
            [
                0.03715732116755937,
                -0.16955170847521156,
                0.4791550840430992,
                -0.28507534227069675,
                -0.2578117687307791,
                0.04655388401667568,
                0.4205593190187907,
                -0.4845760889786211,
                -0.3055477768312073,
                0.03576641933070011,
                -0.14939508727063971,
                0.050898989750086984,
                -0.5028541550097175,
                0.3646481991587261,
                0.16366823835353167,
                -0.35679078903901057,
                -0.1054396336823945,
                -0.056818597100774505,
                -0.23672729268799847,
                -0.16391304971187698,
                -0.26417788975764145,
                0.45963146458176124,
                -0.061754755874230974,
                0.3870506529374995,
                0.3787664763853613,
                0.09972381728170839,
                -0.04730901765795167,
                -0.508922382022425,
                0.2553510327950718,
                0.1585303334822696,
                -0.41193423057397716,
                -0.40835375391893325
            ],
            [
                -0.16088476649125014,
                0.37612317248635013,
                -0.06265387281040168,
                0.053353780839088705,
                -0.05698408877381217,
                0.22532582606601445,
                -0.07805937340235254,
                -0.2732083097338926,
                -0.3805303009591568,
                -0.0354730284775944,
                -0.16744155792507823,
                -0.5399796012778061,
                -0.4926529423049905,
                0.27904396950891114,
                0.13083591318063084,
                -0.1577536195150048,
                0.38295419596560054,
                -0.02498221302042001,
                -0.4397296092724217,
                -0.315188520829588,
                -0.2898636843280506,
                0.18463423761807768,
                0.4723349551768047,
                0.25129147389166046,
                -0.27646051195005145,
                -0.26765721198251036,
                -0.23868909813325062,
                0.03333465776443387,
                0.0581878867349159,
                -0.3562664587414038,
                0.4102015607632273,
                -0.396400147797859
            ],
            [
                -0.1130449677904892,
                0.28621053200551866,
                0.3415538474743336,
                -0.3093875172948097,
                0.10142382225675577,
                0.3949239171057333,
                0.4236936461143491,
                -0.17416814024474453,
                -0.14677132765876283,
                -0.12967694106060257,
                0.01523680893090385,
                0.45921114382019,
                0.52932491441466,
                -0.40421088716754916,
                0.28688581363781,
                -0.14541034344446227,
                -0.38346409119713787,
                -0.15643751319343824,
                0.3903612738745114,
                0.48397703374724577,
                0.05689709054555315,
                0.4653100094209762,
                0.5714844596560109,
                0.44686598237742886,
                0.42654794455245143,
                -0.3777394598255766,
                -0.4916087674400387,
                0.09087588739850695,
                -0.41655433743445924,
                -0.008266174443272906,
                -0.05775115123652389,
                0.3976831918062455
            ],
            [
                0.32962847216045144,
                -0.33697995647036455,
                0.5130900059264617,
                0.3249648070839342,
                -0.2515704061359135,
                0.22711366475141406,
                -0.1474657740617991,
                0.36221228161100133,
                0.33609126131700795,
                -0.4546233743674104,
                0.0672802628350498,
                -0.08780789541097399,
                0.23954630417143113,
                0.3876355030987644,
                0.23767213397926515,
                0.09051465543425737,
                -0.1570500066555153,
                -0.4224052910304773,
                0.2635607888164557,
                0.30059232426477334,
                -0.2830606698356618,
                0.41913519049132403,
                -0.20909423392266455,
                -0.09104666394405483,
                0.10973020678775239,
                0.38280584005746415,
                0.44008565377354675,
                -0.4539846493687148,
                0.16095761176225537,
                -0.18924466748647562,
                0.23843397882157083,
                -0.2447959761141594
            ],
            [
                0.25180410105551776,
                -0.06488915432807646,
                0.2984629020700837,
                0.42503803529543166,
                -0.08618247038210197,
                -0.3348180202301863,
                -0.12504165042345322,
                -0.47996048902425953,
                -0.30454916684973343,
                -0.4628966657702302,
                -0.08285158913223277,
                -0.07629953686009314,
                -0.07736275276751176,
                0.33004142229112793,
                0.37235483508378214,
                0.20016272279924774,
                0.13493862324735928,
                0.20866929717820432,
                0.09948586717256042,
                -0.38790489657165333,
                0.42243133809793176,
                0.005521646713619133,
                -0.37911381130257493,
                -0.3921441905281428,
                -0.26082231960856583,
                0.0946190731880546,
                -0.2710214566461149,
                -0.12248903816718472,
                0.4973697355730522,
                -0.05538778386221772,
                0.12197353345127418,
                -0.1050190102935663
            ],
            [
                0.3761498090097646,
                -0.49707867680367224,
                -0.3642380779007149,
                -0.3388944091533965,
                0.5951594534379223,
                -0.050838361123841116,
                -0.02217369495243788,
                -0.433351483664746,
                -0.2952338910706148,
                0.04581098088072544,
                -0.03781210074287469,
                -0.2757220358829806,
                -0.07188666727002128,
                -0.37224649390252873,
                0.403212740655355,
                -0.045174544655035835,
                -0.08434134038403784,
                -0.07953657148006342,
                0.29404368580418905,
                0.19094381131413063,
                -0.15264475139306816,
                -0.533537755368373,
                -0.3245294422745924,
                0.389942819055723,
                0.16120988449772547,
                -0.4698776579940288,
                0.23334087624274596,
                0.2921105425455894,
                -0.0401282953050643,
                0.4242194980849489,
                0.24692418480050873,
                -0.06782683040776169
            ],
            [
                0.19362016374572077,
                0.3505745437861978,
                0.3855577647210084,
                0.018309540553385538,
                -0.4426089135267281,
                0.010751809079906789,
                -0.45097332046599053,
                -0.17563799121897342,
                0.05169137355240479,
                -0.39155001732106454,
                -0.40158511849897655,
                0.21841849246622053,
                -0.029513506443757033,
                0.37169756351254163,
                -0.29958240360513166,
                0.09711124701594363,
                -0.4065558344922576,
                0.21465956933500877,
                -0.06517594844631588,
                0.36758752823926333,
                -0.2460962292802154,
                -0.23787549390251161,
                0.5534368337110955,
                -0.3891051238409002,
                0.3756351648000885,
                0.5169433072580741,
                0.42338617754054275,
                0.3990363361986041,
                -0.4694850707835926,
                -0.12764044463980442,
                0.06997586141721018,
                -0.2680094473513492
            ],
            [
                -0.4248739989414379,
                -0.48475817212964895,
                -0.4103647903964918,
                -0.2757805695468545,
                0.2692803687806991,
                -0.3541292664928664,
                -0.20440343553687026,
                0.2284742970450479,
                0.3179996870114535,
                0.364546152399123,
                -0.3595634730264326,
                0.16295061364394076,
                0.1539296285402933,
                -0.012151387194896668,
                0.13254453342118036,
                0.17522528370187565,
                0.1643969113671992,
                -0.09557106005115584,
                -0.2380042795334587,
                -0.1934955266528857,
                -0.3781984981753809,
                0.11285434642519626,
                -0.08570088885241141,
                -0.3322398048553718,
                -0.06821428619473921,
                -0.030093057358942674,
                -0.3712863908676031,
                0.46105207386178376,
                -0.18135509897371868,
                -0.06917542359168127,
                0.11637605721028418,
                0.5258979627354701
            ],
            [
                0.49225770375714206,
                -0.3975115974473772,
                0.4738936858622391,
                0.3204304555127445,
                0.48108044493307334,
                0.3892560795850141,
                0.539521278344379,
                -0.003706266417713042,
                0.20233526793992998,
                0.4728504929519231,
                -0.21449959834925697,
                -0.042682052100827914,
                0.02297448771317746,
                0.3513419589847947,
                -0.34275403058965087,
                0.6021207823728578,
                -0.02079635861821682,
                0.20119159177708956,
                -0.20696809819250353,
                0.06823644556417312,
                -0.2870820986805742,
                -0.020432836148162315,
                -0.15816490438055478,
                0.10516266011131958,
                -0.21367645247412978,
                0.1664818646625582,
                0.44214233683182375,
                0.0941262045258339,
                -0.35417010406911,
                -0.015607781327196446,
                0.08526346765826852,
                -0.1493332102807317
            ],
            [
                0.1889222787999025,
                -0.33130278078407605,
                -0.04226313518358197,
                0.010831598360109758,
                0.4688059942105398,
                -0.2330630031206687,
                -0.21579270496940775,
                0.11264403831259845,
                -0.10811528443564003,
                0.2825808375690616,
                0.46275277325446923,
                -0.2669121428293474,
                0.485009090538166,
                0.4509855819178566,
                -0.5058558524581351,
                -0.29852693455491536,
                -0.3689475529525786,
                -0.14692035416215862,
                -0.047525309451175744,
                -0.2183640207962984,
                -0.358152045094925,
                0.013855525951955031,
                0.06018091899582649,
                -0.03323683807105428,
                0.37723483377276645,
                -0.2645321516041204,
                0.42276102466978205,
                -0.5719525805530741,
                -0.24858307204934835,
                -0.3739302732400511,
                0.250088095401011,
                -0.18624462865453
            ],
            [
                0.33952589176101705,
                0.47502911725145686,
                0.3018782160185736,
                0.2592850587529328,
                0.13088378009807886,
                -0.056583192354375894,
                0.25131282892797996,
                -0.4214255455323927,
                -0.39651615947787244,
                0.10310918523494103,
                0.04083394759751657,
                0.015380839183250592,
                -0.03452146029698695,
                0.26245290004779526,
                0.42315856783241845,
                -0.2575988043922949,
                0.3958271587421181,
                -0.020404643565503786,
                0.37667376778629075,
                0.2894655331936877,
                -0.06631922128227666,
                -0.3503434318726283,
                0.03154244829526529,
                0.23356429497787626,
                -0.2570648724327576,
                -0.0374399354709837,
                0.5665632149842259,
                -0.5468933210804726,
                0.011328196740133056,
                0.5460487890399028,
                -0.40063433220330036,
                -0.41442424041660586
            ],
            [
                0.17462907361245397,
                -0.05592139540659203,
                -0.42546986478445964,
                -0.5923390078109153,
                -0.09563525868180389,
                -0.22953034908481196,
                -0.4085994865762515,
                -0.23502851094620517,
                0.3620682163485742,
                -0.5002708027080082,
                0.020056486478324687,
                -0.0026304388464678742,
                -0.061166474190442105,
                -0.29609138935392193,
                0.0969695991982842,
                -0.44405146763602993,
                -0.2389851245439723,
                0.2563749442439814,
                0.09077216068773587,
                0.5884003062151139,
                0.20882701375411764,
                -0.19544822827478547,
                0.06262491113036973,
                0.47943876329074786,
                -0.2415533030786778,
                0.45151851062902326,
                -0.09507889615836418,
                0.45133657956411505,
                -0.5194437693405523,
                -0.23375367824476118,
                0.13261763953250982,
                -0.118036488611881
            ],
            [
                -0.2880662214659085,
                0.40676759168437493,
                -0.44222369166310976,
                -0.2826809791522688,
                0.0805508508667015,
                -0.02558529389143831,
                0.25967488949238743,
                -0.18448112011910706,
                0.2987575251391111,
                0.30359273238843043,
                -0.11281129618571414,
                -0.13051004411951012,
                -0.24012400721147042,
                -0.08163341473371653,
                -0.33904603861011334,
                0.1603660950880338,
                -0.11640976910306128,
                0.019566210959141878,
                0.1738337398222721,
                0.3669230850610823,
                0.1315113168720448,
                -0.14597338465526188,
                0.3579788926694393,
                -0.33396602482682414,
                0.041527750989183765,
                -0.4493467425562937,
                -0.25002039770636936,
                -0.38004991322892784,
                -0.4007439864200969,
                0.44488785326795177,
                -0.13387388080557236,
                0.04104041068201936
            ],
            [
                0.38096464982428185,
                -0.0812318113385117,
                0.20765506938253583,
                -0.21188471159879252,
                0.14960530269432137,
                -0.0636940772994367,
                0.03618516920746942,
                -0.46121099786271424,
                -0.37564980190568825,
                0.2365172681548309,
                0.32773032773530997,
                -0.29997930994553773,
                -0.02747362669203989,
                -0.05201393897347157,
                -0.07463625454767024,
                0.2710154996252606,
                -0.09962606781629472,
                -0.24292767996330103,
                0.4299114912858846,
                0.31589931632175006,
                -0.23537221726377588,
                -0.24187659426483074,
                -0.20368145558390208,
                -0.1948624271144707,
                -0.38726564520225926,
                -0.2802962248884264,
                -0.12064537718428782,
                0.004904533106246923,
                0.2882969954970375,
                0.3556891083250109,
                0.17909639710013264,
                -0.5417294195400189
            ],
            [
                -0.20711878489896726,
                0.31945860588652575,
                0.20353765562154214,
                -0.3050236899086345,
                -0.26364542393757406,
                0.5074675809550158,
                0.03573853314751953,
                -0.33644135188123564,
                -0.2515315755065377,
                0.27299478998974763,
                0.2411646652781994,
                0.18977053406897018,
                -0.28773803573809936,
                0.6019386616465029,
                0.07447566085103367,
                0.22141810310681506,
                -0.011559123871379974,
                0.36477112201714884,
                0.10508872438942087,
                0.20872814278981855,
                0.16825579336861832,
                0.19014935899087582,
                -0.06061512145529398,
                0.04711710981275692,
                -0.06407649484311974,
                0.2498518395679627,
                -0.03615872381531972,
                -0.16080428527087595,
                0.5715077738345383,
                -0.22736977685345802,
                0.17872867659101213,
                0.29856163463072205
            ],
            [
                0.3355963395306959,
                -0.1706042606850744,
                -0.35914625922403665,
                0.5007306355844201,
                -0.3591735896065245,
                0.1337508945850033,
                0.19079375306075055,
                0.10884497730351073,
                -0.0024468294547091013,
                0.0020227703649911533,
                -0.0904860854097247,
                -0.42016938528793385,
                -0.16400786485089486,
                0.08757146434220846,
                -0.19550929859397576,
                0.20271262652765315,
                0.08543396118168065,
                -0.2708941969764838,
                0.2882239946524899,
                -0.25164912071751255,
                -0.33308856354455135,
                -0.3658465411421386,
                -0.3465573987450547,
                -0.20233178044180608,
                -0.3162005892965602,
                0.22248642223467252,
                0.29687775488492324,
                -0.12514493015055858,
                -0.20114318471075476,
                -0.3095688633564194,
                -0.08967629808432855,
                0.15610693559819658
            ],
            [
                -0.014645402179011778,
                -0.5554358617378452,
                -0.29163136889971897,
                0.028443693054320533,
                -0.3772468018402801,
                0.1324200295070314,
                -0.2961849022617011,
                0.21180005921853604,
                -0.12754398812280812,
                -0.28674794675539034,
                0.5099759699377234,
                0.42838985529113827,
                0.4307350310742459,
                -0.37964364649338445,
                -0.5963364614882879,
                -0.35405839301498776,
                -0.5043532224376148,
                -0.1691313822423801,
                0.5363477608496671,
                0.3079810789957842,
                -0.02336437082736127,
                0.43280378269363,
                -0.11502272929898887,
                0.338463340779099,
                -0.18627867884767688,
                0.4280643694137773,
                -0.3661232921933349,
                -0.174161034501896,
                -0.482535535591861,
                -0.27430055452316754,
                -0.13602942517439198,
                0.2873086347033777
            ],
            [
                -0.4351302679331697,
                0.35241699081372246,
                -0.5566672694067268,
                -0.47922406654402283,
                0.2621815799927841,
                0.04941669612691446,
                -0.43672778732556905,
                -0.24239432268900327,
                -0.3396990842830775,
                -0.4607184734617729,
                -0.20033763290141507,
                0.06841283073332707,
                -0.24741008976175594,
                -0.46183080537749677,
                0.11426598232423958,
                -0.4890244990561936,
                0.3005791933176768,
                0.5154654169765244,
                -0.2558801117872945,
                -0.11475917073081515,
                -0.30161748240743563,
                -0.18363347486906273,
                0.4690178776148045,
                -0.049700189917150736,
                0.40075391968177304,
                -0.06802687575406734,
                -0.5740030230753024,
                0.48640397734530005,
                0.006101784768837862,
                -0.1680327422549172,
                0.07820051117860359,
                -0.15424611624202444
            ],
            [
                0.04836918684069915,
                -0.4283962377949876,
                0.49428840584359424,
                0.05663610227889272,
                0.038326709771840994,
                -0.21163754356846068,
                0.18084914771105198,
                0.25349924347979985,
                0.308700166361574,
                0.38800159590125444,
                0.2084056831643708,
                -0.05637595527322337,
                -0.33644541154178953,
                -0.25440017589060343,
                0.3073372962989501,
                0.05272197293100493,
                -0.013033379455649625,
                -0.22132191421198263,
                0.04509806289771934,
                -0.4724139818016967,
                0.14731817580443846,
                -0.5822447113538848,
                -0.3454894904736626,
                -0.24671841632520775,
                0.15700581569833777,
                -0.3911960818313514,
                0.6176945124442043,
                -0.43079429241288003,
                0.5773958490931811,
                -0.1302917668137176,
                -0.016781735721776197,
                0.1003562890306934
            ],
            [
                -0.25814366867808825,
                -0.28014005456140056,
                0.24278910758271824,
                -0.222628380536707,
                0.01942072085854209,
                0.18959463142865862,
                0.2527950398182309,
                0.43186053862019697,
                0.21382290589907846,
                0.30981780073475257,
                0.3835220628097685,
                0.29450516177754305,
                -0.16163083012086008,
                -0.3245781887426703,
                -0.4271550186645744,
                0.04943055500656353,
                -0.34160331781823233,
                0.04368337228082747,
                0.4251202525691658,
                -0.025819355271283394,
                0.14172918747957094,
                0.07026936185176393,
                0.04033627644353367,
                -0.003660084218764614,
                0.026018738829362165,
                -0.19261694745019423,
                -0.07888143503347211,
                0.2710681408914797,
                -0.28837281370022233,
                0.3381420535400716,
                -0.12204590064803107,
                0.41023528801365516
            ],
            [
                -0.2747021363117065,
                0.2755770595955066,
                -0.19528137062668455,
                0.28386053795834,
                -0.4212343751097196,
                -0.12863740406837784,
                -0.06186132346422322,
                0.29899755624814345,
                -0.03758902757222107,
                -0.2554329339307168,
                0.1221760105579462,
                0.4298458504664354,
                0.041335915996524496,
                -0.46730720680308613,
                0.2663751355547292,
                0.09324375686931122,
                0.13223316101417182,
                0.5396794301467002,
                0.11758438102027442,
                0.05772889839024541,
                -0.3990300928116413,
                0.03585757037586153,
                0.0834319928170273,
                0.12133673749750357,
                -0.1516490778746226,
                0.16055918043234937,
                0.2666878597187173,
                0.17577327436036394,
                0.5036153833582485,
                0.17855933595939372,
                0.0965819583504352,
                -0.21133529114038602
            ],
            [
                0.48868968752813946,
                0.27926596533967757,
                -0.17616342998895612,
                0.3145190446355586,
                0.49732916103453567,
                0.2701427321473116,
                0.12509553648215735,
                0.17979379787845007,
                0.2774111737332212,
                0.22955224735800378,
                -0.13914977852892518,
                0.15219310854550536,
                0.3062545484374332,
                0.06409479905915468,
                0.22607177284677415,
                0.3282067519984917,
                0.3648413259138644,
                -0.34005384209967315,
                -0.01855975890619307,
                -0.07034003345767056,
                0.11860550797263211,
                -0.4444708439367897,
                -0.4544882387881725,
                0.49960987732089196,
                0.1775521316080804,
                -0.08160099425002744,
                0.12486960365724288,
                0.12126474331984023,
                0.2051817304356765,
                0.12949634622957906,
                0.29935434065443634,
                0.3027639448488574
            ]
        ],
        [
            [
                0.4821799925950138,
                -0.4998970984789168,
                0.0689782640148891,
                0.40866791826083626,
                -0.580242258013572,
                -0.17269460338986886,
                0.4747344081879545,
                0.43642235275154684,
                -0.27919121658921847,
                0.27574256721738416,
                -0.23786399139646783,
                0.12659447864342072,
                0.43909677603016817,
                -0.3265905270026268,
                -0.2415548131401452,
                0.5769958672015925,
                0.4790745481578197,
                0.22430969973744888,
                0.05406089564193946,
                0.0633718294893932,
                0.15829673003750555,
                0.21691746169700982,
                -0.593767231087041,
                0.5632412803981436,
                -0.1782359880798311,
                -0.5533456479500909,
                -0.5753216287196982,
                -0.026448566933040388,
                -0.4384652083375155,
                -0.07978008786294671,
                0.005466373300932938,
                0.03136567573158635,
                0.3305715177719153,
                -0.15859885993573228,
                -0.2786631772883134,
                -0.03971216840067919,
                0.42082624029455606,
                0.5482012400604607,
                -0.10154319367102933,
                0.40742791952495033,
                -0.10283639590667251,
                -0.2820315711446463
            ],
            [
                -0.33550504372595913,
                -0.25386896125550623,
                -0.17423361129621362,
                -0.04571624574576515,
                -0.323832195368927,
                -0.3589933921807955,
                0.36774910209155653,
                0.1794710589398552,
                -0.28958624427209567,
                -0.44016343263021185,
                -0.00949538357777988,
                0.012988983651432346,
                -0.17188014109242641,
                0.011879286612691817,
                -0.08982283462170583,
                -0.2540250131166939,
                0.22238035162537179,
                -0.12048696739191592,
                -0.046395910882022266,
                0.25933545473076225,
                0.016609267745016323,
                -0.16000269617200466,
                0.08659168494977074,
                0.25940381117739764,
                0.3764750804381138,
                0.04172555486175255,
                0.13684575184764725,
                0.3850961148166678,
                0.15413665522781514,
                0.1731784324217859,
                -0.4065560718558537,
                0.015420222825558263,
                -0.08970926328637616,
                -0.3517172148224957,
                0.0007878118016598136,
                -0.3619941069681841,
                -0.3605484630195709,
                -0.09901289930396269,
                0.057100556240671334,
                -0.003232458800098582,
                -0.4661893212940615,
                -0.01687566550102083
            ],
            [
                -0.08042494602953591,
                -0.2877183319171902,
                -0.640077042350053,
                0.3164650388179808,
                -0.4420985000787393,
                -0.4897365349142207,
                0.28432921897218966,
                0.21166514558503155,
                -0.6146755939524392,
                0.20162849096102045,
                0.4019138370387093,
                0.585322546056426,
                0.12591641507607146,
                -0.3011885097803551,
                0.07278533258155888,
                0.07663371874146171,
                0.6973174921564083,
                -0.40774960768750834,
                -0.6873790028175396,
                0.05761398556733406,
                0.19567446952154915,
                0.26095756655090757,
                -0.5644407635659587,
                -0.11157732447639965,
                -0.3965396806472002,
                -0.6859463954329151,
                0.26878967116657976,
                0.11604129570301722,
                -0.20371865230407024,
                0.29507584688425226,
                -0.238992253615281,
                0.08306170801790173,
                0.4547122875043847,
                -0.0011304635175065562,
                -0.5139919558141373,
                -0.633582438418726,
                -0.11992326261735327,
                0.03731361542212226,
                -0.4427102796455005,
                0.7125408940311106,
                0.10404055663753142,
                -0.12089771423061571
            ],
            [
                -0.1323720631689684,
                -0.23561691130429288,
                -0.4427729661752249,
                0.3105354483375642,
                0.24088747423169263,
                -0.36756222302571523,
                0.19251353421808218,
                -0.0753401842664718,
                -0.32081264053620034,
                -0.20500407989839023,
                0.5102118833408772,
                0.22309439848463924,
                0.36728200854084203,
                -0.18169067438578904,
                -0.0551582440990427,
                0.3892822508801413,
                0.301057873886435,
                -0.16330214111289024,
                -0.520817708561592,
                0.22709961065618164,
                0.3467913357991453,
                0.28191582097745055,
                0.3123097193512005,
                0.15143417990353358,
                -0.2985848059980595,
                0.06984715974346735,
                0.18102659638282442,
                0.3206743455943645,
                0.185556969314374,
                0.5198253101441218,
                0.3176205107752477,
                -0.07433091560120256,
                0.2445181599491662,
                -0.2819208739996844,
                0.18462790974990803,
                0.20915114440148003,
                -0.2562041677719461,
                -0.28665149645592636,
                -0.05874743234957084,
                -0.26263080151882623,
                -0.02511493458882031,
                -0.17924166104573383
            ],
            [
                0.3663034380785594,
                -0.35269189920845684,
                -0.31326701348279135,
                0.05410223441429785,
                0.2694008641043814,
                -0.45511873249440477,
                0.34148624382339404,
                0.16900922305486346,
                -0.0734463465872659,
                -0.2088469293742148,
                0.20853689857562788,
                -0.3038642774126766,
                0.23234438710960834,
                -0.11235311586756172,
                0.048957383900732496,
                0.4603269037360262,
                0.44412158343742,
                -0.0033168626463197484,
                -0.226227759315312,
                0.1706941770920126,
                0.2755804331714663,
                -0.1880246423115764,
                -0.22042511878408538,
                0.42987467480951486,
                0.18952058889550222,
                0.15515594295509694,
                -0.03177599469874285,
                -0.25156906120162753,
                -0.4318130570246156,
                0.21171437121293235,
                0.26175665191483244,
                0.15341377898514924,
                0.2786862799828895,
                -0.21541665220414533,
                0.10581083007668048,
                -0.10470379922392771,
                0.00951264596339681,
                0.29303954961935813,
                -0.08683697757834112,
                0.18835280888895728,
                0.44290350091178304,
                -0.16429696205534117
            ],
            [
                -0.3582649480906626,
                -0.3537621262216292,
                0.22220267341968816,
                0.06648492169392699,
                -0.4245031602329805,
                -0.110986214826606,
                0.04107648780590547,
                0.04101584803747799,
                0.3078661158484544,
                -0.13378998855948712,
                0.38386184513817,
                -0.06327935264666013,
                -0.40483721752215546,
                0.1011217643544971,
                -0.050233107629757655,
                -0.18960788003685658,
                0.2825585896481878,
                -0.3300615691237763,
                0.3453966375460433,
                0.2899180197632742,
                -0.15086593259673275,
                0.09670721401117663,
                -0.07547756953269415,
                -0.13428278682741002,
                -0.24155554732358642,
                -0.3771027931967507,
                0.12051663776628041,
                -0.06831773385799549,
                0.07667118782690864,
                -0.10065952133640563,
                -0.08605447271213097,
                0.38585997932006644,
                -0.10279554401866846,
                -0.18159017633865834,
                0.12468425428200428,
                0.19863648754601038,
                0.17990798454085935,
                0.1119830047241662,
                -0.3132429020407277,
                -0.3296473661425629,
                -0.35832348422713184,
                0.027453860111024336
            ],
            [
                0.02628042811103139,
                -0.6005909397287027,
                -0.18908156748951707,
                0.5279554812115762,
                -0.31262217479007953,
                -0.05338839097860134,
                0.3835322783970498,
                -0.12779970885872602,
                -0.32594272670566266,
                -0.14542164548705724,
                0.02401416131719824,
                0.0029424445491030345,
                0.6661209018991461,
                -0.3021632377511787,
                -0.3114768265233622,
                0.368345820397923,
                0.3599779589298293,
                0.0719542792927704,
                -0.4675838564361566,
                -0.002601496263908615,
                0.11393653382554551,
                -0.1333206206404988,
                -0.040159683072223076,
                -0.05874257609408038,
                -0.6013840406384797,
                -0.16959778435941136,
                -0.3419015634969627,
                -0.610517375243225,
                -0.24709055055114645,
                0.3682788223621502,
                -0.4006066782281015,
                0.03421767700993512,
                0.12565828587348749,
                -0.017747973099817037,
                -0.31138434823404487,
                -0.5702775128438132,
                -0.18564951134827395,
                0.5742811259999049,
                -0.3489129124775611,
                -0.10464332395431701,
                0.44684886574661004,
                -0.026365774488421066
            ],
            [
                -0.44325060643689757,
                0.19421885495027855,
                0.1591931857722489,
                -0.35957327322652655,
                0.2326944461659885,
                0.25306890460793585,
                -0.5091898196252372,
                -0.3040896147721233,
                0.36035205141120324,
                -0.5041802616162664,
                -0.22935878604482043,
                -0.4610112832232774,
                -0.13755478204416866,
                0.6077925516803578,
                0.3629803419640897,
                -0.0851529391614029,
                -0.2868624473389062,
                -0.1359131525833312,
                0.4007199829578836,
                -0.008695840351894147,
                -0.5387502595645813,
                -0.5290064679137679,
                0.5460123866053181,
                -0.39598286667125787,
                -0.017872391356184358,
                0.5195561384146798,
                -0.16815884222061747,
                0.20322316596027712,
                0.1525880893117033,
                -0.375431039126572,
                -0.1112718717160419,
                -0.10573155500044505,
                -0.11514917578635225,
                0.011241882046361382,
                -0.22428572685074932,
                0.6477857063090913,
                -0.4396258175916012,
                -0.5562542492984369,
                0.37950461316628803,
                -0.6328715812548598,
                -0.045170009602902725,
                0.05378730354373793
            ],
            [
                -0.289349109971091,
                -0.19885014259937198,
                0.333726888653035,
                0.2449892680943313,
                0.4424864871530623,
                0.3809839910518548,
                0.164289491301931,
                0.1863200550961915,
                0.19209151737084565,
                -0.045033473826662056,
                -0.1723363354406709,
                0.19442336310551345,
                -0.2921778455580727,
                0.3718113852430966,
                -0.2789680328676823,
                -0.17750081184660688,
                0.11256777329516479,
                -0.05525407196422896,
                0.049171861058972734,
                0.24096402736236316,
                0.25560441593641564,
                -0.06960033207372822,
                0.2330108364000696,
                -0.13564179296974851,
                0.02537114847484575,
                0.2236868834177997,
                0.5385262828547591,
                -0.18295857976205368,
                -0.03750148307613261,
                -0.23403353182769687,
                -0.39418574988154265,
                0.260744944519792,
                -0.014842162901271225,
                -0.07329598821192763,
                -0.46740486916508606,
                0.254303570982964,
                0.4091468465470996,
                -0.14413998790086716,
                -0.20482531673218252,
                -0.30023387983953775,
                0.036137197375286416,
                0.0965102531085955
            ],
            [
                0.21748093873302365,
                -0.712569645510072,
                -0.1578267351951341,
                0.22291158744391903,
                0.08779718714031151,
                -0.6654288087596296,
                -0.06413974327190836,
                0.5142714848904513,
                -0.3986695238942888,
                0.5093682609132928,
                0.24087323786646725,
                0.6840908525886578,
                0.4138810499574578,
                -0.002426705880548095,
                0.16608640608198527,
                -0.03961506764425289,
                0.41472788648725323,
                0.06699687775357972,
                -0.04970454477947174,
                0.6574077050704831,
                0.49728349361068624,
                -0.08692556139165002,
                0.07504783490871837,
                0.4926246925606525,
                -0.20026434940401047,
                -0.4591594714219948,
                0.31282430920259846,
                -0.6243654713459742,
                -0.07409736026775567,
                0.13197891196645847,
                0.09900264492470501,
                0.33933408799946235,
                0.24904122179463595,
                0.058347477978048845,
                0.008529722308067006,
                -0.5846699755042257,
                0.24008279252171774,
                0.36803250600083653,
                -0.2845428811274867,
                0.5157255816602944,
                -0.06767605838970511,
                0.1688749333155882
            ],
            [
                -0.41275795962892564,
                -0.16657249697528762,
                -0.2128020869422977,
                0.24413940905207746,
                0.02248428916680677,
                -0.19642113941328307,
                0.20695995986870222,
                0.3496340652184989,
                0.044240340771639505,
                -0.11700141123517066,
                -0.13807314782666996,
                -0.34232645816430346,
                0.4210804803654236,
                0.15917146605941263,
                -0.08099177818363802,
                -0.05582780403212244,
                -0.013532856184968722,
                0.06875447022401855,
                -0.16807684374803297,
                0.10620873815596023,
                -0.320284397969695,
                -0.16959968879051315,
                0.3010659971065183,
                -0.02356208228781105,
                -0.18609631013669428,
                0.13287367625747254,
                -0.4289734851180249,
                0.25846902896598395,
                0.13912170619671876,
                0.42264442880027325,
                0.39743679887961963,
                -0.15156421822403598,
                -0.2993864473063197,
                0.090789372945536,
                -0.098098631092545,
                -0.21311604191390662,
                -0.3977429405553605,
                -0.34625132852735807,
                0.41510220619406984,
                -0.3033759854799972,
                0.04215173527975017,
                0.1103955961507612
            ],
            [
                -0.22046534063395937,
                -0.006215591738506021,
                -0.2067907711725898,
                0.017518658870844483,
                -0.13815037602612798,
                -0.16345008460650268,
                -0.1618572123550181,
                0.1822072461207427,
                0.15208485498256183,
                0.025942990721805104,
                0.16140385973665033,
                -0.07904286752999407,
                -0.5581086062256447,
                0.628068364973949,
                0.31905258224135247,
                -0.35866910326137297,
                -0.08066750832353568,
                0.40701445130526137,
                0.04961963424187511,
                -0.32950955524275527,
                -0.15897188339395465,
                -0.3840922911627422,
                0.06950773621402097,
                0.11295514048763411,
                0.3446665418123682,
                0.12771486078401464,
                0.3124668842707601,
                0.09913904361202605,
                0.03367741151989691,
                0.17015124827972986,
                0.5592240317373106,
                -0.24088921520136522,
                -0.11835775466619973,
                0.6107536062864264,
                -0.058435076580599946,
                0.29759412893338183,
                -0.4545044319936298,
                0.11975917967779362,
                0.5514139495287045,
                -0.4705905439824707,
                -0.28675564365306516,
                -0.27450549413144293
            ],
            [
                -0.011909893638938502,
                0.331825141447729,
                -0.12734944929580413,
                -0.4006917582114486,
                0.49744015900441363,
                0.5431487837388113,
                -0.5986467716361481,
                -0.5617024714329784,
                0.36901718872439304,
                -0.23525637440171496,
                -0.2634661162050476,
                0.11242664927815711,
                -0.3221110499793619,
                0.6533771372488726,
                0.0008691996265275583,
                0.16614674916375052,
                0.17293772348533792,
                0.2542936820004078,
                0.08826860758394182,
                -0.2780212187363234,
                0.07251842562749251,
                0.0760319720228313,
                -0.04451312168495387,
                -0.5916040171716498,
                -0.08200017366831565,
                0.6448349251244229,
                0.4775262532373206,
                -0.14503810500623274,
                0.6143538853207358,
                0.005040310062749858,
                0.06654291409298191,
                0.4350940911172831,
                -0.13128674543894583,
                0.10166249214969805,
                0.2649207568435042,
                -0.05511563932077223,
                -0.42617928001048677,
                -0.3554955443824901,
                0.38660672195070916,
                -0.4599045287189349,
                -0.11448851831147802,
                -0.09784045822965473
            ],
            [
                0.18880790204589026,
                -0.681241597494185,
                -0.28345970864787934,
                0.39559870235590305,
                0.13838471265094968,
                0.16756952035947242,
                0.5227548508561585,
                0.2705260416163002,
                -0.09935597092111496,
                -0.02191886909518414,
                0.4589944154150879,
                0.2916948989249524,
                0.558137583824498,
                -0.6332737675822107,
                -0.3666811892163379,
                0.44264198675884525,
                0.2942425908584977,
                -0.6403896674762921,
                0.11054046213009196,
                0.6304531031889327,
                0.48155608534218064,
                0.4290283917750864,
                -0.017144773701691055,
                0.0028177403416800146,
                -0.3204417425407034,
                -0.3196393171543049,
                0.34788588631408773,
                -0.6857888068315303,
                -0.5473760586523306,
                0.39703373654386903,
                -0.1766584230788007,
                -0.0308557396526358,
                -0.17040069912714,
                -0.027266824071438853,
                -0.30182932648914484,
                0.04291888779583748,
                0.12153421401942929,
                0.3661104251398658,
                -0.3059186844614096,
                0.3752505353276102,
                -0.12699906721107143,
                -0.5023749499956313
            ],
            [
                0.17305259745726329,
                0.02985582990516399,
                -0.04161138979859009,
                0.4301298608182953,
                -0.3290400303816206,
                -0.3941413043397637,
                -0.10423096128998958,
                0.3576703650983514,
                0.3791789577991305,
                -0.31223124672763225,
                0.0004866317963706068,
                0.3806207240836253,
                0.38537806429041643,
                0.07265184099847027,
                -0.07248413870873627,
                -0.30358840115182817,
                0.32192722625666714,
                -0.009886987095530347,
                -0.23401409368157852,
                -0.37211945256101453,
                0.28255652962579375,
                -0.42038452577091506,
                -0.1759469733149029,
                0.31978320084448814,
                -0.17884252932754763,
                0.005030000247533336,
                0.1603865474384892,
                -0.3585795240714685,
                -0.13598234106497417,
                0.05070396019077771,
                0.42854908264040875,
                0.5229265757172347,
                -0.30690476352203633,
                -0.2853002381577381,
                -0.2750886983870436,
                -0.16093719805035656,
                -0.0015436495174428906,
                0.26010147116464555,
                0.13496436384671234,
                -0.3655895455852616,
                0.09410374387994008,
                -0.3645645411026165
            ],
            [
                0.48886996999930504,
                -0.3541565246728575,
                0.12440779688521106,
                0.42869242814592357,
                -0.04216676018095876,
                -0.5719418954660657,
                0.1907568081464104,
                -0.15676427294247455,
                -0.14485474186704994,
                0.513339375402957,
                0.06370264362825533,
                0.11184216385854122,
                0.18230520488364713,
                -0.23457078771770812,
                -0.4610993603876114,
                0.363849539911311,
                0.1409177501101521,
                -0.2067031436572351,
                -0.5463779644939698,
                0.42433084410030864,
                0.48434243413672506,
                0.5847025410649935,
                0.23290401871863795,
                0.13639755732865866,
                -0.001989413099203154,
                0.06718930434816857,
                0.24873980380347688,
                -0.48430912834879786,
                -0.4420464473678757,
                -0.30300197841447846,
                -0.1091750538089855,
                -0.11394105910160955,
                0.20570487327662207,
                0.020882579550757018,
                0.2569172108704559,
                0.19014093861572035,
                -0.12221286548901303,
                0.18868344450169347,
                -0.3746805304402679,
                0.0938081093080368,
                -0.19560075077542538,
                0.15774599505579315
            ],
            [
                0.2092675742287432,
                -0.1344888040687254,
                -0.4114593963196383,
                -0.09572376279052125,
                -0.4304597634555807,
                -0.009085346148897349,
                0.38967266603186146,
                0.051867595827755054,
                -0.43060570799764764,
                0.18582370277309454,
                0.32209820425277,
                0.2672590973743264,
                0.41511549259834724,
                -0.3291720656361075,
                -0.43754851328137845,
                0.21806715158753698,
                0.41660818965354657,
                0.01849243330561234,
                0.2041405238148738,
                -0.12626848876856842,
                0.3980304773057173,
                -0.2556743522001232,
                0.2652503130601502,
                0.13947415188474732,
                -0.39773312914930875,
                -0.08503003971692556,
                0.3973211300248629,
                -0.26926450840122673,
                0.194563182832049,
                0.029875542098876398,
                -0.34871735609604926,
                -0.14749817585167613,
                -0.2875989188249654,
                0.22350736146273142,
                0.20020529082589708,
                0.05407639527276186,
                0.39828343857074894,
                -0.30846673736250313,
                0.07016805417394745,
                -0.1259867161607269,
                0.12024033834654661,
                -0.3638329277137893
            ],
            [
                -0.1503817008048151,
                0.3157207663775384,
                -0.3518695875991166,
                -0.13492799428334756,
                -0.2633960189107656,
                -0.15045123725174814,
                -0.17762474215455065,
                -0.35042217821486327,
                -0.022918553680654003,
                0.24489913858908946,
                0.325530135205162,
                -0.1919197108344805,
                -0.2579652413145179,
                -0.07514337176825875,
                -0.24517439076443098,
                -0.43732840127225325,
                -0.2702184034106256,
                0.3607515046599462,
                -0.23719954341176352,
                -0.19639577104129752,
                0.27451234264858604,
                -0.18878832641251506,
                0.28314587925870766,
                0.19818957539516038,
                -0.36352531550325495,
                0.1492943381321818,
                0.43590312351219146,
                0.4455755793148581,
                0.22980360742728798,
                0.3243899779793156,
                0.2241999866448901,
                -0.009600932796374851,
                0.4042376643808874,
                0.03055725530628318,
                0.20361084784424294,
                -0.17183353114715108,
                0.3451151486681149,
                0.2672389054739047,
                -0.07634749606439403,
                -0.04495595988837592,
                -0.25975266700702676,
                0.10160489739283501
            ],
            [
                -0.34185681719728145,
                0.01856389500704882,
                0.08492782290893214,
                0.08039373908795272,
                0.2505120091072675,
                -0.21839218956598178,
                -0.10091871009727152,
                0.3805489021897304,
                -0.1733777148934642,
                -0.04706327534297078,
                0.09029071628490298,
                -0.31443183569668903,
                -0.30929266519495613,
                -0.17608696417575936,
                -0.11126632378947965,
                0.023752997568940493,
                -0.18169224887378935,
                0.3397062617267816,
                0.26797241215298456,
                -0.31923098129159505,
                0.20478783746952223,
                -0.336784557684922,
                0.17872230019169016,
                -0.12509319548861006,
                -0.1659819769510542,
                -0.14153739443686483,
                -0.4294252106006412,
                -0.372201453991426,
                0.3383666330489496,
                0.2842515877723923,
                -0.21294247718894346,
                0.039209513538390375,
                0.21444678821542157,
                0.06109329759411412,
                0.2527042106134461,
                0.05519804697394662,
                0.26867122368108365,
                0.17604392264246493,
                -0.16769888843235542,
                -0.038404372145225296,
                0.004264842845066334,
                0.25276187243719767
            ],
            [
                -0.16207679852511547,
                0.20563735827791926,
                0.006424321230455349,
                -0.31860955254311246,
                0.4407859726143773,
                0.17408333209246718,
                -0.3968513181820527,
                0.05738595127839365,
                0.03193903737953129,
                -0.04181543096590755,
                -0.007574459669983699,
                -0.11763259752478267,
                -0.30144921822820714,
                0.1895205182960303,
                0.3090355499461857,
                0.14123780368494931,
                -0.2979778725575607,
                -0.2277083031036819,
                -0.06469379513678525,
                0.10591270121510275,
                -0.24138391065898465,
                0.08488708691138624,
                0.5062139405436743,
                0.08581560218962833,
                0.1900421280380589,
                -0.009375476102692746,
                -0.5376207592693313,
                -0.09108511296721351,
                0.20761025914232856,
                -0.3756461115451049,
                0.4923948767056657,
                0.5352327190058954,
                -0.11383827960937394,
                -0.19703309105872632,
                0.23809432649835952,
                -0.08990814627501313,
                -0.23191729669548108,
                0.33784338883083065,
                -0.11377593261723734,
                -0.1852178989348326,
                -0.33715675251795274,
                -0.16252402061235915
            ],
            [
                0.11665942036491658,
                0.29433705413034167,
                0.3250815229168556,
                0.2112641306364177,
                -0.20412905595311767,
                0.35976771427159415,
                0.034904582648863966,
                0.34856752335643293,
                -0.2568349786433902,
                0.21533734022449566,
                0.3229899332194592,
                -0.32663980350701394,
                0.0015084466316800497,
                0.20105967078765066,
                0.37848045837462674,
                0.3654036617296644,
                0.07414409853318134,
                0.2572874050139831,
                -0.26089549218904384,
                -0.33649228015120203,
                0.0669540937223755,
                0.19341706245222828,
                0.04388508850474402,
                -0.18397839422085535,
                -0.3906277587716545,
                -0.11144794993134842,
                -0.22991496044976248,
                -0.09948213598816441,
                0.1320634621213214,
                -0.29356776185657146,
                0.11028959302642904,
                0.0490447354668384,
                -0.28531148178719723,
                -0.12859738436900864,
                -0.18082255324010957,
                -0.029243811587358354,
                -0.3111684109095229,
                0.387761399976856,
                0.3267588503034672,
                0.09465970908799937,
                -0.07595557305283619,
                0.3278489072020265
            ],
            [
                -0.5442897065758506,
                0.5396018862104215,
                0.36330481306697204,
                -0.5905395298239287,
                0.407927559805135,
                0.2759154214474734,
                -0.4689282590356543,
                -0.5185877871040678,
                0.6401761192765991,
                -0.661785004609292,
                -0.06027367284142039,
                -0.42959617678105594,
                -0.33988740869361783,
                0.3156809441860622,
                0.2770415496323533,
                -0.69521076257756,
                -0.3348829679633643,
                0.19015701666324483,
                0.12052059870466975,
                -0.2201445370341718,
                -0.207800587480592,
                -0.39023149960757486,
                0.13741588581512915,
                -0.44099548179310294,
                0.22390002258387667,
                0.19098087128007052,
                -0.24628512019155052,
                0.07726183528949901,
                0.25526882731441414,
                0.002070576721827787,
                0.22027580896340307,
                -0.040205450117664944,
                -0.4881578949215771,
                0.275874412633758,
                0.5369799303214683,
                0.2205087789604252,
                0.1219405499284794,
                -0.19856376459446215,
                0.23554397436010957,
                -0.382338634053632,
                0.11801471019229598,
                0.4437723246911975
            ],
            [
                0.17017069029147217,
                -0.28153480081802196,
                -0.1009918328879092,
                0.09912720443750059,
                0.47130028306545685,
                0.03714661912207141,
                -0.3981542677986224,
                -0.0428550913100122,
                0.023342963831018314,
                0.19289626405568028,
                -0.34104767950504716,
                0.3861062198384496,
                -0.03754503101761217,
                0.43804000424113604,
                0.40657085138150556,
                0.3490844530253726,
                -0.40719593727058523,
                0.10710902288512023,
                -0.19954838103984543,
                0.031457535020854965,
                -0.34190572893501364,
                0.41056627090662556,
                0.15184477082044498,
                -0.15477140062598815,
                -0.045400953578948834,
                0.08916071570235758,
                0.3907085559619932,
                -0.00828743739094144,
                -0.25135413269476536,
                0.37417925344620057,
                -0.035417146639251884,
                -0.02834840192342929,
                0.28852058550227044,
                -0.05317116294215066,
                -0.02677386241444269,
                -0.15080407532427076,
                -0.020698142609279546,
                0.299426142976937,
                0.36402911422139267,
                0.3394987629472276,
                -0.3633971391933618,
                0.3431988541947926
            ],
            [
                0.29809056031220726,
                0.3657574696728764,
                -0.1918237674525375,
                -0.4153228696121291,
                0.25696647254149185,
                0.0671119225422764,
                0.10898576693308869,
                -0.43221677411467624,
                -0.15496793313698046,
                -0.047366721456597545,
                0.28139338215508697,
                -0.28484474174158647,
                -0.31055667897464495,
                0.2175034442945865,
                0.28236244438467833,
                0.11617682199181927,
                -0.4583284557167763,
                0.27447273581853776,
                -0.16309591807016052,
                -0.07255550754590112,
                0.1790705763031729,
                -0.18114134162134476,
                -0.15649628195703358,
                -0.05767506706602877,
                -0.36640536441785626,
                0.09298020358451631,
                0.13138462774001472,
                -0.029025331584226762,
                -0.2298653582987074,
                0.13168860670856836,
                -0.023858497824536078,
                0.5117440654487332,
                0.11948412346512333,
                -0.07440274667383268,
                -0.05242260945400579,
                -0.14328035528567903,
                -0.057786257506241605,
                -0.41416148921291757,
                0.3588104422680193,
                -0.20337439031550458,
                0.1648852068445806,
                0.05164517025509817
            ],
            [
                0.011077870319404645,
                -0.1414631457615661,
                -0.2506934644381706,
                -0.23506287791781338,
                -0.2456753071442253,
                -0.4549227871611449,
                -0.34706014557512077,
                -0.02836598044189279,
                -0.06547603674341196,
                0.0007221825071820416,
                -0.012181479731395403,
                -0.10555167559379863,
                -0.3907943139722338,
                -0.22907254320247655,
                0.22992568815764347,
                -0.35580252053864103,
                -0.3475888403463595,
                -0.037236174979568694,
                -0.017428014232370375,
                -0.31619411161916916,
                -0.11305055460233686,
                0.4108981925583952,
                -0.35598086810994006,
                0.2599027873800738,
                -0.2337479324552823,
                -0.33419485922174824,
                -0.12914768061964982,
                -0.040779532362495895,
                -0.13211859389542144,
                0.11537382622262957,
                -0.11847022288291094,
                0.011590098954389548,
                0.39394351832057484,
                -0.25890843860687823,
                -0.04470476970033128,
                0.3479370834673729,
                -0.111178732856391,
                0.26700049056277353,
                0.05147203063796021,
                -0.41594091379211684,
                -0.42223849050862705,
                0.02880023498083626
            ],
            [
                -0.27831817546268095,
                0.5374720762120686,
                -0.2181937839483092,
                -0.3027577377785452,
                -0.07869852699665522,
                0.2791589185867066,
                -0.3882709027820816,
                -0.34547509788107617,
                -0.12770848804355378,
                -0.0528760838808424,
                0.20027157718378996,
                -0.16308699560682668,
                -0.34754738054415524,
                0.3407729236191043,
                0.3167852942137302,
                -0.1105616510516808,
                -0.3772058681930155,
                0.143464292924098,
                0.4901951290837133,
                0.2326315964832105,
                -0.10571804952456618,
                -0.28920540743929773,
                0.3512310088320121,
                -0.05186520851938308,
                -0.06356188368998233,
                0.2471221050136486,
                -0.5082019696814394,
                0.2931602705719659,
                0.32755962146629997,
                -0.4895828804717199,
                0.0006231198881049786,
                0.42557866323666493,
                0.1564675867623385,
                0.1626021610839789,
                0.4476442862912554,
                0.2671880210287417,
                -0.011542657963624832,
                -0.41309738499256493,
                0.34360986545667593,
                0.23767695493905255,
                0.16248680785002684,
                0.03515126130800105
            ],
            [
                0.4348247943589808,
                -0.1199394168239494,
                0.11391641546508546,
                0.15479038791252986,
                -0.6388183803227411,
                -0.31431546816047007,
                0.5015150623496631,
                0.16437464894505274,
                -0.3029617577531674,
                0.14151600331297381,
                0.3238576870132303,
                0.0705119793753538,
                0.5928264803813768,
                -0.23202236246206948,
                -0.5843322258931711,
                0.06705639356944351,
                0.45734629897141904,
                -0.6279493966706577,
                0.05753428662553847,
                0.5616725838308907,
                0.21982563582759035,
                0.6299908428348087,
                -0.3706236652644318,
                0.5127365205328464,
                -0.3204189232583749,
                -0.0705578579885636,
                -0.44441374565568703,
                -0.13555915935824064,
                -0.7118414803379969,
                0.5293449446060732,
                -0.4109067951463261,
                0.3067951280074513,
                0.6548482951557553,
                -0.1727800258912038,
                -0.4253709848647712,
                -0.2448449129905309,
                0.6611403272004723,
                0.07818472935901394,
                0.027923200121832775,
                0.687299085077619,
                0.0733896272829298,
                -0.28127095950931263
            ],
            [
                -0.5134405894091547,
                -0.10242204174572943,
                0.6122980813543782,
                -0.19647497970723252,
                0.27157659609466606,
                0.31690519281941104,
                0.0741974183412916,
                -0.036032836991062966,
                0.41377215830563646,
                -0.04196077842959424,
                -0.1698723687374108,
                -0.1631550684553748,
                -0.3605543172565165,
                0.43580347903520156,
                -0.10028540477717798,
                -0.4944028490267854,
                -0.6057765330160352,
                0.37862823305601007,
                -0.1314670694128194,
                -0.47742722663302917,
                -0.11804259108197557,
                -0.5773846607403853,
                0.4047287612709699,
                -0.5906287772650436,
                0.1611035908433121,
                0.43332661527241995,
                -0.3141326580901082,
                0.3258784036585314,
                0.035388301794421546,
                -0.28628703170701547,
                0.3210864890887226,
                0.4718397315541364,
                -0.48308061155915083,
                0.5077323344401624,
                0.6217072721306188,
                0.19792013812509662,
                -0.6613510216294297,
                -0.009951113618366002,
                -0.06563148215470409,
                0.19123832838248253,
                -0.22208505155641958,
                0.31942341734245744
            ],
            [
                0.08138601711904177,
                -0.12112291541076398,
                -0.0640764403816914,
                0.1536568402063502,
                0.15152926955042004,
                -0.10643684336573982,
                -0.21595219586136027,
                0.2022554727039847,
                0.19476403653931254,
                0.04316962324543891,
                -0.1349554439834332,
                -0.19773877786064747,
                0.48148805373622694,
                -0.14793490399322284,
                -0.002941883313279037,
                0.35339289251520534,
                0.22093031943323593,
                -0.2532297263870191,
                -0.5414530428157192,
                0.24440261718000303,
                0.22678233495016498,
                -0.16662914798806536,
                -0.1748143622426865,
                0.25301524256345254,
                -0.25751721635045677,
                0.040982061600277696,
                -0.2078362124896678,
                -0.13309526994785084,
                0.1460192714464502,
                -0.11343925383173964,
                -0.48684991768812746,
                -0.2807963298853927,
                0.17699495786947364,
                -0.15611417744118938,
                -0.30790292549712783,
                -0.023319804074628393,
                0.5073450277541331,
                0.1780774980867926,
                0.17460072896323175,
                0.3439140379710579,
                0.28914835921151183,
                -0.33367648544560147
            ],
            [
                0.14582314215060407,
                0.11643103959803273,
                -0.2773012767347227,
                -0.21082906023688744,
                -0.448725476712055,
                -0.004183321472581354,
                -0.0657729578080423,
                0.36937232991768426,
                0.34736741056951476,
                0.31062933252446084,
                -0.10503502237856657,
                0.3382585169815233,
                0.20283101987120083,
                0.09687266535660743,
                -0.1056427107986942,
                -0.3370288999387908,
                0.13904791518033996,
                -0.36367714202960566,
                0.23268545342666988,
                0.5203535325098723,
                0.04707549059339477,
                -0.07023463069694429,
                0.035548416876668994,
                0.05583931451842464,
                -0.09669722336751872,
                -0.4569558797450791,
                0.07805746567689761,
                -0.21437455332759997,
                -0.48213542017700933,
                -0.14843327152041796,
                0.24950337931685238,
                -0.13839022993592992,
                0.047977102796697486,
                -0.4580272248699209,
                0.18518423205988843,
                -0.5016137772722958,
                -0.048003246588595914,
                -0.16065416387215806,
                0.22096919355745956,
                0.1417260265010453,
                0.08238903586256072,
                -0.039351544054009674
            ],
            [
                0.301995038998452,
                -0.230888784817018,
                -0.10063682249677487,
                0.08352120867209357,
                -0.06352365324367927,
                0.17310842587351075,
                0.32672223485728236,
                -0.32478453653002065,
                -0.10414816511351835,
                0.2861630946523805,
                -0.42765270296249897,
                0.06440090122856865,
                0.042168307434177425,
                -0.23430521665994308,
                0.3750531358412462,
                -0.34915126725034973,
                0.36608919955799457,
                -0.32881737268137795,
                0.2398453474331127,
                0.1081435030165726,
                -0.30871918692250544,
                0.0989519898391707,
                -0.21262932899506132,
                -0.010471740232443724,
                -0.08057341956413622,
                -0.20714874055384946,
                -0.48701193528975106,
                0.1557639446730157,
                0.043514547697688435,
                -0.01602314401700134,
                0.18170197264592633,
                0.05339076194302554,
                0.2734405957378294,
                -0.057043346741819864,
                -0.25190519296614794,
                0.20972329224215533,
                0.31663873859224145,
                -0.10143713876909571,
                -0.2642160338240342,
                0.132571007814891,
                -0.2909711755380303,
                0.08168302996220868
            ],
            [
                -0.11824163501600862,
                0.3777710810615742,
                0.16786164339662163,
                0.24604779893004525,
                -0.01985623059396896,
                0.011009495117630228,
                0.16802370048987939,
                0.2633864713907696,
                -0.006512118437293688,
                -0.1706768454644157,
                -0.16787819218454075,
                -0.3950577331003545,
                -0.1271417054233312,
                0.4309743525281446,
                0.3479907680318233,
                0.028817035577889536,
                0.3637591468759007,
                -0.33934156092110107,
                -0.14482060474313746,
                -0.42880427329296217,
                -0.3290150831996218,
                0.4538221992089633,
                0.11233501417312639,
                0.3424164585565294,
                0.1947042193151103,
                -0.042275994909481994,
                0.27074867119270235,
                0.3075343673672522,
                0.1670454598353272,
                0.019528327684031035,
                0.05698126997099898,
                0.2934355446396238,
                -0.2660376608524544,
                -0.3840300668881338,
                0.2963526987495516,
                -0.03950594820391659,
                -0.22291071525945685,
                0.2407682812965589,
                -0.10398076572053945,
                -0.18056651974816346,
                -0.4013874542660407,
                0.25007485127016565
            ]
        ],
        [
            [
                -0.1299082478783737,
                0.4610866035683316,
                0.1056720641336675,
                -0.12102579087379425,
                -0.18102565039124877,
                0.1566612168840457,
                -0.4243252553316215,
                -0.047625546712271025,
                0.22409790572355037,
                -0.005720735666977743,
                0.2029098799417225,
                -0.15798872553004775,
                0.12521034582353505,
                0.1242310407202839,
                -0.1649897138235784,
                -0.1496937515958504,
                0.05990170237205702,
                -0.4525116758900838,
                -0.1620972602267509,
                -0.0900309741081648,
                0.2381348615535281,
                -0.1553095954219503,
                0.2019539200494658,
                -0.11764817486661047,
                -0.02380908919184031,
                0.23254596726096835,
                -0.03081506346875218,
                -0.3521975214068381,
                -0.44422560728060173,
                0.1871920430492016,
                -0.1322963860670147,
                0.25433593179159125
            ],
            [
                -0.1407465929895318,
                0.1518465631238278,
                -0.25218585041732544,
                -0.03756621385157059,
                0.374601111703532,
                0.18779080222541647,
                -0.08005299044883954,
                0.5197463543732926,
                0.03694193654048965,
                0.17810536173578445,
                0.47675186809263376,
                0.48674687161544605,
                -0.29287628048116837,
                -0.46938814990148026,
                0.29721430058227427,
                0.22369565155327295,
                -0.09531624789548745,
                0.08225531583485549,
                -0.0900430892884876,
                0.23539369483934744,
                -0.0732071262313446,
                0.15580165160247303,
                -0.025307021843033115,
                -0.3457278527947432,
                0.4099378434281944,
                -0.0428894950610603,
                0.23072670033256765,
                -0.18514864696192743,
                0.5202698754133904,
                -0.35832504739727367,
                -0.036734871748194446,
                0.4182820616942931
            ],
            [
                0.13196504681683413,
                -0.10380539584411698,
                -0.16846293675080104,
                0.01888946996279243,
                0.4114049745632289,
                0.03981323666943391,
                0.020022263530567942,
                0.17700833932256163,
                -0.279664912022381,
                -0.1701174746003498,
                0.33699090115875346,
                0.2193070633148048,
                0.1726076573688026,
                0.26397205737764645,
                -0.20216829580054735,
                -0.25975270296938724,
                0.024569650596585474,
                0.24551564790152908,
                -0.1038453664630637,
                0.3142223319513402,
                0.05848133356752095,
                -0.2708765081188443,
                0.3023115765639151,
                -0.2801739216914476,
                0.04077495284357603,
                0.2660403150667592,
                -0.2415787711448145,
                0.3877270164424651,
                0.4050428732701,
                -0.4061308047294452,
                -0.3448738025158502,
                0.21156163672360884
            ],
            [
                0.20063351558419268,
                -0.27014422696728563,
                0.38798151098352884,
                0.36658433827439657,
                -0.18951909535114966,
                -0.10276265871291679,
                -0.1722829557107337,
                0.08701153629010397,
                -0.02156275087382129,
                -0.41580481935273333,
                0.0026357465353072937,
                -0.17328780318970455,
                0.3289778219828292,
                -0.23390133357429682,
                -0.2549580940616462,
                -0.06005764592173622,
                -0.1581852863691259,
                -0.3504210323009788,
                0.19303698724042595,
                0.20536452306196842,
                0.36043681721861753,
                -0.3808172700024417,
                0.14822092916697918,
                0.06136941121732566,
                -0.1592986534679609,
                -0.09716715107319335,
                0.03203519662789503,
                -0.27414111361297505,
                -0.38972321972586393,
                0.08119821863329194,
                -0.11287260486028938,
                -0.07875935740077071
            ],
            [
                0.12454068523247555,
                -0.03909646822090831,
                0.24232118582056383,
                -0.31482024597763675,
                -0.16265662564140196,
                0.3579634687368714,
                0.14766193089449337,
                0.37073257531197457,
                -0.3488329507457702,
                0.22323377071114078,
                -0.03209191227050558,
                0.4428620389972239,
                -0.3584194924785075,
                0.0142682387706706,
                0.37238716557304713,
                0.2944690194998075,
                0.23977853673056257,
                0.29442917371379396,
                0.14198191862018594,
                0.39460790775332466,
                0.28077796552060125,
                -0.21257784013413566,
                0.23084706683202016,
                -0.04516753834557286,
                0.26752722649498245,
                -0.3185303056161346,
                0.20712363695324731,
                0.4148185415641931,
                -0.0012946547242761025,
                0.04384864358845767,
                -0.0706552428215293,
                -0.02726492965290206
            ],
            [
                0.007566211925672244,
                -0.05540638047057383,
                0.1497782356466687,
                -0.18325216083302998,
                0.16011992188862695,
                0.14605307090698458,
                -0.10138876490325437,
                0.019230656786395975,
                0.10496675308434131,
                -0.04155611734235786,
                0.33328611670216407,
                -0.07904482655078642,
                0.03643044459354015,
                -0.29698957075209265,
                0.33617926646486607,
                0.10925494393731651,
                -0.39601752051628764,
                0.3660727160031317,
                0.08380706790654331,
                0.07896021663072982,
                -0.12287411219238291,
                0.4054685885455366,
                -0.4729464724607102,
                -0.021648559060510695,
                -0.1918970548675076,
                -0.49577703955379226,
                0.48544210574363006,
                0.014778915384013984,
                0.5006079520336235,
                -0.11087813634782452,
                -0.45505265557955427,
                0.2936182735592921
            ],
            [
                -0.45443796496192446,
                -0.09717910255233131,
                0.20585026229860867,
                0.38092496199460885,
                -0.42129797012046677,
                -0.21870555472217923,
                0.013290197529668037,
                0.2752648128897028,
                0.1738258513793478,
                -0.022586045181183588,
                -0.1266357761951605,
                -0.41319208513137823,
                0.3118745440923117,
                0.02553686129886899,
                -0.18597446315914,
                -0.4151292409328859,
                -0.14601863738080814,
                -0.2511616198703691,
                -0.06987030631153193,
                -0.3315299544865718,
                0.45887318907160346,
                -0.221954516803206,
                0.10208724176739535,
                0.4398938955882199,
                0.2005916990234034,
                -0.10533560001190549,
                -0.006067912589971852,
                0.2511451551606677,
                -0.2739382696952094,
                0.2806864850466831,
                0.3344247941938484,
                -0.10397673667681201
            ],
            [
                -0.31584752670640653,
                0.420643847900006,
                0.07644365475384017,
                0.04528569187927535,
                0.14255984093898827,
                0.009594202696821447,
                -0.021352437469061653,
                -0.40858310249470914,
                0.28702148900572727,
                -0.2744721076104916,
                -0.061316654535009,
                -0.30392205711956727,
                0.12632888476804296,
                0.12941108319698383,
                -0.20461756638514167,
                -0.10436810463937012,
                0.3819188850191573,
                -0.05014246551609454,
                -0.18099211745214225,
                0.08782080737791034,
                -0.1348058033143819,
                -0.2087665180873101,
                0.10722118158199913,
                0.35355888203969044,
                -0.022506941643113062,
                -0.29848450161906903,
                -0.16677740878275504,
                -0.435741661503755,
                -0.2832876406918677,
                0.3230258075761533,
                -0.2388876132684325,
                0.2644483630181473
            ],
            [
                -0.1966369226694087,
                0.1560398177900937,
                0.2059911462930688,
                -0.3980356102395564,
                0.024060593702676176,
                0.36160239829776814,
                -0.16326271566105613,
                -0.1422104687063199,
                -0.03139933908071686,
                0.20856369423392218,
                -0.03015329861094821,
                0.149929332167073,
                -0.21289480304556224,
                0.10056396538807909,
                -0.2396518925284031,
                0.0982286706720284,
                -0.15151050300796004,
                0.04095831317224286,
                -0.016152415044721834,
                0.44461653350506647,
                -0.06619567797285372,
                0.3160867016807675,
                -0.21264227935528932,
                0.11243800374905005,
                -0.14700334528341166,
                0.0044621472547648625,
                0.3858318729915634,
                0.33977245632975694,
                -0.007561005152100445,
                -0.38467825843895664,
                -0.15280847333291,
                0.11446436610348745
            ],
            [
                -0.003962636191560165,
                -0.2794112792262308,
                0.20158361380128006,
                -0.18854152431975618,
                -0.06934576430707204,
                -0.007466006303567231,
                0.10298035489682898,
                -0.05326243382128945,
                -0.14350155165525555,
                0.14451389843167542,
                0.06960854159693536,
                -0.21114379202271708,
                -0.2001436390782692,
                -0.29214277597634736,
                -0.36081501258744303,
                0.09248601333691649,
                -0.02186482126656263,
                0.08406549144597679,
                -0.23274988825495102,
                0.23851725352991793,
                -0.030900422046272778,
                -0.21693185799064726,
                0.3223054042241589,
                0.31117667627524026,
                -0.2508906968114004,
                0.3872883447174755,
                -0.1633424618823735,
                -0.13512003471637293,
                -0.395875779453587,
                -0.029422099254678657,
                0.31777996227224375,
                -0.4364520158777048
            ],
            [
                -0.1380370663483999,
                -0.04707376897432719,
                0.20319784058365897,
                0.029522744313140333,
                0.023551923737166924,
                -0.3311559847490551,
                0.06916155135970181,
                -0.14328665741420543,
                0.2152270165822172,
                -0.04737987176180461,
                0.01683295483227424,
                -0.026666124073712886,
                0.09740022078992501,
                0.2854521633270264,
                -0.1472548815205281,
                -0.30353508072223395,
                -0.3604724932923107,
                0.17347098760751906,
                -0.29244547027421425,
                -0.3823217902108942,
                -0.22526578437648465,
                -0.4205301986052431,
                0.3941594005439957,
                -0.26328153102005464,
                -0.0634654932386232,
                0.36093711171513204,
                -0.3801273727886848,
                -0.25791228622753093,
                -0.12339582994120106,
                0.1447744730102847,
                -0.10909156516506716,
                0.31156920229911095
            ],
            [
                -0.1293272717183594,
                -0.15201780603619006,
                0.277969293223602,
                0.24970780744054405,
                -0.13110642136144968,
                0.0186287907135201,
                0.306023209988587,
                -0.4300664576816238,
                -0.2614182151550402,
                -0.03022143095924623,
                -0.20108634304646666,
                0.2126346016610384,
                0.24293594644609587,
                0.27354946430641186,
                -0.4086094133710886,
